2145 100
you -0.3540886 0.0015529398 0.2823393 -0.01389203 -0.027791714 0.04958572 0.21132036 -0.11927781 -0.36963174 0.08992409 0.023958359 -0.3904349 0.39652812 0.23690799 0.018553594 -0.2597188 0.43585932 0.34368965 0.043130886 -0.028463343 0.3430358 0.034364846 -0.09358817 -0.09165727 -0.2961438 -0.05505423 0.15834872 -0.3510522 0.24774787 0.6480114 -0.07275866 0.050390914 0.17127241 -0.22932158 -0.03945543 -0.41737735 -0.10756081 0.05257406 -0.24415158 -0.5954481 -0.12863384 0.21960881 -0.08605785 -0.12881686 -0.022972284 0.17869337 -0.32730243 0.2276421 0.15893082 0.13342577 -0.013947014 0.182121 -0.44274268 0.49609548 -0.14644603 -0.11964391 -0.16904661 0.38893357 0.10495973 -0.13727063 -0.3637658 -0.1925994 -0.050874703 -0.16766408 -0.040111315 0.118316375 -0.26829767 -0.22291759 0.08056542 0.32141134 -0.021337079 0.04953513 -0.16540524 -0.28451476 0.22231257 -0.03788025 0.0628593 0.3778342 0.087136835 0.10614034 -0.1270861 -0.070199594 0.41388747 -0.11430103 0.22476025 -0.12394465 0.060734067 -0.04471075 0.060542323 -0.016037637 0.07266902 -0.27149245 0.09238718 -0.15715466 0.31020477 0.03074116 -0.00045364755 0.36938873 0.168434 0.26218432
i -0.33404475 -0.0703999 0.17639317 -0.026312096 -0.0738298 -0.076308146 0.17337371 -0.077775545 -0.28878558 0.052604165 0.06826032 -0.33145168 0.32492077 0.19901162 -0.02537119 -0.21917652 0.30595794 0.1990963 0.033074312 0.027507395 0.27679294 -0.018610701 -0.09862265 -0.12922388 -0.2725393 -0.11448987 0.14120434 -0.340402 0.19526029 0.60436237 -0.024451246 0.08004559 0.10467161 -0.26360074 -0.0941855 -0.38137105 -0.12980317 0.022988213 -0.3403902 -0.50267464 -0.06602847 0.2362145 -0.039166793 -0.11543106 -0.02440278 0.21321857 -0.36292678 0.22619037 0.17561828 0.087000884 -0.024965493 0.23959334 -0.3819911 0.38644436 -0.08116279 -0.09548771 -0.22114167 0.35991824 0.06486888 -0.13999619 -0.22507167 -0.1547061 -0.13451889 -0.17223771 -0.03969041 0.078825645 -0.21084544 -0.27916497 0.08917744 0.29471517 -0.006411453 -0.03137777 -0.21502161 -0.34189785 0.18429029 0.0835201 0.11459967 0.36623323 0.18682106 0.16609837 -0.21555768 -0.08008334 0.3996214 -0.12306563 0.21390471 -0.07823186 0.0912237 -0.07459529 0.015651206 -0.0047160666 -0.0056112367 -0.23692046 0.165461 -0.17483786 0.3443714 -0.05795761 -0.002310168 0.3877775 0.116511725 0.32093504
the 0.18149173 -0.21153975 0.17301309 -0.13985409 -0.0141955465 -0.010759012 0.17983082 0.32701936 -0.19142325 0.010074415 0.18175867 -0.11670282 0.11534014 0.27552265 -0.11792336 -0.27445236 0.06264649 0.22139436 0.19021706 -0.15017521 0.281003 -0.31978828 0.27632254 0.012742494 -0.059829716 0.101896815 0.12621656 -0.118431516 0.012374038 0.30187675 -0.10488946 0.14974073 -0.026177602 -0.1498629 -0.21257433 -0.30402443 0.16663858 0.011751635 -0.09482322 -0.31349972 0.16120107 -0.039217986 -0.10509485 0.14907922 0.07680208 0.25240672 0.11621461 0.009960011 -0.03932461 0.08344739 -0.1826201 -0.0045647062 -0.36679587 0.09597898 -0.016894026 0.06339838 -0.28856122 0.3051341 0.24104363 0.2583195 0.19318189 -0.156921 0.006078077 -0.12908873 -0.21992096 0.030875094 0.31235433 0.007788485 0.085163794 0.42507634 -0.13821857 -0.14392239 -0.17952143 -0.2446423 -0.15510403 0.23241466 0.1313375 0.20537345 0.02242885 0.021745251 -0.07717386 -0.27533144 0.07850671 0.030790778 -0.024311578 -0.017271318 0.019112844 -0.23853251 -0.00043082915 -0.18668555 0.14014485 0.07483657 -0.049676042 0.0075255777 0.09064254 0.011259424 -0.072376445 -0.06687007 0.240123 0.19179715
and -0.052815232 -0.13069016 0.21090356 -0.11770668 0.012176905 0.11971573 0.094574474 0.13828033 -0.14769548 -0.058157656 -0.055252045 -0.21086687 0.29410848 0.17469922 -0.016172735 -0.25921324 0.09381831 0.24398166 0.187018 -0.10343288 0.22702985 -0.23132792 0.036007013 0.10923052 -0.24903013 0.014181874 0.046175417 -0.14022942 0.15747896 0.4030526 -0.09978575 0.053637307 -0.08250968 -0.1485357 -0.028114855 -0.26777503 0.15537642 0.08854642 -0.07139215 -0.3493895 0.03907706 -0.10418345 -0.05215235 0.029910304 0.0064843753 0.22486342 -0.010241378 0.01775378 0.10368029 0.1245133 -0.09630828 0.07154096 -0.30765373 0.18862125 -0.10730332 -0.03359356 -0.109062284 0.167999 0.12487862 0.13535114 0.12420179 -0.0440083 0.07222981 -0.08371282 -0.119045794 0.12445845 0.09824929 0.025858844 0.14573549 0.24418594 -0.0029045853 0.07124453 -0.13854155 -0.111344 0.011835957 0.14926162 -0.0023926117 0.27543464 0.06442142 -0.023714362 -0.11625434 -0.16184781 0.11913408 0.112775445 0.07836157 0.06749563 -0.031621207 -0.15522356 0.02066048 -0.1852507 0.21952474 0.034405135 -0.0026286505 -0.07724131 0.20174432 -0.06804026 -0.011904433 0.026959447 0.07591429 0.27841067
to -0.19050004 -0.13770346 0.34318283 -0.030617915 0.13442475 0.15677617 0.12811868 -0.081542626 -0.16401155 -0.114041656 -0.06829876 -0.21556382 0.39841002 0.13099368 -0.053193536 -0.35582852 0.29956737 0.200594 0.17502105 0.007536484 0.112571254 -0.16330367 0.073016465 -0.06908952 -0.3763873 0.003321332 0.1109449 -0.28897685 0.21682844 0.51548845 -0.07923036 0.030069914 0.024646863 -0.32430246 -0.04922328 -0.24265231 -0.017218119 -0.12944348 -0.14636771 -0.5146821 0.013541232 0.07713898 0.08781116 0.011654302 0.03432788 0.20735835 -0.28921127 -0.05615264 0.059061535 0.20346044 -0.00024045937 0.121394835 -0.2231982 0.33498803 -0.26562136 -0.14405553 -0.17528711 0.31732795 0.035940945 0.0020586525 0.034891766 0.014690365 -0.08468783 -0.184735 -0.0922973 -0.025536751 -0.16304721 -0.13312697 0.13659698 0.09273001 0.03528727 0.0702682 -0.12811221 -0.28023097 0.17865095 0.16213225 0.035595287 0.37564334 0.11252935 0.10303774 -0.067110166 -0.0154602155 0.16393249 0.02169111 0.1820933 -0.06507146 0.038180314 0.004000961 -0.009177583 0.032509122 -0.029388355 -0.07563319 0.018788341 -0.17708877 0.32167584 0.011022485 -0.057336878 0.15111367 0.20348813 0.3690759
me -0.09144527 -0.017077122 0.26403978 0.10299828 -0.049419276 0.28925192 0.1277641 0.017376587 -0.3132407 -0.1508421 -0.048424944 -0.24621497 0.5753879 0.22487268 0.039061517 -0.31713066 0.3219068 0.52230126 0.21627039 -0.04674734 -0.032747317 0.03420218 -0.16868903 -0.019656895 -0.3590185 -0.0660185 0.2534233 -0.1754181 0.28877372 0.7149333 -0.24545759 -0.05421362 -0.06308659 -0.15235038 0.03407091 -0.24120693 0.11573886 0.0664732 0.09291774 -0.7089403 -0.11855239 0.19848356 -0.13882573 0.01915446 -0.03512437 0.12379226 -0.30610418 0.14225288 0.2278933 0.40104163 -0.034162864 -0.047338866 -0.06355547 0.2905135 -0.123165 -0.15646328 -0.13836025 0.40583998 0.19610776 -0.12127262 -0.13945934 0.15850241 0.111543186 -0.25116464 -0.07796539 -0.016197301 -0.3572604 -0.13015062 0.06512374 0.12775873 -0.10360055 0.15302207 -0.0777545 -0.27732036 0.38002542 0.04708928 -0.15660211 0.58026886 0.12264948 0.036808893 -0.09768897 -0.12025603 0.32622635 -0.19364658 0.05618667 0.0054850285 0.00474475 -0.040922437 -0.031094352 -0.03146559 0.32764527 -0.14912902 0.10733159 -0.22617072 0.4047329 0.1830208 0.026537078 0.032833714 0.17842776 0.31668806
a 0.08973819 -0.19928557 0.11191249 -0.16263567 -0.0346879 0.09549258 0.08702283 0.34926012 0.014540139 -0.13641772 0.16898686 -0.29844382 0.3810155 0.27132472 -0.107403 -0.15301435 -0.17756107 0.055127427 0.14245626 0.027712673 0.06391917 -0.20761643 0.07595195 -0.05671127 -0.17221712 0.018719172 0.04572678 -0.277884 0.057441358 0.3558145 0.111668006 0.057225574 -0.13992175 -0.32875535 -0.17877297 -0.36192855 0.18512018 -0.11952309 -0.18348725 -0.26092625 -0.03368733 -0.007274293 -0.03084908 0.14560881 -0.047411475 0.28572953 -0.22316712 -0.071557865 0.09591084 0.06621094 -0.25175333 0.0678277 -0.20489594 0.15870894 0.13443989 -0.010031341 -0.34441784 0.37972435 0.09116078 0.14749454 0.29233688 0.13902956 -0.102042764 -0.08932323 -0.24061711 -0.1461831 0.1217132 -0.0059596216 0.25320384 0.20549616 0.06791611 -0.15935276 -0.1623617 -0.13614629 0.02697606 0.259692 0.08043533 0.053757727 0.27236372 0.035351392 -0.23381846 -0.18160528 0.008114693 -0.029305972 0.16206546 -0.037910156 -0.037245657 0.050756376 -0.042194158 -0.1705654 0.13922836 -0.061063875 0.071162425 -0.11315454 0.2701866 -0.09551879 -0.026646161 0.05044849 0.080247596 0.24555433
my -0.2391474 -0.14251177 0.17877248 -0.113825426 -0.07071647 0.3377881 0.027597185 0.17220478 -0.14866461 0.17119409 0.17368826 -0.3108314 0.25508755 0.14177856 -0.023804301 -0.16533378 0.037932847 0.47817943 0.12160943 0.08433192 0.3010765 -0.2665083 0.18414669 -0.019320097 -0.06888267 0.04998471 0.13444549 -0.23115347 -0.045639176 0.31647217 -0.085392684 0.093645684 0.022580624 -0.28078568 -0.05177286 -0.18743563 0.00088810525 0.32799152 -0.039821427 -0.5548518 -0.30740702 -0.13127585 -0.21235198 0.19029656 -0.03335059 0.24027707 -0.1391494 -0.021288514 -0.03873851 0.26949388 -0.039269425 -0.015548564 -0.35219544 0.06092734 0.06104636 -0.087487705 -0.25942293 0.31035733 0.30838114 0.18134643 -0.123355746 -0.12396193 0.1677215 -0.17226547 -0.26542494 -0.027299725 0.0023274922 0.06658859 0.030596377 0.37060902 -0.21885243 -0.05867559 -0.25138056 -0.30144447 0.044091552 0.24208577 -0.073592454 0.35126805 -0.02318187 0.1224007 -0.2842084 -0.2899577 0.02533367 0.059492514 -0.06989121 -0.05437994 0.06660868 -0.061980337 0.18517396 -0.28415647 0.19309866 0.05192602 -0.11790617 -0.038036242 0.25888735 -0.0096571585 -0.06918082 0.009362913 0.2519345 0.0985562
love -0.33433908 -0.26260397 0.06341242 -0.065131806 -0.3308466 0.12576655 0.025757542 0.0636745 -0.21624191 0.26251882 0.051726025 -0.40730536 0.32737115 0.28613597 0.310189 0.0946314 0.102641605 0.36233702 0.029565146 0.057385527 0.5365785 0.047632474 0.046971142 0.10603828 -0.17154406 0.035155594 0.19671804 -0.35829675 0.14773332 0.5753204 0.09706145 -0.06426057 0.0021478701 -0.33458295 0.15628728 -0.31324738 -0.19948372 0.28647232 -0.095373765 -0.5775381 -0.5650395 -0.12209235 -0.22414163 0.014590473 -0.072150946 0.3169138 -0.008358111 0.22060695 0.35979834 0.20223425 0.015880167 0.24182774 -0.5202516 0.43799305 0.22507079 -0.0021464068 -0.030811675 0.32372382 0.25589886 0.11880167 -0.33815932 -0.11863221 0.22897351 0.13625553 -0.05145143 0.38166413 -0.17049764 -0.20856996 0.1788929 0.44886428 0.10977925 -0.029938146 -0.028709948 -0.21850541 0.0667925 -0.076876104 -0.17261817 0.21684276 0.17303897 0.13426866 -0.3062825 -0.14563848 0.3172463 0.081104785 -0.12297267 0.071944535 0.30017152 -0.13215673 0.11965642 -0.29640016 0.1475089 0.0053236308 -0.09745056 -0.19505256 0.17600065 -0.090081684 -0.026571544 0.17419851 0.20689146 0.03568287
it -0.35277203 0.104930036 0.29376408 -0.10663496 -0.017030675 0.18469432 0.32364023 -0.026800638 -0.19072172 -0.08418786 -0.015569696 -0.28056437 0.2224876 0.1839407 -0.11012769 -0.47320068 0.40077028 0.37133142 0.3064125 -0.20957962 0.30286816 -0.298865 -0.062889755 0.060799003 -0.31410483 -0.15904666 0.053077295 -0.17345218 0.354679 0.521153 -0.2716627 0.25054476 0.043815803 -0.14104809 -0.12150384 -0.37274384 0.07671787 -0.04493151 -0.289756 -0.3875717 0.25414672 -0.030140402 0.09855454 -0.29702348 0.055654384 0.24587575 -0.44161034 0.103803575 -0.16833308 0.047155995 0.01395284 0.28307635 -0.47757295 0.4637948 -0.31265146 -0.17206919 0.013631698 0.14794774 0.04892719 0.023305895 -0.14293672 -0.11260579 -0.07833406 -0.12125845 0.08208289 0.35715953 -0.32554555 -0.027578995 0.020541232 0.13267015 0.12525427 0.18928875 -0.18968077 -0.22573377 0.09646326 -2.2898093e-06 0.051977128 0.4209275 -0.18475428 -0.027828796 0.018354587 -0.13258803 0.26350302 0.1993923 0.40496212 0.029277703 0.0017716857 -0.24026924 -0.10063007 -0.01575169 0.09110247 -0.22487722 0.045846235 -0.031092942 0.34827477 -0.09946871 0.18821114 0.30485436 -0.046465896 0.40045074
in 0.13246638 -0.32715026 0.14345317 -0.24118333 0.03274132 0.14893247 0.041441385 0.2841372 -0.11184899 0.13993819 0.05223486 -0.2577065 0.116348535 0.2914916 0.032568876 -0.15156657 -0.09842706 0.19799128 0.09634592 -0.06492863 0.3566352 -0.30331773 0.3118904 0.095748544 -0.119872235 0.12314043 0.123281956 -0.21583162 0.04483301 0.30025592 -0.060439166 0.06960151 -0.063248724 -0.25936827 -0.08147928 -0.2540007 0.019484013 0.1625195 -0.05598471 -0.3322572 -0.18557104 -0.1584656 -0.18380213 0.18531834 -0.053112235 0.34604406 0.19658434 -0.031413823 0.09636404 0.1148504 -0.14238605 0.020411987 -0.25232464 0.14300239 0.027972765 0.075848855 -0.23838261 0.32718462 0.21626253 0.2779063 0.20617811 -0.1321045 0.18733391 -0.09339026 -0.29266804 -0.046306167 0.41473117 0.04983368 0.10774882 0.41697976 -0.080889545 -0.018673308 -0.13270941 -0.1350353 -0.084023684 0.21735494 -0.061711855 0.16418305 0.22065903 -0.005830141 -0.22300981 -0.18544607 0.005504636 0.19725949 -0.18840382 0.05312334 0.18615557 -0.090163566 0.09460408 -0.24556693 0.120233715 0.16465273 -0.13285686 -0.09986468 0.03465101 -0.06619846 -0.08275627 -0.10331165 0.20193447 0.16769478
of 0.1214803 -0.37216258 0.09179309 -0.2740978 -0.05209294 0.11354503 0.0898178 0.30948064 -0.06533431 0.12278108 0.1814161 -0.28966624 0.13622738 0.3210679 -0.03293649 -0.15558329 -0.14513387 0.16503279 0.1782773 -0.03663379 0.3506056 -0.28706056 0.3386862 0.16885291 -0.02200941 0.09330687 0.1082767 -0.18105271 0.08570165 0.18073711 0.025638431 0.1624959 -0.12224549 -0.3111737 -0.12126848 -0.26131687 0.02382414 0.12710099 -0.08611036 -0.3199719 -0.14399475 -0.15587595 -0.19839588 0.12940574 -0.07078909 0.40565822 0.0668304 -0.05095759 0.08009657 0.064281926 -0.15497108 0.05205281 -0.26042205 0.13944033 0.105139285 0.039556254 -0.26031557 0.33296794 0.26880533 0.21966511 0.23853058 -0.12457629 0.08557838 -0.045965333 -0.28554165 -0.07253728 0.40405878 0.03134354 0.10517702 0.42727447 0.02080619 -0.09393139 -0.13846813 -0.1653314 -0.098435625 0.2846363 -0.055918403 0.15576668 0.16783108 0.02558715 -0.21365401 -0.21084741 -0.042248074 0.1804638 -0.08424557 0.09148824 0.09828017 -0.15774806 0.067391165 -0.29239488 0.09212876 0.1419004 -0.03877398 -0.04055843 -0.0028234054 -0.13740882 -0.068914875 -0.079316564 0.18818116 0.17019919
your -0.1801847 -0.24840283 0.23449291 -0.08906383 -0.050442487 0.23178586 0.09292571 0.1425103 -0.18164548 0.10014757 0.14079107 -0.30994144 0.35106894 0.2002458 0.054669805 -0.1764949 0.13156231 0.37230933 0.20593418 0.07029054 0.24739665 -0.087673396 0.11419814 -0.028212424 -0.14292061 0.12365 0.1953394 -0.27303645 0.0077029993 0.37280732 -0.0509128 -0.012118998 0.04085162 -0.3979653 -0.057160128 -0.2542484 -0.0097914515 0.12701076 -0.04371348 -0.5032656 -0.1873212 -0.04880038 -0.21354361 0.1032132 -0.026760964 0.27960062 -0.09476676 0.012887278 0.06154768 0.34465167 -0.13292588 -0.014338946 -0.26601642 0.16994096 0.014402872 -0.07713259 -0.1326217 0.38267714 0.27537003 0.09497953 -0.09181563 -0.16444977 0.0701637 -0.18199205 -0.18563697 -0.017687237 -0.032049302 -0.040040802 0.089255475 0.3553961 -0.09430687 -0.057613794 -0.20698537 -0.2840306 0.05112815 0.13955066 -0.062404506 0.34964284 -0.03677606 0.18019232 -0.20678078 -0.1813968 0.08462431 -0.08185216 -0.17741619 -0.086807676 0.031462256 -0.05890111 0.17439783 -0.1802349 0.13240728 -0.05227297 -0.118671365 -0.15612671 0.22600149 0.051352292 -0.086136945 0.0042850003 0.28506866 0.12930717
on -0.16091733 -0.1847051 0.29277304 -0.25431406 0.104403004 0.43377393 0.18218826 0.015614026 -0.02649922 -0.030645788 -0.15778102 -0.021692034 0.05763811 -0.031337164 0.1528701 -0.40296817 0.28594443 0.5102426 0.22923739 0.010479341 0.06829675 -0.2084594 -0.02615102 0.13437706 -0.27918354 0.01624126 0.27943313 -0.118278176 0.1933294 0.52863216 -0.17771213 -0.0844389 -0.18973088 -0.4025672 -0.08524346 0.067883044 0.16439585 -0.0281374 0.13779551 -0.5672409 -0.033849716 -0.22244205 -0.20738146 0.14540225 0.1369902 0.27870464 -0.019744504 0.06586391 -0.0958019 0.20307067 0.11850863 -0.27674204 -0.15253557 0.17952372 -0.23493381 0.0135879945 -0.11017082 0.15095627 0.39017197 0.34098542 0.20341893 -0.24749061 0.2477931 -0.19237636 -0.046038605 0.07211005 0.05627776 0.13039419 0.04518154 0.1681384 0.04066143 0.2938766 -0.30336392 -0.3725302 0.103814095 0.30443895 -0.20925713 0.41807976 -0.3110409 0.08478587 -0.13878177 0.08926134 0.115781985 0.12757303 -0.03886893 0.10171574 0.15335633 -0.34665596 -0.12355897 -0.3132595 0.3977945 0.060838833 -0.34862486 -0.09630107 0.40556073 -0.06577226 0.019116664 -0.44976744 0.28343767 0.23922251
that -0.07404062 -0.22104178 0.1722182 -0.06268077 -0.08385316 -0.11337666 0.13817391 0.09855074 -0.25006896 -0.045492254 -0.00096380763 -0.2591604 0.38707098 0.27606636 0.0031232536 -0.16134684 0.038456343 0.06821677 0.14919727 -0.12515655 0.3157159 -0.056294348 -0.012446981 0.0557403 -0.20394897 -0.01926877 0.026158819 -0.2455582 0.22920144 0.5354451 0.060018398 0.032840643 -0.03401358 -0.20539002 -0.025181687 -0.40282533 -0.002341045 0.015989594 -0.28273994 -0.3428445 -0.015028419 0.103116825 0.038220514 -0.02393353 -0.030830199 0.2646668 -0.1114238 0.13485634 0.27748868 0.07714407 -0.15259 0.36323252 -0.37037608 0.3741512 -0.007843704 -0.013872418 -0.16591571 0.24387895 0.075584374 0.0034413338 0.04012134 0.0029079951 -0.07155531 -0.027654352 -0.053853504 0.17473267 -0.012951916 -0.2401245 0.25688976 0.31824666 0.096451856 -0.11911719 -0.08490658 -0.15143089 0.057240307 0.078781076 0.06128723 0.18495925 0.3071695 0.05985998 -0.13700967 -0.14200902 0.2610908 -0.011469193 0.105831265 0.009073077 0.056047507 -0.068995975 0.031708676 -0.027460646 0.03635789 -0.12856705 0.14215438 -0.12245632 0.18159334 -0.06845709 0.0031402684 0.25973773 0.054568656 0.26347533
baby -0.6135058 0.10771646 0.0771969 -0.1214246 -0.17309217 0.3720614 0.09706118 -0.11067293 -0.06723049 0.18475834 -0.0074331053 -0.19685365 0.09707857 -0.051264524 0.16961074 -0.034146868 0.31595498 0.6277408 0.03258385 0.085443705 0.27128983 -0.15728645 -0.19145016 -0.123966195 -0.27713838 -0.20722716 0.28420424 -0.2607879 0.2650401 0.6488343 -0.06543573 -0.014514742 -0.0206178 -0.20250356 0.033567782 -0.07594955 0.003486354 0.31129354 -0.18074442 -0.7406417 -0.38575602 -0.06463715 -0.0903068 -0.082743905 -0.047203124 0.24846418 -0.46964255 0.23109111 -0.15076147 0.032883424 0.23402978 0.12256199 -0.4069616 0.36880806 0.014407373 -0.22080712 -0.040414985 0.24082492 0.28120255 0.093977004 -0.2746579 -0.005357277 0.19765246 -0.064465605 -0.0037080003 0.4127419 -0.4826748 -0.017847873 0.027514905 0.2536786 0.091417484 0.11641212 -0.2607429 -0.39650235 0.20616053 0.039524302 -0.12514804 0.3032428 -0.09113336 0.14234719 -0.37152228 -0.101658374 0.36032274 0.1695772 0.092557885 0.1045415 0.25486973 -0.28389946 -0.21165149 -0.35192207 0.31371313 -0.022237226 -0.10815679 -0.14456712 0.7145179 -0.18995278 0.18975598 -0.008577017 0.018145457 0.20216513
be -0.13012742 -0.19587597 0.27090293 -0.116779685 -0.048835546 -0.015166474 -0.098622866 -0.087624684 -0.17569925 -0.16641453 -0.07890483 -0.101688005 0.3113594 0.14951813 -0.0621632 -0.25551063 0.21635339 0.065890685 0.12838016 -0.090695985 0.32159612 0.033678133 -0.16101176 0.07693029 -0.43854684 -0.18552226 -0.09715175 -0.33000562 0.017586814 0.598562 0.097716786 0.0020644665 -0.007588772 -0.33650717 -0.0074351756 -0.4746135 0.05655683 0.014493043 -0.33427617 -0.27720883 0.106277615 0.13047372 0.098128445 -0.08437185 -0.011513103 0.3334484 -0.120308205 0.07953106 0.07018227 -0.027375001 -0.20284912 0.20741263 -0.35930368 0.31405994 -0.103892066 0.121030934 -0.29210395 0.1663556 0.005888991 -0.20392978 0.08214642 0.0085896915 0.06488214 -0.13719213 -0.06835516 0.2308981 0.024241813 -0.18296352 0.0932073 0.24048068 -0.09627815 -0.055577025 -0.19028193 -0.38037422 0.027294444 0.20424797 0.08716894 0.17598341 0.20675781 0.20477584 -0.12746914 -0.12897636 0.32874477 0.045530017 0.35135424 -0.050258514 0.017357696 -0.17044012 -0.08595497 -0.016063673 0.14573367 0.19512564 0.16668634 -0.054570004 0.2776378 0.04501645 -0.021176964 0.345334 0.01572506 0.17727154
is -0.12866683 -0.14964806 0.18544507 -0.19104289 -0.18185078 0.19087774 0.1379309 0.24554017 -0.015477046 0.12637745 0.10800973 -0.39418018 0.29588467 0.3265939 -0.056668546 -0.121039 -0.053016216 0.25286135 0.16600855 -0.016615367 0.4425377 -0.13936903 0.1555855 0.07558129 -0.118370935 -0.05268625 0.039157744 -0.23169583 0.121256046 0.25555593 0.012365279 0.1456231 0.026478019 -0.29995695 -0.07731527 -0.3029204 0.036112107 0.077240296 -0.16853167 -0.26458964 -0.25224084 -0.22928803 -0.056891765 0.0062820716 -0.078077026 0.42550373 -0.11740384 -0.025850097 0.00781894 0.10228464 -0.090994425 0.23753226 -0.36268738 0.362943 0.13600065 -0.11518077 -0.1057654 0.32796675 0.22116996 0.16714741 -0.038608134 -0.015794821 0.07978072 0.035686187 -0.1526147 0.18725209 -0.020878574 0.03449486 0.1391251 0.3904324 0.092934415 -0.035217233 -0.1318641 -0.14494175 -0.08180184 0.058284257 0.000985974 0.17514737 0.12817329 0.071963154 -0.21246988 -0.31246516 0.102794506 0.22543785 -0.007853095 0.04539723 0.024933983 -0.16267382 0.07671415 -0.12001985 0.095294505 -0.04561533 0.014208339 -0.19247706 0.08330516 -0.13483615 0.041064 0.1139213 0.042180087 0.18403305
dont -0.4520824 -0.0068996404 0.308359 0.05115298 -0.018136278 0.17233247 0.1062594 -0.09300185 -0.2461925 0.022547552 -0.1437513 -0.43625557 0.43086267 0.044299226 -0.12400306 -0.3185164 0.39119694 0.56906897 0.05744707 0.14804444 0.24137762 -0.16035686 -0.066311 -0.04608158 -0.32152724 -0.20075893 0.1848941 -0.3683587 0.34404567 0.71506375 -0.12291264 0.064478844 -0.032554712 -0.22097738 0.059320338 -0.35655153 -0.10095241 0.106317565 -0.18250203 -0.644789 -0.19917491 -0.051379807 0.020714585 -0.02781008 0.0581849 0.19799909 -0.41458112 0.09466157 0.2000747 0.17948827 0.17641063 0.11341177 -0.33803016 0.44243976 -0.22434855 -0.3160011 0.0346363 0.15100084 -0.049937837 -0.02165436 -0.23207693 -0.10295486 -0.06132793 -0.0449786 -0.0057290904 0.19714473 -0.3799181 -0.23829286 0.23980296 0.119049296 0.18906432 0.13916528 -0.22272184 -0.22689225 0.27294496 0.019113984 -0.04432548 0.59304976 -0.029202811 -0.04640298 -0.18086019 -0.07529573 0.2650416 -0.06847397 0.22526953 0.09962361 -0.0063293413 -0.09306021 0.044104926 -0.15460409 0.13601077 -0.29145396 0.08704587 -0.1825723 0.3790239 -0.007261262 0.07652388 0.20774053 0.01568637 0.40487933
no -0.21791132 0.23408484 0.11453258 -0.10501514 -0.3196262 0.2713843 -0.3329856 0.39182994 0.0960803 -0.31988984 -0.2339662 -0.57464546 0.68499094 0.35739776 -0.09251626 -0.22509177 -0.16550317 0.69306576 -0.061280236 0.036811024 0.23029709 -0.32573432 0.27009287 0.053530797 -0.48318008 -0.45179257 0.10608168 -0.21036832 0.24383591 0.8240124 -0.022506142 0.40108216 -0.13737887 -0.15600353 0.080392025 -0.6482721 0.23604684 0.43989184 0.15018173 -0.33274513 0.0981373 -0.32029676 0.14607513 0.128161 0.116725415 0.3528761 -0.46607977 -0.093680024 0.2960116 0.23223495 0.1810081 0.11370924 -0.16522016 0.590313 0.30445838 -0.15343468 -0.13870898 0.44141728 0.22933231 0.11846847 0.10549924 0.49867645 0.04230765 0.49766332 -0.12729885 0.24851523 -0.39370635 0.1919484 0.47294813 0.021038944 0.074611254 0.08595361 0.1433869 0.31278226 0.29667637 -0.014165503 -0.35989645 0.37965962 0.38238484 -0.38495475 0.07376537 -0.54647493 0.5599147 0.27711093 0.7265022 0.4058427 -0.06143636 -0.030858377 -0.48182952 -0.43473676 0.37842837 -0.17055663 0.25746506 -0.20946239 0.5478281 -0.38150904 0.5546587 0.5097851 -0.46043724 0.20760167
for 0.009558621 -0.26982874 0.2560903 -0.07007772 -0.1310918 0.10989457 0.11570144 0.21690886 -0.09743094 -0.022647848 0.06111133 -0.3452035 0.4748577 0.30995378 0.082718894 -0.13315395 -0.049448367 0.16441916 0.28806216 -0.088013895 0.26824838 -0.07571538 -0.049510643 0.14235875 -0.2294159 0.051329028 0.0018000897 -0.12484404 0.2043592 0.41494742 0.045705345 -0.014866845 -0.07713221 -0.26996797 0.0076206676 -0.24833006 0.030372221 0.037427537 -0.0969899 -0.36077031 -0.27075094 -0.07124607 -0.0977064 0.0447835 -0.046641428 0.27195755 -0.03175176 0.03012787 0.24473295 0.2121267 -0.15883493 0.13881968 -0.3052278 0.27899912 0.084098585 -0.07615713 -0.065328725 0.17449458 0.10958271 0.09608701 0.0088491095 0.066749506 0.060043536 -0.040241826 -0.12610848 0.040407714 0.056115866 -0.028900854 0.15738335 0.30445462 0.1420177 0.014098339 -0.08855335 -0.120009564 0.1413633 0.09925232 -0.13384485 0.2093125 0.2506903 0.07223705 -0.182588 -0.1808942 0.11178628 0.09709226 -0.063816346 0.03640244 -0.011826589 -0.08379493 0.101263605 -0.1326562 0.17958482 -0.06382755 0.07896994 -0.2246828 0.07708662 -0.084483445 -0.021939922 0.08963304 0.13582483 0.23061983
im -0.19395062 -0.0035267414 0.24254128 -0.16586204 0.08204861 0.097547606 -0.15617329 -0.078233734 -0.12692878 -0.21050245 -0.2626639 -0.051447667 0.08144651 0.16508922 -0.009884637 -0.17093758 0.046942387 0.052532244 -0.10193066 -0.18940654 0.21580102 -0.13367896 -0.09533671 -0.17152552 -0.40971416 -0.175131 -0.052806113 -0.34593055 -0.07558206 0.58931595 -0.03989262 0.032054532 -0.049279362 -0.12728806 -0.16184637 -0.35522747 -0.0027063147 0.07826784 -0.2358756 -0.3173516 0.1300106 0.23981579 0.015204764 0.0066779526 -0.05985936 0.24396473 -0.06834777 0.17985535 0.10535405 -0.13602787 -0.31523365 0.12945361 -0.3659671 0.27206188 -0.10111708 0.077919096 -0.38247183 0.279509 0.14615127 -0.019873908 0.10217219 0.013590907 0.25103456 -0.112704284 -0.13738814 0.17365485 0.1683036 -0.028574098 0.19522199 0.2670481 -0.11342228 0.14430247 -0.13617656 -0.18085359 -0.023480648 0.20257184 0.12811862 -0.0071318317 0.20317373 -0.003542595 -0.16283819 -0.06359291 0.48255226 0.014951806 0.23952535 -0.100200005 0.21196 -0.06192476 -0.3198423 -0.08897086 0.23413412 0.22201307 -0.046452843 -0.13848342 0.56978387 -0.11120604 0.21655925 0.11348711 0.09733845 0.22438253
all -0.18325277 -0.23371494 0.11868836 -0.1852038 -0.11286006 0.12871411 0.27111518 0.09524618 -0.07737891 0.043583535 0.16154656 -0.3327682 0.15978478 0.23152065 0.030239439 -0.16655476 0.06564952 0.20868306 0.2640304 -0.078222804 0.395063 -0.18859138 0.02463002 0.10676446 -0.091225475 -0.008560363 0.051977336 -0.20720139 0.14759678 0.24358992 -0.0688779 0.13294764 -0.031688478 -0.3202815 -0.18822934 -0.32854858 0.026337354 0.03323555 -0.2752587 -0.40142587 -0.15959218 -0.14944556 -0.10572115 -0.13110447 -0.029445074 0.327782 -0.09749131 0.06671731 0.056917757 0.08385605 -0.1592662 0.2117319 -0.42857727 0.21613196 -0.051502224 -0.029433202 -0.04318012 0.16654898 0.19870877 0.053843915 -0.052049555 -0.18164147 0.018247131 -0.14418204 -0.09130648 0.27601695 0.079877935 -0.16563702 0.044131514 0.39336598 0.13299957 -0.02054614 -0.25420916 -0.24398082 -0.17276673 0.09737964 0.1115731 0.29964325 0.037761934 0.17676492 -0.2743578 -0.10112503 0.116467156 0.12008116 -0.05594182 -0.03125992 0.05201959 -0.1735136 0.20318216 -0.10380856 0.14951603 -0.012398353 0.04976054 -0.07373089 0.1900743 0.0031594145 -0.10293917 0.091335125 0.12168468 0.24534248
so -0.05439922 -0.10597307 0.2656308 -0.10736862 -0.032356426 0.16569707 0.19813548 0.12577419 0.014965993 -0.11579879 -0.05370809 -0.18443199 0.38238597 0.3201557 0.09304637 -0.32680097 -0.010394464 0.21388175 0.20308895 -0.16253969 0.097385615 -0.16162854 -0.08022503 -0.019527571 -0.28626093 -0.104953595 -0.077209674 -0.052900493 0.2779066 0.50738895 -0.004616736 0.16132586 -0.08908362 -0.20284855 -0.038986932 -0.15365674 -0.031194432 -0.17868242 -0.2591532 -0.22271562 0.10267664 -0.015621567 0.122719765 -0.061381172 -0.06499926 0.2835024 -0.24521574 0.102697335 -0.014887453 -0.047671817 -0.17145552 0.19076072 -0.28380856 0.45499802 -0.1466765 -0.24878486 -0.084679045 0.25152692 0.10994001 0.075521655 0.16172291 0.11237141 -0.030013943 -0.26846945 0.005107877 0.120282635 -0.16339739 -0.061082467 0.2192903 0.36207095 0.07653323 0.1142128 -0.18854304 -0.22194797 0.12832336 0.069793895 -0.12255671 0.17835522 0.12277348 -0.019450407 -0.07461509 -0.2053451 0.25455105 0.022838756 0.11729528 0.012152455 -0.02035914 -0.19207147 -0.054804947 0.070882805 -0.008681674 -0.20087683 0.060283177 -0.092681326 0.32215565 -0.1714877 0.17134947 0.17782277 0.05613154 0.24460824
can -0.33506015 0.008886356 0.4291595 -0.11185498 -0.12103711 -0.031311404 0.43095422 -0.049120266 -0.38785928 0.056756087 -0.02002243 -0.38198334 0.33201167 0.2992051 -0.046755254 -0.36414847 0.36464864 0.17022489 0.4024703 -0.19013165 0.5349712 -0.21916199 -0.10612315 0.14896692 -0.21699175 -0.023186995 0.03193185 -0.20815529 0.47292298 0.5931076 -0.14385906 0.10526726 0.07153682 -0.10702161 0.0045349915 -0.44275853 0.036521703 -0.10770711 -0.33619115 -0.5068423 0.07829719 -0.04517409 0.16465834 -0.33588624 0.047776982 0.27305007 -0.3600155 0.10604535 0.07463671 0.078283295 -0.0182075 0.60238904 -0.74204326 0.6366241 -0.23694025 -0.2513599 0.10786398 0.07381669 -0.017591972 0.08301228 -0.29827267 -0.2330876 -0.09669429 0.053618543 0.107022904 0.51396805 -0.3337176 -0.20199789 0.18436737 0.25380352 0.40693912 0.11550494 -0.09747024 -0.18131295 -0.0034129547 -0.05141993 0.1725409 0.31156617 -0.13166203 0.025833212 0.0028933724 -0.13276705 0.17078063 0.21126641 0.29419968 0.022231974 -0.009017493 -0.27326733 0.017266497 -0.069832064 0.035962895 -0.31645128 0.031849816 -0.038054556 0.19800436 -0.08613721 0.04072923 0.34574214 0.058857124 0.47277933
oh -0.2927825 0.27002943 -0.09781598 -0.3542938 -0.24577202 0.49129766 0.050948072 0.056589585 0.16786024 -0.23837224 0.19932976 -0.31833038 0.044039186 0.12465718 0.07553066 -0.049950067 -0.07065543 0.3909993 0.16330165 -0.15338735 0.14263399 -0.3349626 -0.22726932 0.27286777 -0.06028325 -0.31906506 0.004144249 -0.078668825 0.29365426 0.37653497 -0.15798874 0.3338552 -0.16503635 -0.15645418 -0.2956468 -0.30193454 0.020885667 0.2573692 -0.1115385 -0.49663875 -0.13668974 -0.06274454 -0.029658547 -0.28129882 0.09092175 0.18165042 -0.7210068 0.14763588 0.05952937 -0.12152177 0.05488303 0.19720581 -0.42934644 0.29296893 0.09219741 -0.17613381 -0.2667592 0.09759117 0.32493037 0.074386425 -0.04029498 0.099007316 -0.042771928 0.07409591 0.22314578 0.5363148 -0.3470552 0.04867519 0.15316696 0.30517247 0.20290716 0.03579585 -0.13008451 -0.089452274 0.09369312 0.19746083 -0.029981375 0.3435013 0.09062577 -0.12477015 -0.21285856 -0.11157966 0.23464006 0.29325786 0.4901927 0.20620698 0.08054005 -0.28323388 -0.34938732 -0.15971747 0.38201803 0.020157944 0.3258928 0.112487696 0.64555645 -0.25893053 0.22071752 0.29264137 -0.25069273 0.456476
now -0.35230306 -0.030301068 0.19843715 -0.14669912 0.030682957 0.24953184 0.07723611 -0.082311496 -0.04917403 -0.098298095 -0.11842617 -0.1439682 0.106332004 0.044144213 0.04268003 -0.2203036 0.17098509 0.31209144 0.11839565 -0.09225854 0.17630957 -0.21293081 -0.14130905 0.010769602 -0.29527405 -0.16603042 0.07143291 -0.24615125 0.18705615 0.49042046 -0.1425414 0.041695606 -0.08523115 -0.25402382 -0.1253412 -0.18272789 0.0075998357 0.061917443 -0.1764446 -0.46640232 0.02340073 -0.01081555 0.00033726473 -0.055727154 0.010300127 0.2470474 -0.2249854 0.18005043 -0.03639502 -0.0044168215 -0.04155709 0.048681978 -0.39382458 0.26860908 -0.20644985 -0.04614662 -0.07626987 0.11207351 0.21111917 0.09985102 0.014990334 -0.09340915 0.07985292 -0.13564108 -0.0018312719 0.32669857 -0.09379494 -0.08086862 0.13162808 0.21152692 0.1046759 0.14336094 -0.27341348 -0.25805908 0.031100037 0.16097257 -0.02202171 0.26726875 -0.09725196 0.024903877 -0.19864684 0.015541372 0.29722598 0.06329295 0.14344706 0.035580907 0.10370482 -0.24027902 -0.14578706 -0.17518792 0.22445524 -0.012130159 -0.037558265 -0.075796805 0.48279893 -0.12991633 0.13411085 0.009906853 0.030333007 0.27020445
know -0.39836702 -0.073381305 0.30149168 0.031435303 -0.1304053 -0.06870703 -0.02071671 -0.068506084 -0.1973561 -0.08559084 -0.22350815 -0.38125536 0.46556044 0.1908352 -0.05835255 -0.1473985 0.18397142 0.31316882 -0.05415308 0.050180387 0.35787427 -0.03295884 -0.17931327 0.008083636 -0.31652066 -0.29560304 -0.00623247 -0.43770188 0.3264477 0.7173878 0.060757462 0.008347337 -0.014268331 -0.21343243 0.009609837 -0.5014202 -0.16592292 0.023344096 -0.30703288 -0.4805845 -0.18613842 0.009964419 0.19499542 -0.0948435 -0.03093861 0.23901114 -0.33590522 0.22509196 0.285793 -0.017756814 -0.026106702 0.31637484 -0.5492376 0.53662276 -0.101709954 -0.09745156 0.012702565 0.048755027 -0.06180979 -0.049317244 -0.14708993 -0.08087745 0.06387579 0.114744715 0.004632058 0.37901494 -0.20710273 -0.34617198 0.33473033 0.190508 0.32114837 0.042323835 -0.18336578 -0.11698402 0.12072144 0.013835839 0.07740458 0.27885252 0.20116057 -0.05682619 -0.17885083 -0.13784802 0.40601537 -0.024057236 0.3048476 0.105155736 0.004553086 -0.20747997 -0.014671608 -0.16256122 0.07420687 -0.20130037 0.21658851 -0.19615705 0.32216257 -0.15552601 0.13904947 0.36273783 -0.073580265 0.29338655
but -0.14742425 -0.10604285 0.19022934 -0.05417087 -0.10914996 0.040770277 0.04717444 0.065503955 -0.186317 -0.09744448 -0.013790821 -0.28126225 0.36597246 0.23524047 -0.019181788 -0.16417485 0.05952462 0.16169399 0.12624653 -0.09220897 0.28446722 -0.082344115 -0.061070792 0.114331394 -0.2108978 -0.10936136 -0.0046887817 -0.22866139 0.20530114 0.4644214 0.020571431 0.04898288 -0.04137037 -0.20991634 -0.029462507 -0.3877368 -0.0065813074 0.10314814 -0.19894709 -0.41109738 -0.10161963 0.025548225 0.023262741 -0.0478617 -0.045479447 0.24946232 -0.19619083 0.11546273 0.2274329 0.0600625 -0.08280081 0.25792757 -0.40000567 0.34298173 -0.011683746 -0.034867607 -0.15891674 0.19351688 0.09473073 -0.021175474 0.003586487 0.013305708 0.014630011 0.0126887895 -0.04206182 0.23087697 -0.054183897 -0.15339032 0.19056226 0.26772517 0.11548883 -0.056249313 -0.114530355 -0.11383756 0.058558315 0.09780146 0.020962708 0.248158 0.22857058 0.0010319267 -0.18066198 -0.14817762 0.26200238 0.039069816 0.17764767 0.057254758 -0.019494288 -0.106065236 -0.0017989352 -0.062635556 0.13101158 -0.066188015 0.19532238 -0.1043519 0.2313942 -0.10373494 0.021939503 0.23124193 0.00016151139 0.28226063
got -0.25208542 -0.1996136 0.32318977 0.013337145 0.031848058 0.22107795 -0.029071966 0.07534408 0.10942496 -0.16700302 0.027183361 -0.2702836 0.5185129 0.043332253 0.0039206166 -0.25452474 0.08001847 0.36165968 0.26059696 0.08823781 0.111161225 -0.15415205 -0.050033536 0.123913266 -0.24364781 -0.19478023 0.027286105 -0.21364672 0.28603223 0.43249342 0.1340215 0.073000915 -0.14951855 -0.40666172 -0.25376114 -0.27025226 -0.05990599 -5.8090853e-05 -0.07714762 -0.5342202 -0.1278055 -0.12941575 0.22891891 -0.010862604 0.06355267 0.37293193 -0.4239301 -0.06174196 -0.036899272 0.07388344 0.01069611 0.122335926 -0.17253463 0.42048615 -0.064224645 -0.13780911 -0.1108894 -0.05166433 0.027967859 0.1439872 0.12661862 0.1263787 0.064925894 -0.010354003 0.00207486 0.07398213 -0.17131928 -0.07096525 -0.018770885 0.035699382 0.14558354 -0.1215093 -0.14468552 -0.16543302 0.28996074 0.28643265 -0.21680434 0.30998987 0.07546748 0.15605344 -0.15310629 -0.06802102 0.17419155 0.12305367 0.32032883 0.072045974 -0.16553216 -0.20649168 -0.05007182 -0.1564765 0.044540536 -0.23796885 0.010414473 -0.16533284 0.38936177 -0.15242425 0.2341689 0.0015106321 -0.06733622 0.16230442
na -0.46160045 -0.049505603 0.3724047 -0.3048175 0.31166553 -0.031418484 -0.35242146 -0.43814537 -0.33697096 -0.41398442 -0.61053103 0.05415311 -0.11237509 0.035421032 0.0980793 -0.23950587 0.29035902 0.12611704 -0.16359302 -0.26952687 0.26922932 -0.26703417 0.037484713 -0.29270232 -0.74887466 -0.26550227 0.15139647 -0.6811315 -0.048939627 1.082068 -0.24111927 -0.123866156 -0.090335816 -0.20831004 -0.10644775 -0.55197406 0.06334836 0.267105 -0.31026828 -0.7794912 0.49335617 0.45996016 0.07017525 0.065874346 0.09306875 0.1821217 -0.103583276 0.29030478 0.30996946 -0.07762094 -0.30753642 0.12147417 -0.594033 0.2850133 -0.3057383 0.38957483 -0.50287086 0.29841784 0.16784725 -0.10369846 0.09373253 -0.017296372 0.33454132 -0.052325 -0.14961827 0.41873416 0.16724747 -0.243318 0.43825528 0.06889979 -0.18339984 0.32766 -0.1899946 -0.30233836 -0.23495038 0.29143068 0.2757081 0.052533794 0.17543375 -0.09367809 -0.10288259 0.28343445 0.7206721 0.043837737 0.46862325 -0.026515264 0.5735619 -0.029617287 -0.6176924 -0.2829927 0.3344742 0.5143595 -0.15066089 -0.006589322 1.0795721 -0.1728202 0.2832757 0.16629142 0.22747096 0.44835997
its -0.11167771 -0.107549645 0.21200451 -0.18353082 -0.044623535 0.13003395 -0.066877976 0.08571864 0.13054733 -0.17534152 -0.056626968 -0.23415978 0.25358197 0.24088064 -0.059676975 -0.10822043 -0.16977096 0.118312076 0.058066793 -0.050450902 0.09125073 -0.10641302 -0.08630004 -0.0043580714 -0.280186 -0.25718042 -0.08120283 -0.31660637 0.07827652 0.41974854 0.056919925 0.070815235 -0.12408676 -0.32322204 -0.15903863 -0.2637925 0.00920714 -0.0315777 -0.19327788 -0.29434407 -0.08937373 0.058584545 0.03547251 0.07382721 -0.09252686 0.34862313 -0.20795614 0.08519666 0.055947717 -0.04760221 -0.22554508 0.115448914 -0.23724721 0.2540202 0.091359496 -0.06365568 -0.17606387 0.20955919 0.16620217 0.053599663 0.17333917 0.13597067 0.05385309 -0.08026455 -0.15813252 0.093810074 0.056566246 -0.08164245 0.22492515 0.23777004 0.16294174 0.049374137 -0.21132486 -0.13788737 0.019987399 0.18811366 0.0037254535 0.038139097 0.2509182 -0.013879939 -0.2447537 -0.114742234 0.24189389 0.027501386 0.16581626 0.0077875224 0.025792751 -0.1543189 -0.19387326 -0.1301253 0.19684786 -0.0029019883 0.12712336 -0.1376114 0.4043611 -0.16654915 0.18158348 0.099261485 0.054801278 0.23534648
just -0.13713504 -0.15761547 0.2539154 -0.039539896 -0.035579264 0.10019316 -0.03355248 0.13140446 -0.035308756 -0.13944468 -0.10037842 -0.32474452 0.43723783 0.18746266 -0.0116912965 -0.1474134 0.004004089 0.20611839 0.0920709 -0.034143507 0.108694956 -0.06515473 -0.061653633 -0.03622492 -0.36706132 -0.13036926 0.0381237 -0.34342512 0.15135264 0.54227155 0.021879807 -0.061914 -0.10120838 -0.28978303 -0.05997663 -0.32330644 0.044382308 -0.0103500355 -0.19109158 -0.40321487 -0.15813617 0.04709206 0.02148606 0.08902035 -0.033866443 0.26868483 -0.20562322 0.027092513 0.18704888 0.13360076 -0.14812455 0.11724782 -0.1935876 0.2725168 0.018490056 -0.03131494 -0.12730412 0.20484577 0.037153397 0.01199985 0.03711942 0.18206117 0.09868494 -0.03931898 -0.18150856 0.01940047 -0.081437565 -0.117566265 0.24898751 0.090998515 0.13152897 0.079683125 -0.15970452 -0.14235309 0.14534824 0.11098727 -0.021227054 0.16444276 0.26314825 -0.002965925 -0.20203389 -0.08414559 0.23626538 0.014520286 0.1399293 0.015205509 0.04978632 -0.01823143 -0.049408957 -0.1553095 0.219925 -0.06453098 0.038559157 -0.22501709 0.34692138 -0.0746882 0.108296216 0.11699449 0.0704016 0.27139693
do -0.37698534 -0.0636535 0.36744013 -0.12976116 -0.055438153 -0.04776837 0.14827128 -0.15265858 -0.25296098 -0.18445678 -0.17978974 -0.20035711 0.14565675 0.12423404 -0.07847378 -0.2780174 0.36623824 0.17261048 0.25826317 -0.24176364 0.40219125 -0.07928012 -0.13851544 0.11536159 -0.28708738 -0.14017592 0.007930865 -0.34089953 0.28140634 0.6160318 -0.13613287 -0.046605177 0.060863324 -0.2650146 -0.15662092 -0.51843023 -0.029928776 -0.004323891 -0.39055824 -0.503269 0.14183307 0.13383047 0.11027414 -0.31733823 0.118584864 0.28714025 -0.27922496 0.1539128 0.083937146 0.0072456547 -0.092339315 0.39368573 -0.576045 0.46617943 -0.24965055 0.043346837 -0.0055665574 0.09319611 0.0570512 -0.15232699 -0.12221871 -0.18700768 0.066246904 0.032304287 0.123001695 0.5422003 -0.1906492 -0.19984767 0.19894251 0.1380232 0.28954062 0.1392476 -0.17535323 -0.22042644 -0.061968967 -0.01589793 0.13045876 0.23684761 -0.027707698 0.047366776 -0.043118354 0.007518205 0.3988065 0.17130691 0.3258411 0.035065424 0.14357263 -0.23456353 -0.1782023 -0.03909547 0.18051067 -0.074948326 0.060085677 -0.11160226 0.39684737 -0.06185671 0.19616133 0.21944231 -0.010510793 0.41284084
with -0.041648045 -0.21123724 0.14962989 -0.16738027 -0.09541873 0.19751164 0.071121365 0.18309003 -0.055414513 0.015814036 0.05036358 -0.25878948 0.25832582 0.1970565 0.05598007 -0.15044111 -0.012022343 0.24066706 0.17675075 -0.028319715 0.26859275 -0.16879599 0.102313064 0.11663097 -0.18467715 0.004534513 0.0786832 -0.17523573 0.09740671 0.3816218 0.028217446 0.038360283 -0.10665577 -0.29919034 0.044090267 -0.23155531 0.10225802 0.11386946 -0.04322926 -0.35039958 -0.18357685 -0.17724705 -0.10341879 0.10024441 -0.02177601 0.2993035 -0.03301586 0.0033227128 0.12761022 0.15240225 -0.039878488 0.0775334 -0.29271322 0.19987859 0.06692868 -0.046618465 -0.15704668 0.23193383 0.18602233 0.19035964 0.07218539 -0.009330818 0.08744384 -0.030105704 -0.13169454 0.10663072 0.06069261 0.008509098 0.17694922 0.28278103 0.018914912 0.0071557383 -0.10968 -0.17710939 0.01388066 0.14414641 -0.06459608 0.21395299 0.14770448 0.041966908 -0.20788012 -0.19500814 0.07060166 0.13311613 -0.012579964 0.08801423 0.073619306 -0.11379508 0.024769215 -0.1858212 0.2192553 0.12513624 -0.04479872 -0.104070105 0.1831141 -0.070839435 -0.07039891 0.03151333 0.13173929 0.20270965
when -0.14440008 -0.14787696 0.19940265 -0.07693107 0.008734382 0.07658968 0.13359186 0.031483587 -0.21796629 -0.05412988 -0.0822652 -0.17761748 0.24609464 0.1294778 0.032646105 -0.26002705 0.14658512 0.20441079 0.18319081 -0.12592623 0.2420962 -0.21599048 -0.03659444 0.061505202 -0.24649353 0.0037784814 0.07381144 -0.20566237 0.1571392 0.45363396 -0.12055723 -0.022268858 -0.09449722 -0.16282964 -0.037639353 -0.2535184 0.06873098 0.077858366 -0.14362343 -0.43895406 -0.012643075 -0.037717022 -0.032658897 0.020968618 0.03258624 0.20547663 -0.050010733 0.10559005 0.16802053 0.109426185 -0.08093083 0.16451618 -0.39933392 0.19491243 -0.15707457 -0.0056752907 -0.13134426 0.11376405 0.12977546 0.13323818 0.040306766 -0.10765149 0.10986358 -0.0643946 -0.07887415 0.2206081 0.0645595 -0.12563941 0.15182689 0.22598803 0.081707105 0.035653718 -0.15216893 -0.17293106 0.01568668 0.15503481 0.05796887 0.27721226 0.054827463 0.00037868874 -0.14368132 -0.058010615 0.16140954 0.045147024 0.048631 0.03468249 0.058486838 -0.16573112 0.027665436 -0.15617421 0.173969 0.026418936 -0.021140058 -0.08292289 0.2403597 -0.06342909 -0.042788748 0.032262504 0.09231526 0.28728303
come -0.22800355 -0.03912401 0.30254465 -0.22856092 0.08471098 0.57039404 0.19339134 -0.02624898 0.06638919 -0.10544836 -0.07281721 -0.0039619748 0.12662381 -0.007385379 0.034863267 -0.48032206 0.41901615 0.6653367 0.24452636 -0.015339157 0.03656259 -0.23616199 -0.20806828 0.12603322 -0.34202856 -0.15697725 0.2734786 -0.13166946 0.1682567 0.48541775 -0.15831897 -0.030231165 -0.18369599 -0.3307966 -0.13235906 0.02294727 0.28918687 -0.059947375 0.12570886 -0.55849475 0.10197619 -0.2841859 -0.18323854 0.04821163 0.14436196 0.29488117 -0.15117201 0.13223715 -0.27693358 0.12987062 0.067225836 -0.3881993 -0.28845906 0.12323639 -0.3461206 -0.08069483 -0.16068248 0.101459906 0.39323184 0.28659672 0.13965625 -0.24189726 0.1507856 -0.36504847 0.0655156 0.23782101 -0.05391362 0.06408658 -0.11782906 0.24675836 -0.008228225 0.23856828 -0.44142583 -0.50342333 0.08716968 0.3594661 -0.119738765 0.57232827 -0.45951942 0.13764721 -0.13452178 0.03457881 0.17108265 0.011696817 0.05188795 0.09308312 -0.054509595 -0.5966951 -0.1911166 -0.31616017 0.49000886 0.18811826 -0.13028163 0.0523124 0.5342874 0.0070569413 -0.009032224 -0.35178724 0.18431571 0.15079491
yeah -0.27729657 0.21136007 -0.034362968 -0.45367882 -0.24651831 0.6646875 0.098577976 -0.09472524 0.093170665 -0.49703842 0.2530135 -0.15184689 -0.16053918 -0.023620795 0.058396243 -0.09196893 -0.018085074 0.29397744 0.43045828 -0.23650648 0.043056656 -0.44116345 -0.45660526 0.43561596 9.837794e-05 -0.27618766 -0.0646344 -0.032481506 0.120490514 0.20602526 -0.29199377 0.15467037 -0.27263814 -0.33465648 -0.5143191 -0.3317611 0.08481444 0.25074497 -0.1354744 -0.8750662 -0.17817858 0.011928153 -0.20192595 -0.40555787 0.083533436 0.22847863 -0.6970186 0.20518783 -0.03406418 -0.1320131 -0.106108844 0.05775766 -0.5262466 0.030830897 -0.13340114 0.050530486 -0.37065962 0.03870444 0.4173708 -0.08264769 0.12580553 0.032700785 -0.012942727 -0.11131364 0.32419184 0.6347038 -0.04794632 0.056782696 -0.013854324 0.28234142 0.1383732 0.0042185592 -0.32709834 -0.2700786 -0.026347684 0.4816832 0.07812714 0.37484816 0.021240253 -0.040304873 -0.4562239 0.07269822 0.20164031 0.27597556 0.33813912 0.17276336 0.08810736 -0.37276518 -0.40498185 -0.0906849 0.5746724 0.30463168 0.38976365 0.11381444 0.88820636 -0.31364283 -0.008062981 -0.06474502 -0.1336489 0.62378854
what -0.30490717 -0.057626273 0.22849198 -0.1558385 -0.051835246 -0.05999014 0.13249138 -0.07900153 -0.21796021 -0.2073235 -0.07191977 -0.3014643 0.2385016 0.16806787 -0.07173986 -0.15447101 0.16280332 0.08297303 0.18598337 -0.19954574 0.3329696 -0.10076779 -0.17972656 0.06522985 -0.23523465 -0.15939447 0.0045974697 -0.35328814 0.29878396 0.61408126 -0.06445518 0.0080904635 0.021796733 -0.2508753 -0.15834163 -0.54753786 -0.010346906 0.027020387 -0.4350635 -0.5004534 0.05828024 0.21624102 0.088692434 -0.25027218 0.061788477 0.21264055 -0.42861804 0.15095413 0.22010402 0.018393999 -0.10405453 0.44320816 -0.51966727 0.38686073 -0.11684307 -0.020417904 -0.090999275 0.17151211 0.035322625 -0.16055012 -0.09598716 -0.02429418 -0.10445519 0.06756601 0.057530817 0.4253634 -0.181132 -0.25060052 0.3345183 0.16893938 0.3012755 0.029449351 -0.16918622 -0.133881 -0.027378568 0.025699308 0.18429244 0.23697549 0.18104826 0.010831562 -0.14485918 -0.011467915 0.3173932 0.07053832 0.30982563 0.031634603 0.11251105 -0.072816856 -0.12439899 0.032083124 0.18671928 -0.09576425 0.21820928 -0.08670155 0.43879735 -0.045735225 0.088341884 0.33434448 -0.008428906 0.5198332
up -0.26407036 -0.13308196 0.41907385 -0.108909555 0.24869522 0.29740143 -0.02682687 -0.088937774 -0.10203622 -0.16517964 -0.303712 0.012315174 0.09668994 0.05701179 0.009447132 -0.5101073 0.3393214 0.42921343 0.25271434 -0.08606184 0.11048722 -0.33834368 0.09235587 -0.032531902 -0.45770544 -0.062421374 0.19853193 -0.26947305 0.041317746 0.5362413 -0.3035463 -0.061521284 -0.10282549 -0.24591306 -0.097962335 -0.16126879 0.18581527 -0.02277949 -0.06273484 -0.48064724 0.3403111 -0.043424904 0.005644483 0.037574634 0.13464373 0.31380057 0.002673336 -0.010497912 -0.1669291 0.13006572 -0.107451044 -0.16759734 -0.25490808 0.15970556 -0.41185585 0.0952209 -0.1571443 0.058936387 0.20154008 0.16656736 0.18741906 -0.1614424 0.30011702 -0.29690796 -0.1352231 0.17253676 0.108520225 0.03856465 -0.00029148784 0.0811291 -0.13418823 0.34225473 -0.2703664 -0.28642714 0.061637796 0.29753494 -0.05365535 0.3366258 -0.27150968 -0.004285276 -0.04064408 0.08179008 0.17931455 0.03402168 0.15101355 -0.01832887 0.11620117 -0.18612981 -0.15517996 -0.2746503 0.2775932 0.1318862 -0.31825536 -0.11553945 0.47943473 -0.044327147 0.20539525 -0.24561298 0.19676483 0.26031765
youre -0.20849419 -0.053101014 0.22967789 -0.14565666 0.025867796 0.15752102 -0.12283051 -0.035220973 -0.010752859 -0.13721606 -0.1453448 -0.1719822 0.1777773 0.21162261 -0.025302438 -0.1538835 -0.076434426 0.10905819 0.002737287 -0.105892666 0.18990807 -0.11794579 -0.029602582 -0.02597056 -0.30111623 -0.20520842 -0.04510455 -0.3342338 0.030590829 0.43338698 -0.023494547 0.043220617 -0.074478954 -0.26974186 -0.13758157 -0.29414794 -0.014406849 0.09056777 -0.1931968 -0.33985728 -0.0077108643 0.12602049 -0.021563614 0.040562466 -0.04958059 0.29782107 -0.1443118 0.09965083 0.11439908 -0.010014561 -0.21785255 0.123779684 -0.30641 0.24923466 -0.046312943 0.003257816 -0.24668597 0.21178193 0.17847855 0.010519549 0.087758824 0.043099344 0.17120416 -0.101157576 -0.15176238 0.16037746 0.09253504 -0.08898254 0.1765031 0.2606136 -0.00587923 0.08556337 -0.17461757 -0.14055622 0.0024171239 0.20497607 0.02236155 0.10081722 0.1910268 0.005938357 -0.21832034 -0.07178317 0.33816987 0.0066010407 0.1921993 -0.023428636 0.0933128 -0.07308227 -0.15238018 -0.11091517 0.1945309 0.093360975 0.013506342 -0.119777076 0.43459687 -0.13584456 0.19600813 0.06333322 0.05424167 0.21070981
we -0.098331206 -0.10053459 0.29678604 -0.118494496 -0.006191426 -0.07611218 0.2659624 0.032929704 -0.2626042 -0.032418523 0.07358903 -0.26188862 0.26780868 0.24202004 -0.08939079 -0.36625266 0.27093595 0.09784115 0.2633901 -0.1530212 0.3379327 -0.19137488 -0.024610354 0.06007662 -0.252586 -0.031111468 0.008484311 -0.19954629 0.30216107 0.46913037 -0.062226303 0.17440511 0.0010208562 -0.19334789 -0.12307642 -0.4174329 -0.00705339 -0.08581122 -0.3329659 -0.32961705 0.18958701 0.07490492 0.101101056 -0.17962752 0.03572444 0.2839068 -0.22931935 0.1029345 0.03129448 -0.0152018685 -0.115371324 0.28651303 -0.45445707 0.42444658 -0.21067114 -0.07267368 -0.10190258 0.1438297 0.0067660734 0.02096674 -0.028361185 -0.16240974 -0.14472498 -0.12247081 -0.046061732 0.15669362 -0.014106643 -0.14966987 0.048125457 0.27527884 0.14476681 0.0073315566 -0.1694756 -0.24150477 0.030077005 0.09491945 0.12283621 0.21589974 0.03706542 0.06007926 -0.02387276 -0.075434044 0.1875611 0.07696919 0.3078944 -0.048236012 -0.015858369 -0.15691221 -0.015662529 -0.05320354 0.0027381398 -0.19862781 0.100241445 -0.046271626 0.18466125 -0.04463958 0.025638733 0.27593535 0.0813327 0.3485992
get -0.33520722 -0.23690337 0.62648416 0.06091336 0.27790236 0.32457575 0.03184809 -0.117471434 -0.10809674 -0.16987415 -0.34502417 -0.16984078 0.3676554 0.06490771 -0.061080243 -0.62905455 0.5137568 0.5826328 0.2961265 -0.03886241 0.10563035 -0.27762017 -0.003869345 -0.023914961 -0.5293458 -0.100930125 0.22125648 -0.35256922 0.09320195 0.5828984 -0.24836934 -0.12691037 -0.12814508 -0.2506269 -0.13896355 -0.1322034 0.021330968 -0.06818179 -0.12628332 -0.6313721 0.11835203 -0.01301734 -0.02139316 0.032393813 0.1133894 0.3128174 -0.07649043 -0.020735355 -0.100032106 0.2061871 -0.15512271 -0.27361768 -0.20076501 0.1795452 -0.51283073 0.07994026 -0.056888506 -0.011210898 0.07917923 0.08606571 0.03473731 -0.19906051 0.46655503 -0.39357525 -0.16716716 -0.008727147 0.11114684 -0.022551564 -0.11933541 0.031636745 -0.10290441 0.40433154 -0.3685827 -0.4254619 0.2638176 0.32938185 -0.1724867 0.4501982 -0.23125783 0.05511346 -0.0642001 0.082399584 0.23550586 -0.005415716 0.11885404 -0.036672387 0.056063835 -0.24776725 -0.02000807 -0.2841593 0.23111312 0.035676528 -0.33989584 -0.2265615 0.3344628 -0.0027151774 0.22319476 -0.24486634 0.2832811 0.22329336
if -0.21691167 -0.10705123 0.28486925 -0.013183933 -0.087555215 0.0056338445 0.20042716 0.02153683 -0.30628318 -0.005806037 -0.055758543 -0.2957156 0.39866528 0.18805082 -0.005995463 -0.26105142 0.18637267 0.18490754 0.24052826 -0.11479134 0.36728898 -0.13771327 -0.061891325 0.047320005 -0.24174224 -0.043308843 0.026444647 -0.22422796 0.2745586 0.5560916 -0.08439458 0.018065382 0.003897661 -0.1448614 0.032778997 -0.3583364 -0.007707082 0.02235654 -0.22965328 -0.44857067 -0.06143869 0.008413243 0.07577106 -0.11325874 0.021349184 0.21026939 -0.16027446 0.10038225 0.19727466 0.11129423 -0.07359117 0.35009447 -0.5058477 0.3733621 -0.12133288 -0.07709212 -0.044238836 0.15297431 0.036037087 -0.0066436823 -0.10825666 -0.08424415 -0.0143395495 -0.02683898 -0.040823795 0.26239923 -0.1430723 -0.18218137 0.18686193 0.20887245 0.16370511 0.044452563 -0.097237505 -0.15033172 0.06570329 0.038199186 0.04469527 0.28743443 0.10090118 0.03202825 -0.12379494 -0.11097208 0.23086253 0.05690419 0.16431391 0.026648227 0.009168672 -0.07900064 0.08839557 -0.09145722 0.09990646 -0.16542453 0.085077845 -0.17087507 0.2017476 -0.07247054 0.019443016 0.22029123 0.059856154 0.32984906
see -0.16932218 -0.15974687 0.3604812 -0.040154994 -0.04829062 -0.07130661 0.078371145 -0.017475521 -0.27138555 -0.06773216 -0.16117394 -0.26192597 0.3225236 0.24333534 0.042954948 -0.21734232 0.22494985 0.15369228 0.17707795 -0.19026169 0.37721974 -0.08296148 -0.091729015 0.064180404 -0.33794212 -0.034576356 -0.013083748 -0.29254237 0.18247247 0.58522385 -0.0400769 -0.067593105 0.020074748 -0.14149138 -0.008139398 -0.38414267 -0.045490824 0.03801665 -0.22339317 -0.42344204 -0.04796001 0.051512692 0.04530289 -0.06933327 0.021163164 0.20196018 -0.02043857 0.14174774 0.25346056 0.06873628 -0.17975363 0.25393698 -0.4838663 0.34549576 -0.12453613 0.06645213 -0.05142648 0.066247374 0.021522256 -0.007924453 -0.12691976 -0.13925174 0.18273294 -0.052013744 -0.0667321 0.22611281 0.05900617 -0.1686706 0.116334334 0.25437525 0.121531345 0.10893463 -0.12340356 -0.18102257 0.036710434 0.058695313 0.049276758 0.17880613 0.13381505 0.047688186 -0.072761185 -0.05799309 0.32599476 0.112486415 0.12966351 0.012042856 0.11084445 -0.15241954 0.022448806 -0.1329162 0.15390787 -0.025091205 0.024515102 -0.14128958 0.16545892 -0.054703046 0.054166384 0.22376081 0.11523801 0.2651378
she -0.052662995 -0.15033254 0.25720373 -0.056520674 -0.029367752 -0.035737433 0.21782933 0.1500532 -0.2090567 0.012308231 0.041116375 -0.26588327 0.37264147 0.19514282 -0.13191004 -0.38479277 0.17307052 0.20602888 0.2779293 -0.097031884 0.2136114 -0.14054655 -0.14223649 0.13541745 -0.26281115 -0.08559786 0.04760321 -0.13305178 0.27866235 0.46807355 -0.042959202 0.09854044 -0.10889929 -0.19705231 -0.021786053 -0.28426868 0.12488771 0.0026882393 -0.25066945 -0.29144943 0.08373595 -0.0011126386 0.050129235 -0.064502075 -0.06659047 0.29540503 -0.25953165 0.076377116 0.0072684125 0.11112366 -0.03444433 0.24547653 -0.308668 0.24638654 -0.12377007 -0.094804786 -0.11928853 0.084018864 0.02404461 0.09238627 0.05282337 -0.03130327 -0.088621356 -0.107845716 -0.08671685 0.10643502 -0.046904948 -0.14524823 0.048870377 0.21844095 0.09371913 -0.043612566 -0.20588398 -0.27582455 0.194765 0.13383567 0.088110894 0.33672595 0.061769806 0.080951996 -0.1658136 -0.21495232 0.046283316 0.008713813 0.21207823 0.050206766 -0.11854509 -0.19704929 0.029842068 -0.09002245 0.11193213 -0.19664899 0.1492475 -0.12962864 0.12486778 -0.04948591 -0.025401954 0.20214269 0.0761021 0.34384555
like -0.10959547 -0.16180024 0.24230754 -0.10084489 -0.09316365 -0.008697099 0.06686876 0.05755739 -0.17535947 -0.11341348 -0.12628047 -0.23238637 0.31250328 0.2196706 0.001293445 -0.16806705 0.06819936 0.10907115 0.16417499 -0.100103155 0.28502044 -0.060751803 -0.030584134 0.07347533 -0.27716038 -0.057488967 0.023704551 -0.24067271 0.20076157 0.52114147 0.005014762 -0.051576003 -0.033925522 -0.23457217 -0.026077567 -0.3871258 0.016952876 -0.00030281703 -0.21559323 -0.38683626 -0.06040654 0.027899753 0.06945635 -0.04617986 0.016523255 0.26707128 -0.10115546 0.062137216 0.20170628 0.07667452 -0.11513221 0.30765 -0.36517006 0.37852874 -0.027815444 0.01258821 -0.14044808 0.19827478 0.034191795 0.012833293 0.01647802 0.064888485 0.08029055 0.05725577 -0.047852773 0.22956581 -0.0618068 -0.13851492 0.24936229 0.15436068 0.1794598 0.018811777 -0.064166054 -0.13928197 0.034310516 0.05747939 0.019840365 0.10768144 0.2697904 -0.014103629 -0.10263757 -0.081570216 0.2690863 0.14599878 0.14887261 0.053675808 0.1024857 -0.07899785 -0.081638835 -0.07526094 0.15131466 -0.0017133785 0.061855946 -0.17610984 0.27860573 -0.10796674 0.04647935 0.15601191 0.0041689817 0.259562
down 0.117786035 -0.22366352 0.29972184 -0.22006181 0.22562571 0.25129735 -0.04912056 0.16385838 0.046150915 -0.05549568 -0.18708082 -0.01828657 0.017161055 0.06004634 -0.090540305 -0.36575457 0.109436974 0.3836145 0.17323966 -0.050898418 0.03283635 -0.43098482 0.13515852 0.02741021 -0.39427373 -0.03018642 0.18458688 -0.25049126 -0.017742468 0.43979445 -0.2589952 -0.06949728 -0.17062078 -0.22807667 -0.14289546 -0.13123553 0.2668612 0.09394372 -0.005488106 -0.4569949 0.1363386 -0.06939601 -0.060368955 0.29642785 0.07230847 0.31073868 0.1429798 -0.032167394 -0.19987556 0.14680669 -0.13305923 -0.24880217 -0.11550142 -0.06947683 -0.2657395 0.09507066 -0.26809347 0.13252166 0.18082489 0.3361395 0.3774261 -0.02465207 0.24779478 -0.28580424 -0.2682271 0.017069971 0.40704587 0.12821633 0.015888885 0.23998839 -0.22339134 0.229506 -0.35595053 -0.28125817 0.001008816 0.3502246 -0.011540674 0.2871383 -0.0073974393 0.008964232 -0.22094661 -0.04835991 0.0007093474 0.095646225 -0.07208624 0.074910626 0.10549837 -0.26023176 -0.14309265 -0.32900327 0.35522383 0.31669202 -0.21569218 -0.0939559 0.32412466 -0.020367816 0.041985445 -0.3648044 0.21853262 0.20876098
girl -0.21942285 -0.17158471 0.24478891 -0.056462426 -0.0032823875 0.23158407 0.013925043 0.14778882 0.06800186 -0.050761018 -0.038809963 -0.41778976 0.44006777 0.17409943 -0.129118 -0.21921065 0.023868049 0.37673864 0.16878599 0.12230001 0.11534979 -0.14454386 -0.020928526 0.008487471 -0.31583297 -0.20660768 0.07793853 -0.3796957 0.2122956 0.42263085 -0.0061538606 0.010356569 -0.14427078 -0.3764358 -0.03877241 -0.32413486 0.037883546 -0.0116691645 -0.20447817 -0.3903023 -0.20907755 -0.11407772 -0.004918799 0.0549565 -0.038297817 0.34113103 -0.27549836 -0.032566607 0.06427078 0.19990721 -0.038482033 0.03800191 -0.23527999 0.21617949 -0.064536564 -0.13984917 0.03291636 0.0966909 0.015915755 0.04392271 0.06782887 0.10248549 0.044296887 -0.07963465 -0.1747451 0.051390696 -0.088817194 -0.1778471 0.13948439 0.102942504 0.18008436 0.12252266 -0.29354593 -0.15871294 0.12571833 0.1447524 -0.039415356 0.3472122 0.124892026 0.01914774 -0.26733854 -0.105918445 0.04862227 0.008656035 0.11282419 0.06801702 -0.028895829 -0.106304884 0.07510449 -0.20525074 0.21269283 -0.11108019 0.09373538 -0.20555075 0.2590455 -0.061398495 0.07655383 0.037339065 0.0069091776 0.27031517
her 0.00036896023 -0.14324759 0.19131675 -0.08561579 0.0054238304 0.07095521 0.015615694 0.15115696 -0.18433921 -0.05283926 -0.0028281163 -0.21767777 0.30107892 0.22983074 -0.056458518 -0.2782102 0.08538445 0.27215102 0.16231126 -0.033157945 0.15529032 -0.19628748 0.050678805 0.03701858 -0.25523636 -0.021741271 0.13255474 -0.19526769 0.10841304 0.4755622 -0.07791169 0.07083088 -0.0974836 -0.19695391 -0.016597763 -0.34052086 0.13377051 0.1089243 -0.10144372 -0.36728486 0.07317282 0.018124202 -0.055603493 0.10237601 -0.017333731 0.2616142 -0.11700504 0.015125424 0.13871533 0.18988544 -0.10081058 0.048186835 -0.19464841 0.15159602 -0.06604038 -0.0021816408 -0.19809672 0.23729874 0.119643144 0.09459049 0.09944759 0.008385921 0.0022841075 -0.10677665 -0.18313248 0.027629681 0.09303833 -0.08686649 0.12779573 0.22463223 -0.074301176 -0.02947332 -0.14703839 -0.15613313 0.110732876 0.17440742 0.019112932 0.35610092 0.09977161 0.0065996586 -0.140396 -0.17043027 0.08742942 -0.06531613 0.097760566 0.018372796 -0.022605387 -0.08711643 -0.004004031 -0.15000091 0.13411385 -0.057251487 0.07885315 -0.03658951 0.19725242 0.024788197 -0.02028785 0.08057912 0.12847011 0.28174317
let -0.29676756 -0.13984734 0.38750112 0.048999935 0.061258808 0.3518973 0.052021753 -0.04214836 -0.2510164 -0.079268664 -0.20950723 -0.3198433 0.3885381 -0.013278957 -0.048376318 -0.3955501 0.4989064 0.7046982 0.24834007 0.034383602 0.16084342 -0.21389297 -0.04461348 0.042685725 -0.50633615 -0.03726522 0.24562037 -0.17321795 0.23167637 0.68506724 -0.31268826 -0.09778015 -0.15133247 -0.14540516 0.17927137 -0.170471 -0.00485658 0.25326207 0.054832954 -0.75129664 -0.22288765 -0.03297887 -0.1178128 0.12817885 0.04699077 0.15913592 -0.04920668 0.11345414 0.13892049 0.38220707 0.103767574 -0.22368501 -0.25267982 0.19004042 -0.35261405 -0.14746141 0.049938917 0.046044964 0.008161995 0.0189146 -0.21396822 0.0015640146 0.28452882 -0.25949726 -0.036941566 0.051215842 -0.14497161 -0.13704145 0.12491003 0.041616768 -0.05869635 0.33060586 -0.3121855 -0.40195826 0.25427306 0.13547678 -0.20816286 0.6811263 0.014751259 -0.057342943 -0.15552236 0.0057196934 0.24039158 0.118288234 0.02161688 0.11307561 0.12545227 -0.13367052 0.023776922 -0.3036035 0.42416203 0.122070596 -0.09892946 -0.21243435 0.30866557 0.14131975 -0.018575916 -0.11836415 0.13607408 0.29167157
go -0.392061 -0.041539155 0.3651376 0.10582398 0.10661851 0.2507811 -0.03630439 -0.08003318 -0.19303775 -0.07267475 -0.2150874 -0.28001493 0.35428822 0.039363228 -0.108254604 -0.40890467 0.51259625 0.64104426 0.055069104 0.07655748 0.1546876 -0.22121713 -0.055724904 -0.104604505 -0.54121035 -0.17613922 0.19648004 -0.35016882 0.23192847 0.68515724 -0.20603026 0.031185217 -0.106787145 -0.1322383 0.0073221605 -0.24905542 -0.06480017 0.09166969 -0.11664341 -0.61372304 -0.050384924 -0.035512198 0.022841735 0.032246165 0.051104948 0.16754821 -0.20785284 0.14970858 0.05111365 0.17169377 0.006037632 -0.20152804 -0.2922924 0.29530206 -0.38414192 -0.10262332 -0.052115235 0.05146429 -0.028871609 0.0056121177 -0.13597757 -0.10432254 0.2570346 -0.29995328 -0.13911295 0.06688131 -0.12525825 -0.16011943 0.044500917 0.07545949 -0.064055815 0.24735218 -0.36095327 -0.38885668 0.2536444 0.19114074 -0.10246012 0.56628615 -0.090899356 -0.03358245 -0.10944527 0.012443898 0.35643068 0.012402854 0.17932062 0.013364293 0.047589045 -0.2272906 0.002875385 -0.30814704 0.23160855 -0.01906162 -0.11076346 -0.123638734 0.39718357 0.072244786 0.110193916 0.057099856 0.055376094 0.2229711
time -0.049192443 -0.21359992 0.17442365 -0.1171691 -0.029025525 0.14696011 0.0390069 0.2431886 0.05257253 -0.029747486 0.014897213 -0.3790357 0.39764115 0.29439944 -0.11087666 -0.23983884 0.01864418 0.37592584 0.093776956 0.009506089 0.24194318 -0.16870579 0.14633866 0.046151783 -0.27480528 -0.14931126 0.015308081 -0.26212648 0.16332027 0.3632193 0.029571345 0.15835845 -0.045222428 -0.32063907 -0.06062158 -0.36814424 0.08659847 0.04109402 -0.10707956 -0.2684248 -0.1226579 -0.27288297 0.019064488 0.118084244 -0.041512888 0.3747029 -0.09772475 -0.029057773 0.07837238 0.15197484 -0.057000507 0.023403 -0.20698373 0.28586358 0.019639166 -0.052600842 -0.0439716 0.21806978 0.13214946 0.10587974 0.09729909 0.051691 0.03494782 -0.019523313 -0.20047258 0.04206011 0.058528677 -0.03584144 0.10315883 0.19863388 0.071919404 0.068475954 -0.1835505 -0.08680768 -0.01839422 0.091908306 -0.030009205 0.320503 0.13580008 0.020625142 -0.13286932 -0.19480754 0.13453045 0.121464305 0.12140362 0.0526683 -0.059535805 -0.20016928 0.0801818 -0.19643307 0.17783204 -0.05868554 0.08975902 -0.119687706 0.14438033 -0.07296912 0.041779533 0.13220058 0.0011184394 0.16197108
have -0.14012921 -0.13884245 0.27178526 -0.08703894 -0.06490706 0.053411674 -0.052359246 0.020818649 -0.005000283 -0.14427015 -0.075101994 -0.23973319 0.36359397 0.1720708 0.014541204 -0.23437412 0.11973769 0.25907066 0.1057149 -0.034725767 0.14975575 -0.081675634 -0.14852361 0.090521604 -0.3024321 -0.20074299 -0.007863231 -0.24343522 0.25159928 0.5396072 0.026709512 0.0032068328 -0.11044221 -0.2830075 -0.102939755 -0.3379007 -0.04264355 -0.014483317 -0.183383 -0.37622738 -0.040103838 0.04807414 0.13436593 -0.0039183996 0.0122659085 0.2680978 -0.28543642 0.055952277 0.084505655 0.030696426 -0.06992309 0.14039426 -0.22735663 0.3748393 -0.056178335 -0.03160241 -0.10865762 0.06451693 0.03617724 0.024892503 0.02696985 0.045335814 0.05116134 -0.02705844 -0.033985604 0.14576754 -0.11502894 -0.15064281 0.15098044 0.15854868 0.14676486 0.013599757 -0.1384705 -0.2187612 0.1702244 0.13120882 -0.055312917 0.24042997 0.13112049 0.06561723 -0.124697104 -0.08983037 0.21354352 0.03474997 0.3043719 0.0345937 -0.0115104 -0.21606782 -0.107115395 -0.1381553 0.1671957 -0.102768846 0.10354754 -0.123474315 0.3394768 -0.056353185 0.14228974 0.17701498 0.021628985 0.226704
say -0.24749027 -0.050931316 0.20772132 -0.06915666 -0.08979042 -0.003974971 0.07923508 -0.10837636 -0.20074934 -0.17857814 -0.093274966 -0.15512872 0.26068577 0.11786735 -0.0125622405 -0.19241445 0.23376215 0.14953145 0.16953234 -0.115761474 0.3128811 -0.09849815 -0.23410596 0.08200106 -0.29304606 -0.1414799 -0.013161518 -0.27337182 0.22284791 0.57564515 -0.025567386 -0.00033365822 -0.04203994 -0.21448138 -0.088322505 -0.48378497 0.028347045 0.008143203 -0.29067168 -0.45784456 0.02840283 0.09663718 0.11542942 -0.2156797 -0.0012979001 0.25197273 -0.26313636 0.17338204 0.11857169 -0.010601187 -0.12356826 0.32144392 -0.4904981 0.3746588 -0.15241829 0.0018132286 -0.14802888 0.08056508 0.017012518 -0.11057646 -0.016448785 -0.049290765 0.0029320067 -0.02383822 0.05459958 0.41711682 -0.124186985 -0.20200524 0.19615266 0.17601061 0.16432028 0.019015998 -0.17295931 -0.1963532 0.008802768 0.10038954 0.12337807 0.22073185 0.1753341 0.09370652 -0.11608478 -0.053900644 0.32522154 0.085244276 0.3063077 -0.009048991 0.026500951 -0.17904137 -0.14061764 -0.049080454 0.18112649 0.014005786 0.17818387 -0.0740007 0.43953922 -0.0368099 0.026527893 0.2391135 -0.03447873 0.33696574
never -0.30451435 -0.012367976 0.072151236 -0.018802606 -0.062777214 0.058406923 -0.2666596 -0.21352038 -0.4446629 -0.15922514 -0.17232634 0.01238925 0.26628244 0.23112594 0.13949223 -0.16627939 0.18307115 0.12605211 -0.0888678 -0.1456843 0.44675478 -0.09291692 0.04211209 -0.020981247 -0.5052652 -0.096039884 0.054408327 -0.25793657 -0.016400285 0.73704404 -0.01986498 0.12823744 -0.011041785 -0.10700763 0.18155259 -0.50299174 0.05784718 0.2905336 -0.09015385 -0.4221282 0.140965 0.22824147 -0.022738513 -0.012167196 -0.0010685734 0.1948978 0.04492281 0.17270522 0.37681744 0.024075935 -0.062078986 0.23556301 -0.56009215 0.3839901 -0.11024603 0.15527469 -0.5085112 0.34841532 0.21593732 -0.122930005 -0.019777266 0.021455677 0.1167164 -0.016393853 -0.04432505 0.3267331 -0.0035608262 -0.21398453 0.1882544 0.25150377 -0.3676119 -0.0360415 -0.031685486 -0.12851276 0.018460855 0.20171225 -0.018012488 0.16580307 0.3985135 0.007807863 -0.007205178 -0.0535137 0.6306604 0.056708023 0.4173321 -0.10232683 0.24684717 0.17550853 -0.19984396 -0.11854596 0.08368292 0.29916617 0.09460868 0.050700795 0.5117863 -0.02770223 0.020628214 0.3913158 0.032709993 0.14170063
out -0.0487999 -0.3421954 0.32086143 -0.031201407 0.051860772 0.20100984 0.18375136 0.21444772 -0.12797394 0.059358124 0.016382638 -0.34101743 0.28675997 0.21268433 -0.077995636 -0.40502888 0.17503642 0.37163782 0.32057333 0.01659974 0.23660766 -0.29061323 0.15519227 0.06372141 -0.18009414 0.11972564 0.16617344 -0.19401258 0.12049772 0.35194913 -0.12887955 0.053960964 -0.13940594 -0.27808172 -0.09448317 -0.21366319 -0.0054299734 -0.0018552146 -0.16444021 -0.49378157 -0.12998 -0.13755755 -0.08384535 0.041342024 0.0413131 0.2320108 -0.013518994 -0.043080922 0.020348363 0.18424492 -0.08949047 -0.03358646 -0.25953496 0.10570899 -0.20344743 -0.021911507 -0.031038057 0.09385085 0.07480476 0.2050476 0.02180444 -0.17084125 0.20691352 -0.2328974 -0.2565983 -0.07899112 0.16883364 -0.02287223 -0.03793943 0.23677209 -0.03815227 0.14806378 -0.27945715 -0.27835655 0.03309754 0.2428602 -0.049821198 0.37405026 -0.053966608 0.07340998 -0.20884483 -0.096492626 -0.062621616 0.05461775 -0.0562857 -0.02861553 0.040350407 -0.11841624 0.26280963 -0.23137337 0.16713174 -0.08027101 -0.22110398 -0.099166594 0.030758392 0.048506673 -0.072798856 -0.11313675 0.32938722 0.2633535
cant -0.2533032 -0.16185029 0.3791166 0.05416401 0.107090436 -0.015443672 0.08230976 -0.16604857 -0.38168722 -0.06334137 -0.23785065 -0.21821271 0.35545275 0.18279451 0.023123534 -0.29958636 0.34261906 0.26912883 0.09675752 -0.088449374 0.23490852 -0.11938892 -0.009638731 -0.07181393 -0.37547156 -0.018609308 0.1463533 -0.33744994 0.19274208 0.6480758 -0.12774993 -0.15657008 0.0037411724 -0.11591943 0.043333415 -0.3235002 -0.009066159 0.028967759 -0.13552949 -0.64224195 0.021757891 0.1526744 0.033301145 0.04167047 0.0068518324 0.1133896 -0.10788303 0.107879445 0.28524756 0.18463796 -0.07335166 0.17836905 -0.3591215 0.33142534 -0.2509422 0.0067565655 -0.11031001 0.16451816 0.0014569946 0.035123758 -0.1420567 -0.09939331 0.17814437 -0.08827866 -0.096515745 0.13840684 -0.09068039 -0.21418746 0.20232667 0.12140857 0.044400394 0.20688273 -0.082777984 -0.22754727 0.080737725 0.08641545 0.09409576 0.33707067 0.05587268 0.0005733686 -0.03300367 0.051429506 0.25404945 -0.054406226 0.14713667 -0.03234302 0.1373503 -0.0494749 0.0110501675 -0.13668098 0.09991407 -0.03333428 -0.10498964 -0.094574146 0.30238864 -0.009242114 0.023320222 0.11068041 0.25760075 0.3364073
ill -0.16734852 -0.09292429 0.27208677 -0.12461419 0.06946462 0.11388967 0.06204161 -0.17370993 -0.24269177 -0.18540417 -0.13938604 -0.11021098 0.25169203 0.19568852 -0.009333318 -0.26355052 0.23119727 0.08868565 0.14919645 -0.10934834 0.2084982 -0.14902857 -0.011023425 -0.03899192 -0.3955784 -0.024247704 0.023016434 -0.25285327 0.097722486 0.54116136 -0.11800766 -0.010017753 -0.005492033 -0.31522486 0.08357837 -0.32712132 0.17898889 -0.048701797 -0.16666597 -0.3795571 0.13313895 0.05176793 -0.009223434 0.022113865 -0.013937379 0.19047253 -0.10701053 0.049105123 0.1743747 0.16600484 -0.10668635 0.15910137 -0.39630735 0.2177892 -0.21893224 -0.024986707 -0.26143834 0.26528162 0.14077252 -0.026349965 0.040032733 0.0039567477 -0.018518114 -0.24024782 -0.076424524 0.14065862 -0.048132345 -0.1790317 0.21123844 0.16283625 -0.092177935 0.14640297 -0.15107122 -0.275575 -0.042424854 0.15838939 0.18229522 0.31513885 0.10521832 0.081672385 -0.067154355 0.008354571 0.2044013 0.03993697 0.17022777 -0.055591255 0.10940024 0.0071220277 -0.025429247 -0.012636303 0.11029767 0.19499083 0.06100324 -0.047776535 0.41010734 0.05033298 -0.13679038 0.23722994 0.1753993 0.3699937
he 0.031448312 -0.050207563 0.17314482 -0.10427414 -0.10884526 0.01527838 0.1933043 0.2633774 -0.14810774 -0.03212763 0.114636526 -0.25203633 0.34831595 0.25658742 -0.1259178 -0.38473994 0.045317538 0.13941412 0.27924448 -0.13893107 0.20202069 -0.24847777 -0.007894852 0.13154861 -0.21209446 -0.07188411 0.04669255 -0.03434106 0.23770219 0.36009777 0.005845677 0.21900587 -0.12883024 -0.14303002 -0.09487223 -0.3293313 0.19622062 -0.024235837 -0.15745078 -0.21058962 0.19838323 -0.081173696 0.043191668 -0.05950941 0.00670664 0.2828328 -0.24904022 -0.024943257 -0.015689615 0.03261894 -0.03934923 0.25404397 -0.3060276 0.30986908 -0.029682009 -0.11438707 -0.20745789 0.1838484 0.10459638 0.18653361 0.15391485 0.008314926 -0.107691914 0.04984705 -0.080362454 0.095540375 -0.026548013 0.05082192 0.081814356 0.19414979 0.06974937 -0.10148464 -0.099845506 -0.096418545 0.12741551 0.1930526 0.030999824 0.23467892 0.035480414 -0.03155814 -0.04799673 -0.32280263 0.049014583 0.13499962 0.34937635 0.058181114 -0.15798177 -0.16191146 -0.090382755 -0.114775315 0.11879988 -0.1819274 0.09225301 -0.06611224 0.12751624 -0.16802214 0.048840072 0.19594888 -0.055328567 0.27834484
gon -0.39680812 -0.020575244 0.17022525 -0.1737724 0.23607412 -0.044946384 -0.18139067 -0.3092124 -0.35907882 -0.3051857 -0.43932083 0.06896172 -0.06338562 0.15840195 0.20645198 -0.13112618 0.16291998 0.12294939 -0.1744074 -0.3335172 0.29684478 -0.31081623 0.089164294 -0.22931032 -0.5301097 -0.0998142 0.054115638 -0.51644546 0.06447407 0.88339657 -0.15499946 -0.10229649 0.026882866 -0.172779 -0.0038174433 -0.48901203 0.038746066 0.1740281 -0.29651198 -0.65114594 0.38234434 0.39838383 0.046112925 0.053566787 0.054022565 0.106575035 -0.019895919 0.27161488 0.2730149 -0.12954594 -0.23153684 0.1514753 -0.56801254 0.31957608 -0.250939 0.31902412 -0.52003574 0.3819571 0.25505823 -0.07290982 0.18408586 -0.009969163 0.25223032 -0.16116467 -0.17916629 0.3574245 0.09937591 -0.1294865 0.45860544 0.15245327 -0.26336503 0.22160035 -0.16947477 -0.12705375 -0.18685926 0.14554442 0.17763695 0.007253048 0.31413797 -0.14628688 -0.056177568 0.20470795 0.64281386 0.12346303 0.367251 -0.10284216 0.4944224 0.14088644 -0.43043527 -0.17098257 0.1830835 0.3585912 -0.1506122 -0.0076424726 0.92749524 -0.17415035 0.16985604 0.22107518 0.1891323 0.42676127
was 0.05176936 -0.21105102 0.16176929 -0.11030735 -0.12678342 -0.10599928 0.05109111 0.21528147 -0.15831982 0.0025606093 0.0345602 -0.24896319 0.31142008 0.31684342 -0.0757388 -0.22937237 -0.063513026 0.11059857 0.18318215 -0.050899707 0.3074795 -0.13164517 0.03136113 0.18535368 -0.15770024 -0.046538163 0.057593763 -0.14257304 0.2288557 0.38278148 0.07679199 0.09073202 -0.15866867 -0.1773855 -0.048555743 -0.36281028 0.074510805 0.052388307 -0.20764019 -0.22852984 0.022041803 -0.06415181 0.051818598 0.006877049 -0.05706856 0.38549772 -0.094884895 0.02722902 0.20432025 0.03641875 -0.121544406 0.3324567 -0.3089643 0.3288961 0.06819279 -0.037699502 -0.1732992 0.14563057 0.07277939 0.21264024 0.1458018 -0.00016832503 -0.01158348 0.106092796 -0.10932501 0.2232003 0.096909866 -0.15616445 0.20583299 0.3239804 0.17952536 -0.1781814 -0.0790306 -0.116139725 0.016385531 0.14997923 0.061161604 0.15929632 0.19489245 0.0027885132 -0.15333565 -0.2618891 0.033578828 0.02822561 0.14642318 0.08470356 -0.090793766 -0.21392621 -0.02353953 -0.1827177 0.049007658 -0.11326471 0.11608827 -0.04871424 0.06368029 -0.10402168 0.011763826 0.12468906 0.03673266 0.26535383
little -0.0690638 -0.29340774 0.21853586 -0.2878727 -0.14145225 0.16392933 -0.23063861 0.20937161 0.2307833 -0.16502295 -0.03436113 -0.40165856 0.40149593 0.20724988 -0.08104046 0.00879739 -0.36329776 0.07637514 0.12118102 0.1564178 0.0032272516 -0.041271877 -0.11924366 0.11869587 -0.37146375 -0.26616874 0.015649395 -0.43847948 0.033009626 0.44520605 0.24869393 -0.15633424 -0.25402033 -0.5898554 -0.16056472 -0.39987594 0.097971044 -0.0891107 -0.22913992 -0.35963967 -0.21781543 0.008918707 -0.057289585 0.15893644 -0.030178169 0.45843953 -0.2978791 -0.11821443 0.15338337 0.1631201 -0.20242348 0.05196856 -0.043891363 0.14027427 0.31352076 -0.02460206 -0.19044647 0.22137006 0.055425968 0.06900999 0.2460796 0.32990927 0.06511706 0.15571593 -0.34475282 -0.1117471 0.045438007 -0.023007533 0.3692484 0.038867585 0.37165603 0.056358103 -0.16540857 -0.14950535 0.055689126 0.21685101 -0.0120114125 -0.032745123 0.39376798 -0.08047835 -0.33311233 -0.06297626 -0.008959495 0.109693564 0.17491245 0.09543244 0.008470636 0.085599795 -0.1692915 -0.26776624 0.38676476 0.12946045 0.08331686 -0.23839736 0.4212516 -0.17227821 0.0005301809 0.050003946 0.05272062 0.2616891
this 6.9501606e-05 -0.2446778 0.22312784 -0.1202967 -0.09732824 0.06809624 0.13908733 0.31946638 -0.1004561 0.032324202 0.09578069 -0.36409923 0.34492514 0.34155738 -0.13668384 -0.24075335 -0.06287928 0.20621262 0.18197873 -0.07619996 0.36949375 -0.19864789 0.22127126 0.061392203 -0.15296753 -0.0034005921 0.0021540413 -0.24058948 0.04585177 0.31952697 0.00930719 0.1383291 -0.0207058 -0.26948896 -0.14759003 -0.392009 0.03437877 0.04330123 -0.18097962 -0.2512876 -0.07902917 -0.13985974 -0.060337696 0.10147625 -0.023643201 0.29948717 -0.01565337 -0.016791955 0.07279014 0.13749103 -0.18146697 0.14556119 -0.34409812 0.22034906 0.06178733 0.022115666 -0.18104655 0.28761217 0.12970719 0.12733042 0.046614382 -0.033619396 0.06428928 -0.024269145 -0.2675767 0.031788684 0.15824041 -0.03146426 0.1392249 0.30537376 0.014556357 -0.024343587 -0.1354288 -0.15236816 -0.042080075 0.11476508 0.049295187 0.21353681 0.18093687 -6.004387e-05 -0.15471576 -0.2721461 0.1069012 0.12911868 0.06498882 -0.0018062982 0.020567212 -0.1139878 0.13303263 -0.12761484 0.11142921 -0.047362983 0.030500766 -0.12408986 0.019083943 -0.08571693 -0.023583615 0.1682368 0.13699828 0.16311346
one 0.0062097795 -0.1544618 0.14004819 -0.065156646 -0.19109789 0.06500384 0.03542743 0.36335558 -0.0070763556 -0.0890118 -0.0010247253 -0.377782 0.52378356 0.40150842 -0.086407095 -0.1682003 -0.1740239 0.2201572 0.08959505 -0.052653275 0.2861829 -0.11914149 0.23815879 0.016424602 -0.2464908 -0.10421668 0.008372154 -0.23621191 0.13612592 0.45514202 0.044828467 0.14241883 -0.027618041 -0.28435665 -0.04564236 -0.47973683 0.16199364 0.06271032 -0.09577525 -0.15829074 -0.03564156 -0.20675327 0.03456118 0.10842544 -0.0036042538 0.35488653 -0.046515565 -0.04399222 0.2102967 0.20124857 -0.13189158 0.19526316 -0.21960978 0.35542104 0.19550802 -0.0472021 -0.1282001 0.39566833 0.1657531 0.07743775 0.1224625 0.17891848 0.024397714 0.12258311 -0.2473486 0.07302355 0.034325454 0.004198102 0.27097934 0.20143895 0.084221214 -0.058011163 -0.028237397 0.091016546 0.009944868 -0.0063770497 -0.05950165 0.18068673 0.38342744 -0.041229147 -0.071381174 -0.38300842 0.22641198 0.15168028 0.13931118 0.043136712 -0.004559747 -0.047074903 0.0090882145 -0.12116883 0.18833326 -0.10917573 0.12601778 -0.23691308 0.11248195 -0.12522964 0.16492583 0.24530892 -0.089022346 0.14297186
want -0.3815897 -0.23784368 0.41840616 0.0925587 -0.16857633 -0.0049384157 0.075133376 -0.10430659 -0.21928982 -0.061667323 -0.11151918 -0.4184766 0.5593624 0.1170971 -0.08577544 -0.22883068 0.3726053 0.3707366 0.2409731 0.061484564 0.29554996 0.081010826 -0.24278471 0.051511537 -0.29927304 -0.1626889 0.08186776 -0.3785387 0.36415786 0.68220234 -0.009143013 -0.18331686 -0.03280949 -0.3594024 0.07670879 -0.40448913 -0.07023237 0.006237006 -0.3248133 -0.6492031 -0.3155353 0.038156293 0.06971898 -0.14601924 -0.048122436 0.26685154 -0.3521278 0.14018145 0.2203741 0.22765312 0.008317309 0.2880403 -0.3833298 0.40278006 -0.13058876 -0.16678321 0.14131391 0.0014319873 -0.09623619 -0.16403778 -0.25389037 -0.0047902046 0.1240993 -0.04785459 0.007038557 0.29209903 -0.3233365 -0.34795645 0.19590166 0.12706177 0.28595543 0.101565845 -0.24953282 -0.339547 0.21582259 -0.00876622 0.03855031 0.45462784 0.10150145 0.15419206 -0.26864552 -0.11903362 0.2176074 -0.027150296 0.11780236 0.056167353 -0.011771134 -0.20776205 0.1109202 -0.09554961 0.2278756 -0.16274948 0.12018508 -0.28382665 0.2834711 0.06691092 0.011566799 0.18898897 0.0677361 0.3611255
way -0.116204396 -0.23171245 0.24964999 -0.1303061 0.01574472 0.100628845 0.10191495 0.08957674 -0.092329815 0.08059204 -0.05217737 -0.26478422 0.20423675 0.21102229 -0.026222177 -0.24226107 0.13481778 0.25987872 0.13852984 -0.06213466 0.37430546 -0.20321614 0.098739356 0.08882738 -0.20938738 -0.016632454 0.07285128 -0.30735144 0.15635504 0.35494083 -0.100146376 0.034586884 -0.00033083407 -0.27691376 -0.108234964 -0.32114547 -0.013560966 0.044714957 -0.19287972 -0.41696754 -0.16157572 -0.11789183 -0.011098292 0.022302473 -0.022496367 0.34265694 -0.016068732 0.016040793 0.027035333 0.092477165 -0.08323694 0.16146648 -0.35124594 0.26921508 -0.14505187 0.05390974 -0.08026704 0.18102089 0.09458129 0.13808008 -0.008806591 -0.13357304 0.16019566 -0.056321505 -0.15129307 0.19806269 0.1498083 -0.080650784 0.0695023 0.26253313 0.071617864 0.0790763 -0.18112162 -0.16785876 -0.02805333 0.08914183 0.01481801 0.24408384 0.09508794 0.07723702 -0.19524622 -0.074394636 0.12174798 0.1805081 0.028427042 0.0002987969 0.10987037 -0.19245932 0.08823544 -0.14726888 0.13687581 -0.004581089 -0.04240896 -0.13977416 0.113216914 -0.033303667 0.0057436153 -0.0053205867 0.11880505 0.19831297
at 0.07015016 -0.27469444 0.26427817 -0.06240041 0.06513325 0.108086556 0.13503906 0.13760579 -0.10414708 -0.042188242 -0.09432989 -0.18242317 0.30259636 0.16691469 0.0012495439 -0.29481664 0.07606295 0.1490247 0.23490846 -0.13822983 0.124562405 -0.2557722 0.009662815 0.08619519 -0.26679486 0.08056377 0.03623075 -0.20748027 0.06965665 0.4324953 -0.07841068 -0.017706407 -0.15635051 -0.25480226 -0.03129076 -0.12960775 0.12489833 -0.008877452 -0.071026824 -0.3769728 -0.031439986 -0.048621505 -0.0327723 0.17562021 0.0011545315 0.26524857 0.099376544 0.048631206 0.13044588 0.13518889 -0.20234714 0.02280959 -0.27179164 0.078211546 -0.15794274 0.026378727 -0.20571932 0.11873249 0.15097153 0.16404533 0.24647367 -0.05287868 0.12139348 -0.25539374 -0.20362414 -0.03999431 0.2592209 -0.0683644 0.14975487 0.27620867 -0.025755875 0.048849896 -0.24423711 -0.2584579 0.01200013 0.24868762 -0.013836313 0.26180756 0.09856011 0.038739312 -0.18589118 -0.06297858 0.08703283 0.048496075 -0.09133754 0.011654934 -0.005430813 -0.18358979 0.06054449 -0.17887846 0.14056763 0.068282634 -0.064488746 -0.09947124 0.11891028 -0.051368758 -0.086671 -0.07076887 0.27106914 0.24832447
how -0.15714878 0.03087116 0.1623694 -0.19144692 -0.21811655 0.082435966 0.2025952 0.058834348 -0.091572456 -0.0751388 0.0803071 -0.36933973 0.33329806 0.28819117 0.080905095 -0.23003249 0.10709445 0.24333861 0.22268467 -0.19223052 0.31827083 -0.1801215 -0.10111033 0.16016866 -0.16999803 -0.14617904 0.011270897 -0.09523051 0.3917186 0.5635627 -0.05050647 0.23961352 -0.033885732 -0.13617136 -0.017268945 -0.36751443 -0.046141412 0.064877935 -0.2670797 -0.35779697 -0.04712571 -0.032387935 0.13840188 -0.2048968 0.052576598 0.17782722 -0.4765574 0.112958126 0.16287562 -0.0435771 0.04453987 0.45795992 -0.48560277 0.5452599 -0.0065202634 -0.21592194 -0.037760507 0.1408967 0.078887865 0.08225076 -0.1398213 0.054074325 -0.15942545 0.12443059 0.17130232 0.3905081 -0.36374867 -0.080512635 0.267602 0.3634421 0.25714266 0.032824263 -0.0069554737 -0.11973156 0.13551396 -0.014109689 -0.04213452 0.28103974 0.12531795 -0.036674473 -0.03889499 -0.2272747 0.23778015 0.22059324 0.3892353 0.14749761 0.02004025 -0.21538065 -0.13007887 0.0069713793 0.09771813 -0.23204333 0.26360416 0.021612322 0.25586367 -0.14609018 0.15340307 0.4843911 -0.09918329 0.3735458
need -0.477175 -0.21798396 0.26044926 0.041385256 -0.33920002 0.12973225 0.13318141 0.024582116 -0.17573631 0.09784148 0.006266725 -0.5436205 0.6233635 0.22168441 0.10319331 -0.070871875 0.22024761 0.48184174 0.25831112 0.099153474 0.4227244 0.11617242 -0.13862592 0.07722443 -0.2338528 -0.14560519 0.1621401 -0.3289598 0.36383975 0.59890974 0.047477882 -0.09641794 -0.023588134 -0.39388147 0.11358273 -0.34215578 -0.09620226 0.15612537 -0.19781293 -0.64857125 -0.5624095 -0.15866815 -0.046227034 -0.1431214 -0.08605002 0.3731773 -0.32151482 0.1241997 0.2620091 0.31958342 0.0244028 0.3516879 -0.40076202 0.5036805 0.09484295 -0.21658547 0.23783234 0.18776728 0.09538309 -0.07385382 -0.38459155 -0.00013270967 0.14100985 0.074354246 0.016496964 0.40740958 -0.45451114 -0.26090756 0.12756328 0.26703367 0.324057 0.028053228 -0.10679025 -0.24025363 0.19671226 -0.08056019 -0.13436411 0.4209264 0.11341257 0.19073111 -0.34422007 -0.21458974 0.30053443 0.034933493 -0.0657684 0.13064386 0.019095363 -0.18829468 0.18848383 -0.18836199 0.19146262 -0.21847713 0.06799546 -0.36110443 0.2791734 -0.069764905 0.062989585 0.1705117 0.034771904 0.2163682
will -0.1723587 -0.09762348 0.22010174 -0.07221212 -0.06065397 -0.017761245 0.11535313 -0.08910348 -0.31794995 -0.048547857 -0.041225675 -0.20571254 0.31324202 0.25790855 -0.0058318824 -0.24497442 0.18188263 0.079193875 0.13180105 -0.07858126 0.4051548 -0.1103088 0.0029228288 0.081441425 -0.25980926 -0.01219052 0.01735129 -0.241628 0.14755046 0.5125467 -0.011216962 0.054976415 0.029993324 -0.20653218 0.088387586 -0.4060071 0.06600429 -0.0024387317 -0.16371754 -0.36734447 -0.006771994 -0.005301913 0.033863466 -0.036946196 -0.006489499 0.24747802 -0.060374632 0.077163495 0.26726267 0.11378596 -0.057679307 0.3191864 -0.528259 0.3850215 -0.13053487 -0.057130314 -0.2156336 0.19513299 0.10409619 0.043520518 -0.0503158 -0.13029388 -0.03990435 -0.07182092 -0.03978346 0.26019925 -0.022665353 -0.21511555 0.20402937 0.27047867 0.026051803 -0.024557242 -0.07873786 -0.19876836 -0.03061642 0.13151367 0.14062265 0.30198014 0.17810538 0.080212735 -0.060263466 -0.101454146 0.24261154 0.04707223 0.17233466 -0.06081558 0.02705723 -0.0613801 0.06887642 -0.044037912 0.042812467 0.05883876 0.08931483 -0.01930512 0.21333204 0.005087641 -0.1340321 0.2836807 0.103277035 0.29097807
make -0.3163609 -0.093622394 0.40049574 -0.13771756 0.08709055 -0.03679944 -0.032550666 -0.2302846 -0.27771452 -0.19590898 -0.36460322 -0.09388177 0.15132335 0.05216073 0.038753808 -0.26264292 0.35450396 0.15882741 0.15537044 -0.19169728 0.3058069 -0.08813912 -0.11598742 -0.034493994 -0.4931963 -0.10749408 0.053189848 -0.39161694 0.09294002 0.7361452 -0.13353568 -0.19300593 0.00059538044 -0.19393581 0.0162501 -0.40544102 0.028071305 0.09726471 -0.31717125 -0.54206383 0.12125169 0.23542283 0.07416378 -0.0639484 0.06909809 0.21682301 -0.07419358 0.14356208 0.17909615 0.045956604 -0.18729848 0.2024128 -0.47456717 0.30121124 -0.2275694 0.18062308 -0.17146342 0.081487834 0.02305584 -0.1197131 -0.09381169 -0.033395678 0.25324926 -0.061217505 -0.012347764 0.32705593 -0.049031246 -0.18163311 0.23422912 0.053523403 0.009322523 0.24106085 -0.15570888 -0.27400658 -0.026847966 0.07773473 0.114149936 0.14829563 0.105483085 0.04404322 -0.061370946 0.08146059 0.40544242 0.1363971 0.28135115 -0.025137553 0.2783469 -0.06655091 -0.2533537 -0.13243264 0.2651742 0.18929125 -0.023323413 -0.16792554 0.522926 -0.034347158 0.14190741 0.14848843 0.110795 0.32717237
good -0.1141425 -0.12675825 0.05715132 -0.06682238 -0.28835222 0.19494592 0.036930732 0.1579423 0.028223382 -0.37514287 -0.040379215 -0.05693013 0.5267576 0.30443108 0.022444008 -0.08356791 -0.26032075 0.16330002 0.26103523 -0.1751668 -0.0878433 0.14740494 -0.07668646 0.013594366 -0.2665167 -0.26033705 0.008149078 0.059910294 0.28937992 0.5877543 -0.0919704 0.07356199 -0.24526377 -0.391213 -0.0007575309 -0.15841314 0.2133754 -0.07699469 -0.20784447 -0.3566883 0.014300241 0.13623448 0.10018777 -0.113149084 -0.13751683 0.4670674 -0.3243246 0.0786992 0.077024125 0.18157822 -0.22044317 0.35100806 0.03390897 0.44759935 0.15530272 -0.27517167 -0.023442628 0.45329684 0.31427372 -0.21423632 0.30075023 0.5581286 0.027094588 -0.24869402 0.017088328 0.30210635 -0.4377775 -0.15016797 0.26782614 0.19127244 0.11572033 -0.031868976 -0.111602776 -0.19119588 0.23024972 0.09063394 -0.25511464 0.13020985 0.410645 0.0611621 -0.2331755 -0.3153057 0.5224835 -0.05925284 -0.0073465453 0.071194045 0.08253356 -0.11323878 -0.26190588 0.08787084 0.20978852 -0.13199028 0.26824442 -0.33710104 0.73870134 -0.091978095 0.400226 -0.05228208 -0.10654551 0.32987037
hey -0.1797699 -0.20527467 0.021886768 -0.591779 0.078295246 -0.022892 -0.37896463 -0.03085293 0.29517505 -0.28757048 -0.15575466 -0.08309745 -0.097187735 -0.07433632 -0.32645077 -0.054726932 -0.06299856 0.12591551 0.21436602 0.25361696 -0.17002085 -0.256464 -0.122528404 -0.027863616 -0.53712994 -0.48541564 0.1415786 -0.6349825 0.013090603 0.6915638 0.11100326 -0.11530624 -0.4404371 -0.67545575 0.07592492 -0.49054414 0.5519005 0.06960401 -0.44817233 -0.33492216 0.48827153 0.07503073 0.061229378 0.1320183 -0.09846504 0.4978227 -0.46238136 0.028240277 -0.09969402 0.047315422 0.00054693583 -0.078897245 -0.044036098 -0.1526979 0.08268984 0.13200465 -0.121911146 0.008391997 0.06864115 -0.037306827 0.5863155 0.40353674 -0.25262097 0.054012503 -0.2681517 0.2592463 0.04722586 -0.2523661 0.38512355 0.0057577505 0.26313764 0.0787708 -0.5573093 -0.42393136 -0.2263929 0.34850413 0.3497541 0.2485576 -0.012551513 0.06413356 -0.37966573 0.05051309 -0.14050914 0.09850273 0.46507925 0.23992862 0.1588949 -0.3204651 -0.66200507 -0.40777314 0.50648355 0.39194483 0.26584277 0.15033346 0.88284427 -0.06785423 -0.028047498 0.18480988 -0.066354506 0.55231637
tell -0.311124 -0.18231635 0.36539856 0.022752909 -0.04938309 0.03537595 0.07169942 -0.14738627 -0.35307205 -0.12241993 -0.21502113 -0.30740777 0.39018688 0.09051589 0.07696825 -0.18267402 0.37948042 0.2856149 0.22735278 -0.16234854 0.35078892 -0.02817088 -0.20216551 0.10863288 -0.32659012 -0.04287496 0.052962657 -0.325146 0.2135747 0.68375874 -0.12932678 -0.20407929 -0.021479625 -0.19669929 0.07611595 -0.37714127 -0.07254979 0.17654946 -0.1674255 -0.6848929 -0.21235399 0.13820693 -0.043020703 -0.0601285 0.006022567 0.1436426 -0.100966655 0.22277579 0.32390967 0.1910342 -0.08801563 0.1962323 -0.45601484 0.288318 -0.18767452 0.04762616 -0.016356189 0.034052867 0.022907127 -0.14009683 -0.22512345 -0.08599793 0.22445625 -0.04687087 0.030006826 0.33339533 -0.12343287 -0.22767769 0.2194595 0.13560762 0.1297103 0.16779119 -0.16450714 -0.24275227 0.111958645 0.017083697 -0.0068136123 0.35126993 0.13500427 0.05517219 -0.17704852 0.042828 0.35911217 0.0848079 0.091451734 0.054375887 0.17565621 -0.09209363 0.010913726 -0.113897264 0.28852767 0.07764237 0.057551686 -0.24518189 0.29526725 0.02284964 -0.0018548872 0.13461311 0.15279755 0.36685494
are 0.0061543975 -0.13491477 0.20576125 -0.17467797 0.018809374 -0.0164922 -0.010134018 0.062694065 -0.13560188 -0.07274784 -0.11190535 -0.12722762 0.12828201 0.24022506 0.02023761 -0.19776696 -0.0032547323 0.07793978 0.071832195 -0.14303209 0.24018414 -0.19804125 0.07429491 0.0285396 -0.25066596 -0.07614168 -0.027644075 -0.24282314 0.077327095 0.44108266 -0.022328218 0.045144603 -0.096054785 -0.1719229 -0.047759883 -0.29021743 0.05028228 0.061424505 -0.1740382 -0.28746387 0.13291076 0.036647175 0.032479066 0.07320318 -0.034655955 0.273896 0.03509528 0.10034334 0.110102534 -0.06938304 -0.19323541 0.14937377 -0.3821887 0.24906133 -0.08544681 0.029440343 -0.21495153 0.172265 0.14895011 0.13485207 0.20537898 -0.08883043 0.103262566 -0.076377586 -0.14898081 0.16099934 0.2152374 -0.083784536 0.16836406 0.35999346 0.008272183 0.01677371 -0.13294698 -0.1649263 -0.08155531 0.1796875 0.060952768 0.06436926 0.10383471 -0.010011886 -0.111664854 -0.11085899 0.22708572 0.060783587 0.13999118 0.030815687 0.08854897 -0.17694236 -0.119538754 -0.16846584 0.09768535 0.104827695 -0.024607953 -0.04026027 0.26089743 -0.1286428 0.057814635 0.08611205 0.13538058 0.22460313
back -0.15828063 -0.20269774 0.40640798 0.018872974 0.18484187 0.3144552 0.096275456 -0.0002545797 -0.12945515 -0.078020714 -0.23765281 -0.09613101 0.32164997 0.052259468 -0.020671368 -0.5514393 0.44061047 0.4868013 0.24048121 -0.0035395483 0.023512984 -0.29087576 -0.008970994 -0.084975444 -0.5018539 0.040536843 0.22267278 -0.24463893 0.06402685 0.6193307 -0.2199969 -0.100995496 -0.18454164 -0.31344202 0.0074278573 -0.038551454 0.12952116 -0.07186991 -0.04042826 -0.53104556 0.050163746 -0.10317599 -0.05846658 0.16732265 0.041234672 0.2528133 0.005771372 0.028420808 -0.067769416 0.24197005 -0.085432544 -0.2649484 -0.1435854 0.13127309 -0.42785788 -0.049866386 -0.1389024 0.08176171 0.12564442 0.18248846 0.15246646 -0.16567187 0.32842132 -0.5011234 -0.24699557 -0.111442536 0.1479209 0.008041532 -0.07506538 0.1092439 -0.18285885 0.31464717 -0.4052194 -0.45494962 0.22869678 0.34561315 -0.11051152 0.5384288 -0.16471587 0.06265624 -0.14020921 0.019223426 0.15562893 -0.0030215422 0.007017148 -0.041219626 0.05842917 -0.23937619 0.03715824 -0.28212526 0.23671028 0.07213451 -0.33516163 -0.124664746 0.3555597 0.06891071 0.019884473 -0.24132966 0.29210693 0.26798037
day 0.13212615 -0.17398219 -0.07377125 -0.24864441 -0.15381427 0.25111595 0.20159599 0.38622308 0.1945347 -0.03203243 0.3231841 -0.3196792 0.23726356 0.37151808 -0.01299542 -0.17355564 -0.22836748 0.29692587 0.20629697 -0.14998125 0.216824 -0.27157548 0.075596 0.15459742 -0.016000679 -0.078177616 0.0404349 -0.0010096467 0.26910114 0.21976586 0.0106764035 0.2873631 -0.18067259 -0.19066569 -0.22037268 -0.208631 0.15735182 0.023271687 -0.1505903 -0.18188255 -0.1197641 -0.24752207 -0.044690225 -0.042693272 0.0030792784 0.37090436 -0.20710704 0.008777709 0.124309905 -0.023467105 -0.15749048 0.18380776 -0.25882134 0.195338 0.19945985 -0.14011702 -0.23080015 0.2107893 0.3008086 0.2218691 0.19269578 0.07706428 -0.00011447368 -0.08299069 -0.08562448 0.16475362 0.089832 0.014330561 0.09092421 0.49479705 0.08235135 -0.06802208 -0.12218218 -0.15003935 -0.027890552 0.23611203 -0.011972985 0.21877857 0.22436804 0.00910754 -0.20445034 -0.30635568 0.003605686 0.1925879 0.084608324 0.14770941 -0.046459597 -0.320394 0.05565188 -0.15518498 0.29642698 0.0068140407 0.15903205 -0.024822464 0.15412939 -0.16718948 0.04599761 0.11790405 -0.07211604 0.26885673
too 0.07505587 -0.28018415 0.35079807 -0.10415215 -0.026030626 0.09404815 0.023087142 0.19459237 0.1938386 -0.14087859 -0.051270604 -0.41676942 0.6218347 0.48307243 0.15889926 -0.26479027 -0.24638428 0.1348119 0.007623545 -0.09692087 -0.04923074 -0.24162543 -0.061666574 -0.09234747 -0.29681617 -0.25642008 -0.17794463 -0.22164206 0.36121014 0.5114671 0.17499678 0.3182628 -0.16122594 -0.33883795 -0.1702299 -0.1478004 -0.24039024 -0.18825231 -0.28752437 -0.21586746 -0.11070521 -0.0006890209 0.2232224 0.18130817 -0.1575517 0.29714042 -0.3893175 0.086999334 0.14893994 -0.20483078 -0.26768774 0.22391221 -0.20270145 0.56564045 -0.04232778 -0.2945977 -0.09458249 0.22276126 0.071857706 0.12564443 0.24734373 0.2650993 -0.08180242 -0.13865478 -0.11881124 -0.14412238 -0.07840465 -0.06796846 0.413097 0.52949387 0.1762455 0.102345295 -0.16917126 -0.055763077 0.17256567 0.16048808 -0.29163283 0.11735912 0.37786952 -0.04600576 -0.15801306 -0.28393486 0.262454 -0.020409036 0.21183035 0.0074514374 -0.12442103 -0.1620134 -0.07201606 0.06593321 -0.13445647 -0.38284084 0.18703654 -0.027692348 0.15590215 -0.3401523 0.30036318 0.39526457 0.11778591 0.15286738
la 0.61475426 -0.8537143 -0.11560874 -0.7547018 -0.4547198 -0.37582445 0.23522317 0.46945044 -0.6762063 0.45223826 0.3169881 -0.085576124 -0.19884051 0.62220865 0.67578506 -0.06182215 -0.03656557 0.062614374 0.16259523 -0.19720554 0.7032475 -0.47218022 0.58689123 0.6489009 0.15463275 0.59353334 0.779288 -0.041421026 0.6005213 1.159164 0.25163648 0.035654653 -0.52289283 -0.436922 0.17406398 -0.41102558 -0.03276664 0.29467192 -0.11492172 -1.0187597 0.1381766 -0.056919616 -0.40658343 0.04745098 0.22901888 0.5436594 0.3455807 0.37100592 0.6863931 -0.09697669 0.12562682 0.6032109 -0.8647524 0.7635716 0.46361944 0.35382935 -0.680673 0.8712459 0.67394805 0.7481685 0.50613606 -0.26008683 -0.14750007 0.4471153 -0.040743556 0.4072646 0.34511605 -0.088037685 0.64889365 1.185185 0.22050159 -0.46335655 0.3571214 -0.4549871 -0.03034584 0.3019027 -0.30826002 -0.12477412 0.18863386 -0.10119222 -0.16487573 -0.36496365 0.14055853 0.34989092 0.00390939 0.63502425 0.6948832 -0.6552861 -0.62293965 -0.8983114 0.21285851 0.3455175 -0.38235253 0.23980446 0.20649454 -0.4515056 -0.1732106 0.007896272 0.52581155 0.2304174
there -0.09619425 -0.08987114 0.1158918 -0.19674306 -0.050866824 0.10344871 -0.037338108 0.13045084 0.023634076 -0.11991373 -0.035559043 -0.24068797 0.26893538 0.17739864 -0.06360884 -0.19676444 -0.03120021 0.21244098 0.13132103 -0.003121886 0.15132278 -0.20785142 0.064536564 -0.0010633081 -0.3180019 -0.15599781 0.021995781 -0.26735502 0.05160662 0.4648084 -0.007668846 0.13220745 -0.10583442 -0.33913678 -0.012910739 -0.3993914 0.24055453 0.09583621 -0.1575127 -0.23680137 0.1194015 -0.11927211 -0.0020385655 0.10057321 -0.039719924 0.29876432 -0.17919374 -0.016252114 0.0568271 0.1574774 -0.06014191 0.11369156 -0.23710726 0.12915193 0.021546397 -0.039325267 -0.18231393 0.22062041 0.101832174 0.08410441 0.17214458 0.16940226 -0.07183446 -0.018235052 -0.20411369 0.15551394 0.0065203747 -0.01984698 0.1886611 0.1704846 -0.0155139025 0.0030435054 -0.15489587 -0.13283817 0.007005118 0.1282639 0.06857239 0.25621027 0.13476491 0.013840784 -0.16272993 -0.21340387 0.11905212 0.06952838 0.2366641 0.08362399 -0.013855795 -0.06583441 -0.13404387 -0.14583772 0.20792662 0.09610786 0.119384356 -0.036900558 0.34289896 -0.08898346 0.00042795192 0.24830183 -0.029865878 0.22634737
not -0.07030201 -0.16352437 0.19842644 -0.090818234 0.017247032 -0.01245664 0.04400599 0.049935147 -0.18733396 -0.11607512 -0.14092621 -0.18732786 0.28293326 0.2744074 0.029588185 -0.17013374 -0.03165132 0.029039955 0.019529564 -0.20551342 0.26819935 -0.12408342 0.02519533 -0.045084804 -0.28082734 -0.08043843 -0.07430404 -0.28650278 0.11018005 0.5506455 -0.015573435 0.064374276 0.004671545 -0.20612824 -0.060234897 -0.3996105 -0.02520013 -0.011720088 -0.26841244 -0.30642316 0.064694695 0.12589343 0.062921554 0.029522097 -0.030818315 0.20873037 -0.062986925 0.15246777 0.19962053 -0.053620297 -0.24345317 0.2599558 -0.41395038 0.3332338 -0.05312525 0.04634223 -0.22141992 0.29341677 0.10685372 -0.005768516 0.13472648 0.0072180736 0.030272748 -0.06330048 -0.15222251 0.14872338 0.08012962 -0.110845946 0.3161831 0.3023397 0.014749631 0.026313623 -0.115918495 -0.10553853 -0.063448 0.086655326 0.05456344 0.05861573 0.28531894 -0.046046566 -0.10694298 -0.10772511 0.36090624 0.05053543 0.17215687 -0.025239935 0.098078825 -0.022359032 -0.09358995 -0.008789555 0.087855496 0.00542246 0.083742104 -0.09729921 0.2797856 -0.114766635 0.09574405 0.2597991 0.09363236 0.2718088
take -0.110415384 -0.14560893 0.3285531 0.012033357 -0.02547574 0.18441461 -0.032368235 0.14163184 -0.035070024 -0.12960626 -0.178416 -0.31992066 0.4854857 0.15831737 -0.0625102 -0.3093297 0.16044874 0.38306892 0.15317261 -0.016928151 0.13574657 -0.14633428 0.043134645 0.029038588 -0.39102536 -0.11909254 0.075151525 -0.21244721 0.14813855 0.55887586 -0.009951904 -0.016906355 -0.12470474 -0.23164871 0.040872544 -0.24018823 0.06608499 0.056675952 -0.057597045 -0.37865016 -0.08994346 -0.11511744 0.04668335 0.09607417 0.035190932 0.27444562 -0.104165606 -0.043477807 0.12507546 0.20581163 -0.06061584 -0.023444895 -0.15103507 0.3003095 -0.08071378 -0.056383017 -0.053429876 0.15944384 0.061545514 0.06654446 0.048484463 0.11321403 0.18522653 -0.057051156 -0.12653658 0.0014693458 -0.07213359 -0.019857012 0.15427078 0.05902589 0.02661679 0.13403077 -0.12608601 -0.15359348 0.22590081 0.11742553 -0.1860401 0.3414478 0.1238242 -0.022338534 -0.07629113 -0.18531631 0.22512843 0.11707544 0.14328301 0.086728066 0.0025723136 -0.13684924 -0.040660772 -0.20916073 0.2147183 -0.03771628 -0.0169134 -0.22172019 0.22971965 -0.05949344 0.14668973 0.06618897 0.02417947 0.18019395
man 0.0030946084 -0.13910288 0.07747263 -0.23492292 -0.08112028 0.23350222 -0.039019592 0.25987595 0.09690839 -0.116111964 0.04574398 -0.20580566 0.26146877 0.2374702 -0.04015447 -0.12699299 -0.24201418 0.13739689 0.09987944 -0.05244771 0.1536087 -0.18633986 0.009727898 0.068864144 -0.19712766 -0.13339025 0.028070107 -0.1592676 0.11030904 0.35304546 0.111434124 0.12329991 -0.17973691 -0.30752292 -0.16579576 -0.2626679 0.102084294 -0.017075788 -0.123694815 -0.24130224 -0.09808895 -0.105522804 -0.01150379 0.04707005 -0.057487138 0.33974168 -0.2223689 -0.06362246 0.055135667 -0.019306807 -0.12889628 0.0706737 -0.19721161 0.25368112 0.09971904 -0.018852677 -0.27460256 0.30815658 0.16386695 0.17440584 0.2650886 0.16191976 0.04842109 0.0021585387 -0.18249473 0.03794981 0.0983066 0.105224706 0.202143 0.23369718 0.07450768 -0.08679177 -0.12979287 -0.08388928 0.045292273 0.2518349 -0.058499422 0.020659156 0.27207002 -0.027569238 -0.21762057 -0.20207737 0.10945838 0.1880503 0.11918256 0.04560995 0.01349531 -0.062052194 -0.1279291 -0.13410239 0.22166137 0.066923134 0.016456408 -0.14420882 0.32321998 -0.16210039 0.05835838 -0.0049712 -0.031230072 0.24546143
they -0.15432894 -0.07575026 0.24024959 -0.12519947 -0.06943062 -0.097654335 0.296461 -0.04622294 -0.3384827 -0.031929508 0.056319095 -0.24113539 0.24604909 0.252913 -0.054115612 -0.31704596 0.27036923 0.07694957 0.24711592 -0.18977198 0.3924607 -0.13963819 -0.13506705 0.14614363 -0.17752457 -0.029272333 0.014667938 -0.19065468 0.3364768 0.49705425 -0.06131699 0.11472757 0.015928537 -0.17525671 -0.044376094 -0.43941116 0.026448319 -0.048945744 -0.34262067 -0.385809 0.11933905 0.10112433 0.046285335 -0.2175213 0.013649314 0.25361112 -0.23858908 0.17401358 0.12356282 0.0037210688 -0.06536819 0.40281332 -0.5564238 0.41503185 -0.19084796 -0.07927726 -0.115638785 0.14915039 0.055492237 -0.022563132 -0.07268902 -0.18279879 -0.1623524 -0.08678417 0.040439457 0.32898968 -0.08405464 -0.21062827 0.12529665 0.3309271 0.16051558 0.0030285164 -0.15635398 -0.24543479 -0.005141259 0.08382585 0.19161198 0.3021504 0.086596005 0.07148367 -0.057238817 -0.09215969 0.22580783 0.06690641 0.26089743 -0.02154335 0.005212168 -0.19138263 -0.014668621 0.013755618 0.054822486 -0.118706055 0.17512442 -0.0014843242 0.2026525 -0.020757416 -0.07674999 0.31256884 0.059686385 0.38912198
