3500 100
the -0.27332926 -0.0377734 0.4979292 -0.37077942 -0.10144445 -0.30648845 0.22870478 0.24569142 -0.24500576 -0.6287923 -0.096971326 -0.048805367 0.09163265 0.18974288 -0.29420727 -0.25448048 0.492375 0.25385216 0.30893996 -0.07598366 -0.056481313 -0.41974106 0.5045772 -0.35611734 0.21278024 -0.19109778 -0.22041954 0.18181531 -0.175923 -0.19532563 -0.062366128 0.41878676 0.20442244 0.2826761 -0.16301589 -0.35366163 0.35532144 -0.062642805 -0.09084055 -0.109420575 0.35365775 -0.1594677 -0.4984333 0.36424205 -0.063682795 0.5190507 -0.038784828 -0.6339797 -0.3101334 0.4090522 -0.3711415 -0.15551738 -0.7013286 0.048250105 -0.07039303 0.21382757 -0.4383794 -0.0286784 0.14265889 -0.19179426 0.1013835 0.018461712 0.35990438 -0.025012314 -0.22742817 -0.2293408 0.061722774 -0.33149076 0.15640345 0.084948905 -0.11726001 -0.32408407 -0.09165493 0.11049546 -0.23696172 0.35969102 0.22494893 0.009170277 -0.101811096 -0.2267199 0.33365062 -0.40876153 0.2406341 -0.07595249 0.17193903 -0.10156903 0.019691307 -0.10370952 -0.34521368 -0.06979448 0.19497678 -0.015285452 0.18349363 -0.3794221 0.266064 0.09762636 -0.11343477 -0.24839169 0.2114021 -0.15584673
you -0.25763506 0.13803503 0.32521784 -0.30064315 -0.278193 -0.0013826056 0.36671823 -0.18362576 -0.11896257 -0.032979604 -0.36157018 -0.3509352 0.5373128 0.53473955 0.04319256 -0.5702171 0.6024266 0.32405493 0.30649075 -0.37112102 0.09066063 0.13184111 0.004646372 -0.06498273 -0.50573045 0.28031027 0.23688157 -0.12292849 -0.08641744 0.59394884 0.18464836 0.033728182 0.0024013498 0.17642893 0.14024396 -0.3727095 0.059768975 -0.050785515 -0.1255601 -0.3638319 0.17388833 0.33440593 -0.17926154 0.14655624 0.07621609 0.2595091 -0.47026002 0.14944349 -0.32711628 0.15468562 -0.1987824 0.02998066 -0.35286552 0.53010994 -0.2692994 -0.18745396 -0.26293266 0.21679454 -0.11546733 -0.22847322 -0.11967684 -0.004483764 0.15713397 -0.057825953 -0.17010859 0.07397048 -0.4522551 -0.17465986 -0.18696935 0.21904732 0.17015164 -0.008430596 -0.38839242 0.0010320776 0.29556277 -0.11903473 0.32161972 0.047019724 0.21842752 -0.17314832 0.1669449 0.22183646 0.6145297 -0.051459078 0.5282772 0.101740114 0.22972363 -0.0069245594 -0.14341845 -0.08432858 -0.15266316 -0.019115487 0.2701174 -0.026912557 0.37630555 -0.08488885 0.23939821 0.21631484 0.02290856 0.05118018
i -0.34761474 -0.033329464 -0.24487522 -0.2916897 -0.307935 -0.299017 0.62919754 -0.24153991 -0.1504428 0.08537821 -0.3137198 -0.5408342 0.38686296 0.58685535 -0.33006617 -0.43176457 0.5399816 0.080968276 0.40447646 -0.37670606 0.40063736 -0.06717051 -0.11487776 0.045401007 -0.40412587 0.025571276 0.59752077 0.31736043 -0.1592024 0.4983065 0.2489822 -0.10661767 -0.025813373 0.10537721 0.19489384 -0.15929796 0.06217921 0.04881562 -0.38976642 -0.28875488 0.43340993 0.41829285 -0.25108182 -0.2413365 0.0662586 0.5860327 -0.6655076 -0.06861876 0.24298936 0.16284122 -0.004064042 0.21851966 -0.48675168 0.060713 -0.10088123 0.015598356 -0.5484025 0.18346865 -0.13403961 -0.3105494 -0.1462369 0.13878597 0.17191502 -0.20304625 0.14524922 0.12026736 -0.17483073 -0.011099476 0.0033569755 0.22208543 -0.09111041 0.30889004 -0.34371537 -0.035551887 0.25691795 0.18164335 0.08250199 0.24678448 0.2962446 0.16552098 0.18597177 0.12537237 0.40501544 -0.1130962 0.38797247 0.35909498 0.20000796 -0.025181532 -0.13819264 0.11048066 -0.0993226 -0.15793453 0.010466936 -0.07269202 0.29071614 -0.16675171 0.21321882 0.37041697 -0.1704498 0.29582202
to -0.16986872 0.04115661 0.35703868 -0.414585 0.13413419 0.15744339 0.3428788 -0.15156826 0.04507164 -0.0029733104 -0.233882 -0.35024124 0.40199506 0.122242466 -0.20747706 -0.39784598 0.553632 0.17387597 0.31806967 0.0137958 0.016679006 -0.18954092 0.42943066 -0.13646615 -0.75303644 0.2754693 0.47252208 -0.0372526 0.13288139 0.50714964 -0.009689645 0.161907 0.09819273 0.09338963 0.2427227 0.06745018 -0.117146134 -0.0979021 0.029419534 -0.44853568 -0.045489687 -0.09760341 -0.037692275 0.13702528 -0.020618586 0.38693896 -0.22260906 -0.3093275 -0.49360192 0.27448234 -0.15746735 0.09174134 -0.5593025 0.63607794 -0.29554102 -0.2129202 -0.29303885 0.5669664 -0.21994203 -0.01602703 0.023746833 0.2742587 -0.18113081 0.098131984 0.1242914 0.085930154 -0.04680522 -0.11438112 -0.29221213 0.159042 0.15892498 0.031413343 -0.014097051 -0.24373345 0.18713306 0.25599802 0.15179877 0.42719424 0.3496432 0.01005505 0.09567867 -0.113682635 0.39109895 0.3406464 0.28629005 0.27284575 0.007497219 0.051465645 0.026617272 0.079922244 -0.34830573 0.39270154 -0.1502988 -0.26238564 0.12300695 -0.113215804 -0.2411672 0.08234357 0.39244092 -0.0027749038
and -0.35526568 0.16314879 0.190967 -0.20059577 0.14455695 0.12536979 0.27213562 -0.048874218 -0.28800315 0.08089788 -0.2539976 -0.21453811 0.3114053 0.23403583 -0.0886259 -0.27411973 0.33310908 0.10501063 0.18656358 0.015687276 0.17447866 -0.031207066 0.020955758 -0.02441729 -0.23391204 0.05909681 -0.013052809 0.1714187 0.08034795 0.17670988 -0.0422038 0.1779184 0.095916785 -0.06752016 0.17269033 -0.34449375 0.17895386 -0.041555256 -0.17964292 -0.113130175 0.45128903 -0.07818709 -0.15655884 0.22130379 -0.013848411 0.27651706 -0.16508768 0.083379515 -0.24980508 0.29807207 -0.28594851 -0.1705328 -0.1806714 0.15473548 -0.16954927 -0.2080225 -0.23421498 0.0033219145 -0.019853104 -0.042347025 0.2548586 -0.09058349 0.1820782 -0.040422544 -0.12273992 0.101507224 0.018329496 0.08197813 0.2947964 -0.043188676 0.058809154 0.070199266 -0.32980862 -0.0520053 -0.13820714 0.21416979 0.0906091 0.0014615615 -0.06358983 -0.13506852 0.2330614 -0.13268149 0.3090186 0.08203228 -0.008357608 0.10010406 -0.008427406 -0.038037445 0.03078522 -0.14610057 -0.004615088 0.1574066 0.06710574 0.044852234 0.41225433 -0.22467446 -0.111319646 -0.17331563 -0.011068534 0.06679231
a 0.051258307 -0.06361893 0.07884365 -0.44480497 0.25778237 -0.0056190067 0.29970732 0.59349906 -0.025822468 -0.43977797 -0.2582843 -0.042376414 0.4598217 0.18235715 0.25704417 0.16941904 -0.08944808 -0.20387991 -0.04014533 -0.119357586 0.275413 -0.17772685 0.4784205 -0.10342691 -0.024905507 0.6424909 0.048802055 0.32018587 -0.16868138 0.5986067 -0.02945496 0.062423322 0.17359044 0.15507707 -0.11159017 -0.34533468 0.048655566 -0.26100615 -0.3831709 -0.018177425 0.12948444 -0.2463855 -0.071062945 0.8658192 -0.43559885 0.27145776 -0.11841149 -0.1949641 -0.1539598 0.07610571 -0.44009426 0.32355827 -0.76096594 0.4967431 0.292418 0.2558689 -0.63138825 0.30064675 -0.14599434 0.2184947 -0.10580089 0.0051840213 0.3008679 0.16104499 0.0054070046 -0.22371998 -0.049806014 -0.25268382 0.07068123 -0.176819 0.12032854 -0.31737617 0.07778932 -0.3317841 0.011846839 0.13024421 0.012955655 -0.13406737 0.24583443 -0.15532523 -0.18786983 0.15121529 0.24104275 -0.20460972 0.09386393 -0.14752895 0.113018386 0.30076873 -0.009901157 -0.0172367 -0.020068197 -0.5792249 0.31256494 -0.112237334 0.23814039 -0.31379163 -0.050269574 -0.41295564 -0.22726065 -0.09445507
me -0.06171349 0.60952413 0.031446844 0.03754244 -0.03686636 -0.008474944 0.4917279 -0.40917996 -0.38173288 -0.019264666 -0.052960735 0.07698803 0.2575591 0.19256711 0.4185768 -0.40130866 0.60845125 0.33478975 -0.050446846 -0.01498988 -0.36596423 -0.03356653 -0.36810806 -0.32127655 -0.62695616 0.35464564 0.31405708 -0.11601631 0.10201095 0.7681946 -0.0862968 0.043134023 0.10516097 0.28468826 -0.11122745 -0.18401262 0.35944632 0.012920126 -0.035595395 -0.5533155 0.24812503 -0.13726433 -0.03728115 0.59528536 -0.19741902 0.3246477 -0.35079515 0.3282244 -0.3864952 0.33442453 -0.35888544 0.050226957 -0.17429766 0.5475107 -0.6643205 -0.13055255 -0.34118617 0.18662214 -0.1632619 -0.25607562 0.06666681 0.06640558 0.3890679 -0.28654906 -0.068301156 0.43406415 -0.36033773 -0.34095266 -0.27675587 0.044085864 0.0616125 -0.1777445 -0.24766175 -0.16429132 0.043854866 0.0226208 0.42131078 0.35679835 0.23578177 0.005768812 0.23902686 0.104783386 0.321224 -0.17342809 0.16053799 -0.032482393 0.1775121 0.0024100798 -0.4014396 0.04877236 -0.061179258 0.19957092 0.38303414 -0.20553154 0.69037133 0.18314306 -0.12984309 0.0038776947 -0.062427323 -0.008868948
love -0.47084513 0.015149907 -0.15623063 -0.10530688 -0.15159194 0.33293355 0.2465781 -0.12086451 0.12915203 -0.3440471 0.16609024 -0.22040921 0.31703934 0.42493832 0.1690062 -0.17728071 0.6526006 0.13138764 0.46746987 0.08681317 0.29241782 0.113966644 -0.14176542 0.022495048 -0.2877303 -0.052106664 0.003238813 0.1950305 -0.093998775 0.74460405 0.18167025 0.10712715 0.3221296 -0.3199218 0.05216551 -0.23548628 -0.016632894 -0.11491257 -0.16472055 -0.24569198 0.023293756 -0.251329 -0.2589243 0.09860831 -0.35151628 0.42950886 -0.49920255 0.17612518 -0.30169973 0.31885087 -0.011541787 -0.073569655 -0.62933826 0.33338344 -0.102296986 -0.102625616 0.109836325 -0.031144751 -0.0556823 -0.23036917 -0.4421687 -0.11671555 0.4825236 0.02200858 -0.05239039 0.4896881 -0.15718427 -0.3045704 0.109226696 0.2037496 0.2050186 0.26294458 -0.47458223 -0.17724504 0.25048146 0.2685746 0.16647932 0.34030187 0.26093462 -0.18764308 0.07268023 0.23191597 0.4547963 -0.075863004 0.09394515 -0.26129186 0.069221124 0.2856823 -0.21213163 0.025179442 0.10981609 0.037824135 -0.013186722 -0.36420706 0.6929923 0.08881733 0.087343454 -0.0766979 -0.086520374 0.16847454
my -0.35709772 -0.24607722 0.31534758 -0.16730605 0.045529295 -0.12482478 0.13070758 0.015202021 -0.3595494 0.0028485362 -0.21446313 0.04299346 0.32782573 0.5572176 0.09886119 -0.29367912 0.12647164 0.4342818 0.28903738 0.2245059 0.49279493 0.25148717 -0.029460438 -0.12882188 0.17473896 0.35065234 -0.11973877 0.2259099 0.0031686274 0.28640205 0.11108865 0.25714424 -0.057869267 0.3801883 0.13972469 -0.27895284 -0.22289596 -0.13185073 0.079030745 -0.31858253 0.20640332 0.0061354265 -0.32497686 0.5165275 -0.3646442 0.15012877 -0.336917 0.02063437 -0.07602919 0.6358819 -0.2462534 0.117261425 -0.507332 -0.23099646 -0.2376282 -0.27566957 -0.7018505 0.035898767 0.12775567 -0.18440352 -0.58338696 -0.14112525 0.5999869 -0.33423603 -0.041016806 -0.16740195 -0.41439822 -0.06815889 0.49812958 -0.19895686 -0.19631428 -0.40902108 -0.48501965 -0.037176184 -0.045125823 0.31815413 -0.081703894 -0.09698339 -0.32566923 0.10942222 0.36178294 -0.20471685 0.27814427 -0.0060721417 0.20199625 -0.08648652 0.30105865 0.3007687 0.18154697 -0.329656 -0.10972906 -0.11128114 -0.13340466 0.08502819 0.7523901 0.3220833 0.105490774 0.057231598 0.48809355 0.1958513
it -0.41320634 0.17173176 0.11030595 -0.20693076 0.21002875 0.0031924099 0.8330209 -0.005972755 -0.14694242 -0.006105453 -0.12229686 -0.06457853 0.23035924 0.15507823 -0.0509851 -0.30955052 0.8095009 0.5829936 0.3134894 -0.23352844 0.0013143179 0.103140324 0.11894968 0.23712201 -0.27477235 0.16386692 0.32596508 0.05141538 0.26163703 0.57311547 -0.041225225 0.12603934 0.14611858 -0.113723226 0.04593791 -0.41681063 0.107642636 -0.3917982 -0.24773431 -0.36959246 0.4446948 0.08666158 0.020904941 -0.045589376 0.15572302 0.46359554 -0.4018305 0.18533617 -0.28222638 0.58459157 -0.04993004 0.6185703 -0.54575425 0.37000087 -0.27822864 -0.34045947 0.06458249 0.22729068 -0.033354025 0.039077986 -0.14678736 -0.124919936 0.45815647 -0.086544 -0.18034719 0.34917915 -0.46707457 0.085836336 -0.38565168 -0.22466274 -0.10180371 0.093188606 -0.14588128 -0.46143594 0.6507226 -0.22225223 0.35360286 -0.0877221 0.26863372 -0.29173353 0.450116 -0.14755337 0.37820178 -0.088925995 0.2760485 0.20042665 0.38310713 -0.15966026 -0.27920946 0.35624754 -0.046546265 0.029176788 -0.31446227 -0.21935815 0.34005165 -0.0035077962 -0.19874074 -0.10139249 -0.305556 0.06864471
in -0.3823925 -0.059182473 0.22568214 -0.48590538 0.009167534 0.13646175 -0.009764694 -0.080862485 -0.46511388 0.058877565 -0.25123727 -0.39969814 0.09513903 0.18736547 -0.017539095 -0.20199409 0.14710936 0.09269317 0.4212603 -0.11424963 0.78664225 -0.27636048 -0.017306559 -0.30908102 -0.1962954 0.046823293 0.09174541 0.30913904 -0.119765386 0.1767511 0.07717327 -0.091041036 0.030712252 0.05333079 0.2589322 -0.03925103 -0.07841345 0.24957117 -0.20465189 0.060786795 0.017575277 0.026271204 -0.46638414 0.18124323 -0.43561155 0.46101108 0.08823062 -0.3749551 -0.32424834 0.18844888 -0.2679338 -0.22932096 -0.42975572 0.17880091 -0.13252488 0.20517425 -0.22618861 0.36946198 0.017455721 -0.21627392 0.02672716 -0.36999446 0.24659145 -0.11911811 -0.081297025 -0.20471781 0.31302956 -0.25679287 0.38859996 0.120962426 -0.24401936 0.2699026 -0.4097188 -0.2648192 -0.24530488 0.4891551 -0.2872029 0.53461355 0.044006865 -0.009789681 -0.34284094 -0.3690604 0.021787649 0.29559323 -0.39310876 -0.01715193 0.1267306 0.49192247 -0.13247629 0.005491713 -0.35063767 -0.11714452 0.050027244 -0.36501044 0.21815169 -0.04388128 -0.2653067 -0.03351357 0.1360844 -0.09230123
on -0.15462172 -0.19679552 -0.006308052 -0.7415089 0.008644653 0.460498 0.645765 -0.17364077 -0.1870809 0.02071888 -0.3618927 -0.13679825 -0.03623506 -0.21971384 -0.00853067 -0.6344248 0.36356837 0.28043157 0.14689158 -0.14204057 0.24035032 -0.43870574 -0.020564103 -0.09989527 -0.32127634 0.13424328 0.12990426 0.3466543 0.18529813 0.18380189 -0.31187508 0.1538273 -0.171475 -0.36623633 -0.14806771 -0.032416973 -0.09910305 -0.04204699 0.06805885 0.21635425 -0.15089701 -0.23702349 -0.4818245 0.46748868 -0.26167956 0.38987392 0.22692914 0.08141425 -0.46528673 0.6367285 0.0046069464 -0.3815611 -0.39180726 0.3839807 -0.19785817 -0.12338623 -0.005122226 0.14486706 0.2558014 -0.041533682 0.13528396 -0.19871481 0.22140908 -0.20015842 -0.33254725 -0.17265399 -0.10740646 0.28948745 0.2818931 -0.32391515 0.05215709 0.1638817 -0.3724359 -0.6660796 0.12726255 0.25402316 -0.044179477 0.15196276 -0.16007753 0.07453904 -0.0073501905 -0.03555315 0.37051782 0.1619717 0.23015347 0.27068484 0.24872883 -0.06058322 -0.02084712 -0.1274555 0.15930434 -0.1956939 -0.19372375 0.10375923 0.5913684 -0.26979718 -0.050567485 -0.6389759 -0.013184502 -0.0752686
of -0.4551105 -0.02279024 0.2101487 -0.34883326 -0.2947338 0.12784366 0.11259636 0.024271345 -0.29560235 -0.17402892 -0.21326676 -0.42382103 0.419948 0.61881745 -0.11197348 -0.18525143 -0.10405134 0.308209 0.795879 0.0418182 0.5319167 0.080881685 0.30653268 -0.09404198 0.12066288 0.006295835 -0.007192417 0.2588894 0.15787296 -0.069967635 -0.046049155 0.22062604 -0.12259964 0.118202 0.3528817 -0.1634062 -0.06761356 0.046324335 0.16071758 0.07582574 -0.08003411 -0.06366836 -0.3357016 0.22402054 -0.4424031 0.4398174 -0.054099627 -0.11672405 -0.094614096 0.3625447 -0.20206444 -0.1363905 -0.5891278 0.25705954 -0.13461767 -0.15317756 -0.20636208 0.13929032 0.09582869 -0.08824612 -0.115104266 -0.12945266 0.12699884 -0.14253 -0.11435609 -0.7009019 0.12958126 0.063577205 0.4897908 0.056616068 0.14276761 -0.096500866 -0.37137273 -0.012289146 -0.14685708 0.6555675 -0.64932096 0.06453929 0.009076136 0.07302953 -0.022084257 -0.14253585 0.019957686 0.29478994 -0.41065264 0.053591013 0.07978519 0.25114265 0.2151538 -0.4914964 -0.16349585 -0.063416846 0.16658752 -0.28084773 0.023573613 -0.22117743 -0.041833885 -0.33035788 -0.10018857 -0.11681916
your -0.2863717 -0.20004262 0.3106744 -0.1795608 0.059454996 -0.21927443 0.29974434 0.058696967 -0.5527928 -0.0042732116 -0.014749127 -0.048463657 0.2975464 0.054203007 0.25780013 -0.16523832 0.45663095 0.3526573 0.027288634 0.079996735 0.48006812 0.020795314 -0.10274883 -0.38007772 0.0077585634 0.33565903 -0.015793996 0.105138674 -0.05836247 0.38148463 0.15637788 -0.09724769 0.11752115 0.26537493 0.13651863 -0.26230305 -0.01841636 -0.0908877 -0.117447555 -0.46052265 0.49411777 0.052483533 -0.36609387 0.73155206 -0.44148165 0.13707946 -0.31293756 0.13695739 -0.40344572 0.4999206 -0.40153986 0.11435394 -0.7061191 0.16668104 -0.4324159 -0.10811297 -0.38070711 0.35949934 0.106982015 -0.039333303 -0.6240468 -0.3416967 0.4666252 -0.16631342 0.07756047 -0.32983652 -0.28824836 -0.20166506 0.3302118 -0.29970443 -0.39504206 -0.19699703 -0.39808208 -0.27668595 0.050873786 0.40429348 0.19487104 -0.026940033 -0.081410944 0.1389587 0.05831102 -0.25729108 0.31852746 -0.39825413 0.049936064 0.10696245 0.5109505 0.34762973 0.05113122 0.1071332 -0.19368896 -0.12839529 0.028616035 0.07338179 0.49488157 0.36106303 -0.16899271 0.10726656 0.44039983 0.10844756
that -0.42850402 -0.0130781755 0.058064338 -0.20936848 -0.11008194 -0.112181835 0.40065292 -0.14787856 -0.15995201 -0.2135729 -0.2816152 -0.21029557 0.39633432 0.41530478 -0.026701184 -0.2045202 0.19787633 0.27932277 0.31351075 -0.13289437 0.17657322 -0.0881151 0.25717515 0.017811822 -0.12322352 0.047326934 0.30567956 0.19597422 0.20486693 0.2512466 0.35984775 0.18308306 0.11498935 0.055328954 0.04465411 -0.37244144 0.32189885 0.03609778 -0.341307 -0.3451117 0.36645067 0.14817081 -0.1676162 0.28050756 0.17092872 0.41161126 -0.17615893 0.11079476 -0.04921 0.21328038 -0.032564707 0.18253334 -0.5874586 0.5121318 -0.27088463 -0.04461831 -0.25914904 0.2138826 0.18124521 -0.03926336 0.29682192 0.19483545 0.19801545 -0.009034513 0.082038805 0.009128867 -0.094284005 -0.27773833 -0.00127499 0.12750307 0.012263513 -0.21336024 -0.22947417 0.09216737 0.06556574 0.19067232 -0.067066744 0.06769469 0.28972155 0.12339814 0.27308753 0.13055307 0.36250556 0.041598 -0.13481043 0.2447764 0.087249994 0.036897723 0.22633812 0.1086197 -0.008757692 -0.3189474 0.036860116 -0.026370633 0.2470019 -0.17008899 0.024111776 -0.0018255081 -0.09941736 0.0023095238
all -0.5723533 0.05433337 0.4724632 -0.20208798 0.24238376 0.121294945 0.16655256 0.060344502 -0.222246 -0.22676164 -0.32558224 -0.4385861 0.42407897 0.17675392 0.020646047 -0.39624193 0.2794997 0.2586088 0.6599601 0.13324815 0.22940342 -0.33718678 -0.16371018 -0.03057108 -0.36474603 -0.16931479 0.12554465 -0.13313605 -0.013860792 0.3553641 0.025390103 0.39574724 -0.1825132 0.18760593 -0.15751912 -0.52258325 0.35913867 0.1753591 -0.17526376 -0.21826082 0.49460322 -0.15648931 -0.10371051 0.036810894 0.0038850056 0.63163084 -0.42052862 -0.51968735 -0.10874653 0.26183796 -0.5468986 0.10711086 -0.63553166 0.14534485 -0.35422912 -0.13912863 0.056984734 -0.026233884 -0.051405925 -0.2827881 0.43718553 -0.28868163 0.27145338 -0.091548145 -0.24043733 0.23323393 0.12684403 -0.1538928 -0.19899477 -0.06628606 -0.061713967 -0.041046236 -0.4023673 0.10914505 -0.28598478 -0.15370497 0.0024973045 0.2621335 -0.20834684 0.14527422 0.26114526 -0.016856924 0.17117982 0.17380182 0.26907212 -0.13907583 -0.06772467 0.26324725 0.054415934 -0.07805037 -0.2807296 0.0215675 0.17136067 -0.21378356 0.25705475 -0.02574167 0.20249447 -0.07248608 -0.37457037 -0.27284768
be -0.1533264 0.22954227 0.37067062 -0.2541494 -0.05040168 0.032918632 0.01747224 0.20494121 -0.35254738 -0.21525633 -0.34685177 -0.18245107 0.4328946 0.10813421 0.054004125 -0.10342735 0.36092547 0.5448962 0.43573323 -0.0014523757 0.6152713 -0.08477822 -0.16972086 0.17460027 -0.57578254 -0.018373005 -0.17827973 0.27378595 -0.08716078 0.8516737 0.023220662 -0.18526188 0.06652683 0.011238543 0.2968005 -0.5070912 -0.0636146 -0.02628656 -0.26716295 -0.091883205 0.32424924 -0.14789097 0.056385264 0.016124543 0.116218664 0.43194756 0.017126486 -0.4036978 -0.10892989 -0.7413794 -0.24761851 0.1709748 0.01458338 0.68019557 -0.09268941 0.110722035 -0.4644544 -0.034134995 -0.6012316 -0.6354807 0.14988457 -0.20898585 0.4445019 0.11830241 -0.0011747621 0.17456372 -0.057704676 -0.14844766 0.33550805 0.5301987 -0.038417615 -0.10078287 0.075734355 -0.37373036 0.2909879 -0.18982117 -0.48715588 0.32731602 0.040183924 0.13866845 0.3353829 0.06607539 0.5943602 0.29296017 0.6996415 0.11287882 -0.4342733 0.20727287 -0.2207402 -0.19582164 0.043826703 0.28671417 -0.009470284 -0.33569872 0.06734008 0.17720003 0.015569967 0.5116456 -0.5651428 -0.105524555
im -0.14198372 0.30440682 0.4618596 -0.35910198 0.043255482 0.38321608 -0.1461471 -0.23089458 0.071251035 -0.118441954 -0.25630215 0.11246243 -0.03365306 0.40405968 -0.40522444 -0.19881253 0.11486029 0.094142176 -0.2586694 -0.09737453 0.40813154 -0.0947731 -0.50798005 -0.2932631 -0.47777534 -0.106145866 0.05897577 0.012434747 -0.30623773 0.5156759 0.35966185 -0.08257229 -0.24335852 -0.28662968 0.1901298 -0.04724082 -0.26300836 0.06812424 -0.23024519 0.102452904 0.065885544 0.22489439 -0.53962773 0.021088079 -0.40655676 0.5398075 -0.23321429 0.23617342 0.07964671 0.014598137 -0.20622241 0.2248415 -0.45453644 0.3648512 -0.048957802 -0.27971938 -0.24824557 0.06391126 0.2545951 -0.38099638 -0.40786898 0.04103304 0.6724687 0.2179383 -0.06821367 -0.07821669 -0.09951408 -0.13763127 0.21663791 0.3959525 0.1521299 0.35593224 0.124781676 -0.3346734 0.5120228 0.20941675 0.18041708 0.1598534 -0.095648766 0.10698083 -0.12882014 -0.3775621 0.62573147 -0.034778517 -0.27046764 -0.08054993 -0.03413394 -0.21992777 -0.7672235 -0.22181559 0.05276423 -0.033232734 0.35643226 -0.4780227 0.7409936 -0.07064564 0.27595437 0.39537036 -0.19110952 -0.25877616
we -0.256542 0.31760034 0.16037534 -0.34367174 -0.42448056 -0.16065893 0.59621245 -0.062495872 -0.31138206 -0.06629689 -0.26987183 -0.5802264 0.5008722 0.52008617 -0.3323483 -0.4288929 0.7550618 0.14446759 0.50564456 -0.35319945 0.1354972 -0.078188814 0.3697103 0.34934402 -0.11553498 -0.024009246 0.23222284 0.10641932 0.10944237 0.36302355 -0.36690745 0.24248953 -0.10284499 -0.107575715 0.088644646 -0.7423339 -0.15496567 -0.46024653 0.10903134 -0.13116373 0.51195717 0.40627116 -0.29573232 -0.4645182 0.34200615 0.6940192 -0.38082954 -0.21996132 0.07407525 0.040304575 -0.49176946 0.30504784 -0.45902282 0.5441931 -0.31625307 0.3501734 -0.09966979 0.3304557 -0.24994813 -0.15830211 -0.024853216 -0.5279209 0.055863358 -0.059643373 -0.09802807 -0.20595089 -0.37974772 -0.018766154 -0.13654163 0.3800805 0.17390397 0.26855132 -0.37009242 -0.34050003 0.37867934 -0.018116446 -0.22954561 -0.042462513 0.020100528 -0.07963172 0.42606062 0.3806567 0.551998 -0.04651681 0.9111029 0.2085292 0.26324776 -0.036661755 -0.16646524 0.22291896 -0.19157617 -0.08648576 -0.075457215 0.06789804 -0.05837897 0.13173896 0.09868648 0.2670665 -0.13459678 0.07509674
for -0.41721597 -0.011422619 0.31130245 -0.38139462 -0.01775157 0.041237827 0.007715198 -0.023749148 -0.16370985 -0.1174343 -0.32421136 -0.50712496 0.33061302 0.45155188 0.076053 -0.1874897 0.09413713 0.31576067 0.2999963 -0.15269637 0.2900338 -0.1114821 0.26273254 -0.23192191 -0.30135685 0.14096126 0.0074463873 0.29023027 0.24406227 0.31639323 -0.0017740917 0.17587148 0.07684506 -0.09232138 0.20245796 -0.12794942 -0.1653272 0.13449946 -0.029112611 -0.115748435 -0.18450433 -0.19414161 -0.124905564 0.2564943 -0.17109992 0.6074692 0.006241001 -0.15660127 -0.20441332 0.234515 -0.13653629 0.13166802 -0.21966699 0.44377154 -0.025857145 -0.09142105 0.009244904 -0.093970634 -0.07631008 0.05998616 0.04618808 0.0059836176 0.0019647996 0.03585593 -0.02738187 0.005396296 0.14434949 0.1397565 0.32258463 0.17270339 0.14474131 -0.088044815 -0.18394327 0.02514758 -0.026358752 0.20755461 -0.24735078 0.15801752 0.106212296 -0.04218315 0.23195994 -0.07476054 0.39766464 0.2599547 -0.05662168 -0.192316 -0.236201 0.15989256 0.09002288 -0.14374281 -0.09254011 0.062416308 0.06306627 -0.38278556 0.31310025 -0.30920246 0.041068878 -0.16378614 -0.234265 -0.15668595
dont -0.38606915 0.4240339 0.5134679 -0.14964375 -0.07875409 0.21086739 0.29328874 -0.5018129 -0.46616954 0.2267487 -0.46103483 -0.19644731 0.025009288 0.20016047 -0.27630204 -0.46808437 0.5577748 0.40347484 -0.029385421 -0.026186848 0.24681565 -0.25045547 0.029953418 -0.23978539 -0.35787567 -0.20937918 0.5428043 0.068321325 0.067432374 0.5125937 0.080095954 -0.13871409 -0.02964808 0.18363997 0.17369702 -0.08376765 -0.052923415 0.26127368 -0.21299063 -0.5895629 0.40733087 0.05002481 -0.34452507 0.19112876 0.1588512 0.49379933 -0.2297465 -0.12910475 0.07558402 0.022494918 -0.087181486 -0.15461141 -0.52489454 0.29529253 -0.46559557 -0.17882042 -0.3749301 0.29180565 -0.16133304 -0.25370437 -0.21325625 0.24969809 0.24397023 0.3066272 0.17019297 0.54289174 -0.12229245 -0.15263312 0.08727367 0.028668605 0.08815368 0.2608175 0.2759966 -0.17482495 0.032591086 -0.007458127 0.5130249 0.18320316 0.17552969 -0.10617488 0.34515417 -0.13177292 0.3310195 -0.065898195 0.20105852 0.39242926 0.17430678 0.08498784 -0.11325489 -0.09459367 -0.35100216 0.1732566 0.23760879 -0.08044428 0.68210864 -0.22352701 0.15961188 0.014915339 0.20256037 0.1902038
got -0.4792892 -0.1643369 0.40836018 -0.48817444 0.3496317 0.5737638 -0.20650278 -0.2943263 0.11228662 -0.3286897 -0.00012288433 -0.13314226 0.17790113 -0.18080616 0.16572441 -0.08093001 0.14126754 0.47075546 0.43367738 0.19278075 0.3001897 -0.25852415 0.50037616 0.09471571 0.13131675 0.21018974 0.47106394 0.10708063 0.3825241 0.4813316 0.21987098 0.341328 -0.37354696 -0.30803105 -0.25627673 -0.274484 0.10089363 0.24604538 0.16348015 -0.35391405 -0.028449718 -0.14979891 -0.112874754 0.6262977 -0.017738638 0.51966774 -0.31377622 0.09116223 -0.20598398 0.35912016 -0.09689085 0.1104856 -0.7301767 0.8765726 -0.043198865 0.044352327 -0.10519812 -0.28631023 -0.03993876 0.4716417 0.09436045 0.3810136 0.10862645 0.033614244 0.040413532 0.023845077 -0.44319472 -0.35186765 0.100787304 -0.027526246 -0.10561491 -0.13320854 0.02979911 -0.31934142 0.15620929 0.5621384 -0.38749894 0.31279418 -0.16642916 0.11908565 0.2495559 0.44264686 0.37830442 0.22796263 0.10441097 0.42524052 -0.36033022 0.050963808 -0.13416323 -0.2749766 0.009397224 -0.19156836 -0.30772957 0.082292095 0.6367218 0.13659434 0.055329245 -0.538086 -0.18904221 -0.070137404
oh -0.35755035 0.15012425 0.09079062 -0.49288902 0.16501164 0.34823084 0.27284497 -0.06192482 -0.23792969 0.26477098 0.11372588 -0.14893083 0.16674896 0.3605835 -0.04567938 -0.088697754 0.2330713 -0.08711242 0.5867233 -0.15634324 0.40855297 -0.0078104245 -0.15854071 0.5687915 0.10604255 0.5170017 0.22889923 0.3789379 0.24956942 0.64048773 0.11580657 0.37697637 -0.23383588 -0.027032772 0.01170931 -0.031688053 -0.28562543 0.25348473 0.116985776 -0.08693496 -0.22234397 -0.0008815819 -0.28719229 -0.11682575 -0.40994146 0.32031068 -0.48224688 -0.14569159 0.06518889 0.2650378 0.23993427 0.076396294 -0.70055455 0.24210854 -0.072060585 -0.2879065 -0.5161733 -0.45812815 0.008183742 0.031260483 -0.42541862 0.06271103 0.19421709 -0.15648429 -0.48389843 0.6042831 -0.4874507 0.112618804 0.26283967 0.4224286 0.08812829 0.15626124 0.1496593 0.1219586 0.2120076 -0.06848579 -0.033661023 0.10861056 -0.14355762 -0.011349465 0.38409474 0.11225386 0.16415332 0.4877227 0.3257772 -0.11153513 -0.13395514 0.044977386 -0.33700234 -0.57383454 -0.04891751 -0.030115753 -0.15176877 0.06385486 0.5474719 0.18412565 0.072274916 0.036988635 -0.33381405 0.36236468
is -0.49439004 0.14133681 0.6930313 -0.4822923 0.13052633 0.002279588 -0.14678906 -0.24228671 -0.07317787 -0.1866507 -0.2376535 -0.17540437 0.31146207 0.5016014 -0.2965947 -0.28155613 0.35591215 0.30912146 0.47953632 0.1017562 0.5594406 0.18874128 0.044966962 -0.4650944 -0.2695398 0.08084754 -0.06628755 0.10629741 -0.0072768107 0.27972957 0.14513324 0.08471872 -0.20295192 -0.06002078 0.33583787 -0.22736695 -0.053992193 0.35647032 -0.26487577 0.01003929 -0.089680456 -0.31921166 -0.25587115 0.15505047 -0.39629337 1.0058372 -0.4400443 -0.37964794 -0.043694064 0.031202791 -0.1649433 0.3453169 0.03373152 0.25604433 0.2725629 0.049259644 -0.04759518 -0.19971395 -0.08958398 -0.34463587 -0.24593535 -0.057024762 0.06798446 0.19745383 -0.003941095 0.10319289 0.0017864377 -0.061732087 0.41985336 0.33129165 0.18150973 -0.050698217 -0.19483471 -0.30190697 -0.087048225 0.27769166 0.09916544 0.07040133 -0.29310176 0.13889667 0.18376905 -0.344374 0.501574 0.009409144 0.14892958 -0.14131552 -0.1248322 0.38826773 -0.19238421 -0.41962707 -0.20823191 -0.06603755 0.15427205 -0.38932353 0.18962063 -0.053687353 0.048998423 -0.1335454 -0.2915431 -0.1552835
baby -0.168547 0.31260678 0.13939239 -0.37941474 0.060714122 0.21590538 0.47257245 -0.1577225 -0.11493676 0.044010147 -0.17771345 0.27136564 0.10871609 -0.09712273 0.22563091 -0.114435025 0.49979162 0.1818464 0.24883798 -0.051582072 0.37334546 -7.809039e-05 -0.28850845 -0.022774749 -0.40381923 0.38226345 0.4028199 0.13709526 0.06412406 1.031699 0.27905035 0.121987596 -0.08001336 0.23987365 0.042817432 0.06801959 0.14793062 0.33381197 -0.16186337 -0.15598868 0.08124543 -0.087531835 -0.26495734 0.29196408 -0.53538257 0.17856449 -0.51866287 0.21787705 -0.31812048 0.2682202 0.09278514 -0.19694018 -0.93115914 0.063173115 -0.15966937 -0.30537018 0.10045508 -0.14801314 0.13034545 -0.20309944 -0.4545905 -0.13476606 0.40111908 -0.075027056 -0.48798937 0.48833764 -0.3723233 -0.08726188 -0.09097808 -0.029183138 0.04453656 0.021590814 -0.20667034 -0.29488426 0.45505488 -0.15074527 0.2594757 -0.1367053 -0.117292956 0.113335386 0.016255025 -0.029054178 0.4377193 -0.16854948 0.07581337 0.15600619 0.34210518 0.13979512 -0.30468836 -0.30845982 -0.15058091 -0.07867641 0.042452708 -0.20613353 0.9646044 -0.021563342 0.2794473 -0.28997275 -0.16300169 0.10346367
get -0.28142875 -0.28485796 0.4819772 -0.0678054 -0.16711985 0.48649687 0.33568028 -0.30919766 -0.051028393 0.02460429 -0.7051322 -0.13191958 0.39289582 -0.10336303 -0.18481617 -0.3241188 0.7641158 0.39021108 0.48595086 0.25176868 0.048589025 -0.40062076 0.017292662 0.4015903 -0.41011772 -0.13784273 0.51590914 -0.104225 -0.13165316 0.71206236 0.092871144 -0.08164559 -0.24083315 -0.19020323 0.16085277 -0.23428659 -0.25030074 -0.1849487 -0.27908146 -0.401162 0.32591006 0.15612149 -0.037095807 -0.04078563 -0.16421027 0.30780742 -0.18656297 -0.26964387 -0.29984623 -0.03526705 -0.034101814 -0.7884084 -0.5480995 -0.017778993 -0.2623811 0.03264668 -0.056429304 -0.20288093 -0.022593938 -0.057674006 0.3233682 -0.29521066 0.47774735 0.06843955 -0.09576952 0.18017758 -0.15226567 0.046167683 -0.06105566 0.04558442 -0.122511625 0.28068548 -0.26929346 -0.7449321 0.8428258 0.22816135 -0.30448344 0.3809896 -0.19060308 0.039249662 0.2265019 -0.097809285 0.37814546 0.2830009 0.2886858 0.4372964 0.08253607 -0.48876756 -0.8515645 -0.112520814 0.1361096 0.27208406 -0.39364102 -0.1347046 0.8364837 -0.48023182 0.27885234 -0.060421165 -0.1872598 -0.1451153
do -0.4464907 -0.13310015 0.2962796 -0.12718694 -0.2836171 -0.056620672 0.32989392 -0.21604173 -0.16035202 -0.1382096 -0.2902815 -0.018471345 0.20332694 0.06522573 -0.14216031 -0.23099688 1.071048 0.41733474 0.2545492 -0.3922628 0.2843751 0.27801514 0.19426252 0.09626157 -0.24248764 0.31622592 0.19243738 0.07510579 0.30990547 0.75987226 0.2011845 -0.19832152 0.10425779 -0.353047 0.0152271455 -0.20326534 -0.1205345 0.16956417 -0.34300986 -0.39501572 -0.018116513 0.04821927 -0.089212105 -0.13789332 -0.008782736 0.7898431 -0.22401004 -0.114871494 -0.19760768 0.033356644 0.12878779 0.2576021 -0.69249845 0.8574124 -0.08149531 0.37642848 0.10800692 -0.08960409 0.17466824 -0.49213502 -0.07324785 -0.44487795 0.5003446 0.48904896 -0.20053056 0.7604566 -0.2601912 -0.17234889 -0.06116872 0.2526591 0.46822432 -0.004612419 -0.2865626 -0.21912397 0.5311258 -0.19064869 0.1503772 -0.05099135 0.08133093 -0.046186857 0.5711227 0.06194908 0.6171481 -0.009617295 0.3470818 -0.07091363 0.17320517 -0.26736322 -0.30659145 -0.053392004 0.33876035 -0.23663455 -0.15356758 -0.15235941 0.3859511 -0.14042301 0.2766376 -0.3608855 -0.6641409 -0.046114292
with -0.49301606 -0.017512403 0.2153382 -0.59493965 0.19526276 0.1437115 -0.06665168 -0.02177696 -0.07924185 -0.22833414 -0.3434452 -0.2254016 0.0010764572 0.10901393 0.16607425 -0.1341944 0.08022411 0.18060698 0.32591665 -0.30221668 0.3502045 0.03435705 0.30704802 -0.34831843 -0.26313993 0.15665352 -0.09814847 0.27599087 -0.08127506 0.41464677 0.16231109 -0.015595795 0.14111592 -0.27169693 0.39459988 0.055382933 -0.20786001 0.1265111 -0.011232353 0.055769596 0.06611684 0.027277784 -0.12521268 0.1647647 -0.29871136 0.43156442 -0.04618553 -0.25082037 -0.34988195 0.19159542 -0.28797835 -0.20496596 -0.4769343 0.33054084 0.041324805 0.12796327 -0.22476809 -0.08463857 -0.24242347 -0.02899291 -0.21191864 -0.12314707 0.1980816 -0.1800582 -0.1151364 -0.040556446 0.046462197 0.17774543 0.41685843 -0.1609103 -0.0040632808 0.2570663 -0.41325113 -0.17456453 -0.08811069 0.31317705 0.007577071 -0.06849639 0.049505305 -0.15946773 -0.112321496 0.011722752 0.10442864 0.29054895 0.16742742 0.07397508 0.08334887 0.33827585 -0.19571191 -0.15304536 -0.13560683 0.3253605 -0.09340594 -0.23139587 0.6626089 -0.3230272 -0.072898425 -0.35127398 -0.024641559 0.037586436
know -0.33486235 -0.18898901 0.26215795 0.06025889 0.023304032 0.052621882 0.364698 -0.113045625 -0.14449896 -0.099783465 -0.18760428 -0.17380334 0.44255507 0.61354035 -0.15615775 -0.21275486 0.637215 0.3750537 0.31829846 -0.23709007 0.41663224 0.033422668 -0.17671332 0.15110964 -0.17237778 0.026926313 0.04018137 0.21337892 0.28463426 0.6794583 0.53034115 -0.095711865 0.14234619 -0.14208655 -0.0085648885 -0.3440862 0.07444101 -0.07012511 -0.33082464 -0.513078 0.27929828 0.03952974 -0.08043069 0.02445048 -0.07934274 0.45015067 -0.118788406 0.15920231 0.036976267 -0.35894114 -0.10156704 0.16899957 -0.5019439 0.5774293 -0.21340367 0.1540246 -0.05612464 0.018064836 -0.0014171727 -0.2788655 0.09792018 -0.0044908393 0.5903083 0.14316857 -0.16483508 0.7770649 -0.20350343 -0.27074397 0.23409748 0.31987995 0.48044476 0.1351057 -0.068292506 -0.19222349 0.08853992 0.045554202 0.05124995 0.021359166 0.013737739 -0.089561015 0.46099007 0.2413149 0.6216309 0.29100373 0.30537567 0.17803384 -0.11000481 -0.12554573 -0.07346784 -0.08584972 -0.20549124 -0.043478366 0.17393522 0.020009443 0.43500432 -0.2104008 0.17801273 0.032971703 -0.12694953 0.5098662
can -0.46899396 0.466244 0.3541884 -0.26922652 -0.08448692 -0.0077252933 0.36722207 -0.25948894 -0.2910009 0.22407714 -0.44653466 -0.37977642 0.042356562 0.30938655 -0.4159661 -0.16436021 0.42485932 -0.16046458 0.5969101 0.18803607 0.16031854 0.041413944 0.25730893 0.17266497 -0.017562535 0.20467792 0.11567547 0.115240574 0.20214719 0.4932957 -0.20785268 0.09620036 -0.13967647 0.1219958 0.11863149 -0.29216695 0.010490851 -0.25607967 0.18856391 -0.2710108 0.23554131 -0.040692884 -0.1018123 -0.11843045 -0.19279362 0.58782357 -0.3380931 0.060489584 0.22046223 0.70234895 -0.12373122 0.21585609 -0.9804079 0.4602931 -0.29411152 -0.13520138 0.15794937 0.03349321 -0.34924406 -0.1309955 -0.23295794 -0.2689248 0.40108627 0.20693348 0.024886234 0.3132395 -0.23313868 -0.2767488 0.15595923 0.051326256 0.44916096 0.58505887 -0.28160155 -0.19115092 -0.23156852 0.16055083 0.27381316 -0.11461344 -0.20204224 0.003440784 0.559468 0.15464397 0.36223856 0.083723746 0.40858382 0.2446088 0.614129 -0.34042946 -0.07108946 -0.07588548 -0.0041860407 0.18191291 -0.15871312 0.06339083 0.49433678 0.11758832 0.040181253 -0.25418514 -0.003634783 0.3203065
no -0.23016 0.3014539 0.1428622 -0.40055847 -0.15894262 0.106931485 -0.00015814322 0.14268269 0.13485578 -0.20610708 -0.41762206 -0.33972448 0.54801625 0.02214688 -0.21692654 0.083090656 0.16292432 0.44848445 0.15442441 0.008608961 0.28695014 -0.44759345 0.21146226 0.12955616 -0.18971987 0.030936211 0.4339664 0.08917318 0.12641399 0.48879886 0.18433067 0.092725076 -0.15378891 0.30869725 0.07448523 -0.25081226 0.19138779 0.36474246 0.25637388 -0.32733825 0.37390733 -0.2741024 -0.12641689 0.48569348 0.082073785 0.23793295 -0.42766216 -0.2894703 -0.1545849 0.34420097 0.10198656 -0.0981491 -0.6910636 0.34385383 0.0628012 -0.20696682 -0.55279547 0.039069008 0.12900032 -0.10964852 0.104116626 0.4532333 0.15422367 0.22842549 -0.31910515 -0.0036876523 -0.37020674 0.14484635 0.43484798 -0.1422913 0.014658534 0.009622641 0.11548003 0.3243876 0.45942652 -0.23728965 0.048608124 0.09019837 0.61246955 -0.51227367 0.45516685 -0.27583718 0.5578817 0.33517054 0.5924192 0.6005392 0.057484984 0.17051634 -0.50712687 -0.6416136 0.18044175 -0.11624109 0.1286842 -0.3185117 0.5181035 -0.08036011 0.18588407 0.365628 -0.47365993 -0.07174617
so -0.04401994 -0.26817915 0.09895408 -0.28209898 0.15549171 0.062401008 0.415587 0.2512082 0.25833184 0.09247348 -0.15915106 -0.33478823 0.5651967 0.30052054 0.29801014 -0.37621674 0.19888428 0.6062493 0.3697019 -0.11351132 -0.07706135 -0.17495646 -0.27519745 0.04912639 -0.48566326 0.23329501 -0.009698442 0.41267967 -0.08261363 0.53848004 0.09198529 0.2910385 0.052601907 0.16491874 -0.07247145 -0.18962818 -0.26984176 -0.17418599 -0.30182883 -0.14238963 0.2679107 -0.30184877 0.06535035 0.23158832 -0.45086867 0.40788573 -0.36341596 -0.12201038 -0.35594553 0.0854347 -0.21072936 0.18913826 -0.25207528 0.23808272 -0.29363883 -0.58998454 -0.18537293 0.16981597 -0.34596166 0.14318314 0.049639467 0.049451083 0.3987093 0.1216758 0.14793195 0.3602575 -0.08132642 -0.05952877 0.16870506 0.23684354 0.17974073 0.12470595 -0.19663754 -0.38657656 0.03883575 -0.23527166 0.1320538 0.09381575 -0.004950206 -0.27795765 0.28339124 -0.13620381 0.31845388 0.27122396 -0.07605263 0.162141 -0.190636 -0.19747065 0.09920874 0.08793299 -0.094845995 -0.00963172 0.20182002 -0.19970806 0.49644595 -0.2571166 0.0010046901 0.22264726 -0.078584954 0.06727524
just -0.14573346 0.1416846 0.17852768 -0.3038451 -0.12537691 0.20851146 0.4098044 0.2003366 -0.02271768 0.041132197 -0.29058483 -0.3408811 0.47664207 0.35128117 -0.042496577 -0.18493138 0.39591038 0.3584569 0.3023848 -0.34327006 0.13909194 -0.350923 0.32767296 -0.0360834 -0.5016162 0.30779582 0.44374296 -0.0039061157 -0.034758385 0.43601787 -0.23947518 0.021814566 0.2050838 0.17891316 0.015044896 -0.13849603 0.21717978 -0.12801036 -0.44442528 -0.39888152 0.19897442 0.09954825 0.008737114 0.41569203 0.2186699 0.31921306 -0.120813474 0.11338996 -0.16473421 0.25024202 -0.13992268 0.22593269 -0.2790574 0.37156886 -0.08503495 0.044383135 -0.36188006 0.2383129 -0.18494633 -0.022502275 0.10343371 0.050897792 0.12565026 -0.12320242 -0.20580024 0.107485294 -0.15775944 -0.13009872 -0.1698422 0.14167368 0.099522136 0.14711876 0.0007605894 -0.2729031 0.3282884 0.023940036 0.055289708 0.3369027 0.356175 -0.17751892 0.15941751 0.1969144 0.2552266 0.18094872 -0.05668874 0.20569241 -0.024595685 -0.08337817 -0.053392448 -0.008748259 -0.014189475 0.025485665 0.10037822 -0.110574655 0.3239074 -0.28450295 0.20740396 -0.21181954 -0.1741465 0.16410898
its -0.04990997 -0.14126948 0.53979003 -0.68849456 0.08577709 -0.041396044 0.10580363 -0.08260999 0.40824533 -0.2680296 -0.14717755 -0.43946314 0.44564804 0.7611646 -0.20342746 0.0070227566 0.1102477 0.1458163 0.3923716 -0.038146 0.04140941 -0.08238523 -0.5458895 -0.14337136 -0.43303704 -0.37397578 0.21991722 -0.0892393 -0.0917363 0.4968096 0.28070492 0.16507743 -0.14844048 -0.12989613 0.16490752 -0.017422622 -0.34845537 -0.04478136 -0.2820853 -0.10175972 0.28865793 0.3312016 -0.24662171 -0.109462716 -0.43385267 0.9864127 -0.35239017 -0.037956353 0.059466857 0.010723976 -0.55965775 0.59817135 -0.46694648 0.17257461 0.12481814 -0.13185295 0.06430465 -0.16160333 0.31835583 -0.19380443 -0.16894452 -0.23832633 0.35886165 -0.12110323 -0.092607275 -0.02013225 -0.0993544 -0.31802323 0.2054997 0.28481784 0.31510141 0.21261822 -0.08030719 -0.5282065 0.5238593 0.09219601 -0.08031042 -0.05483199 -0.13599229 0.41101822 -0.053881757 -0.22369754 0.15965618 0.13766626 0.0033192106 0.1990653 -0.058285322 -0.24709022 -0.44735172 -0.2453286 -0.07663277 -0.17004049 0.46173465 -0.58441925 0.4355745 -0.029823875 0.4424103 0.26714674 -0.38359687 -0.14205453
but -0.33301967 0.023111885 0.22236854 -0.086495146 0.06923325 -0.07136003 0.18563595 0.075803556 -0.20901522 0.15469189 -0.33811283 -0.3011576 0.42915398 0.2951647 -0.1538733 -0.22042921 0.2475319 0.30072668 0.28957108 -0.020288937 0.4559087 -0.1737477 -0.051351387 0.15745288 -0.30580404 0.13854785 0.36840647 0.117234156 0.13955854 0.29373023 0.24799606 -0.0660317 -0.10079773 0.12269455 0.231145 -0.37092528 0.11456134 0.11635262 -0.30048612 -0.25940564 0.4044756 -0.013277666 0.0150688905 0.1162828 0.05105636 0.36440408 -0.20074767 -0.10530183 0.10432272 0.03254303 -0.065335885 0.107387766 -0.2817509 0.19764929 -0.117799915 -0.14617082 -0.1865583 0.033580817 -0.042599916 -0.00460509 0.2906268 0.0018058679 0.2052713 0.07602412 -0.11854801 0.352551 -0.01560827 0.0076941894 0.31382844 0.15683495 0.07013363 0.013771913 -0.20331298 -0.070236884 0.13206512 -0.077775866 0.02071555 0.18314038 0.029563496 -0.1635846 0.28427148 -0.10851304 0.32552105 0.25322568 0.115537085 0.27466142 -0.12740073 0.06446198 -0.020064464 -0.21633308 -0.17121153 -0.047199823 0.001412336 -0.007114053 0.2747105 -0.22364382 0.049479835 0.12072757 -0.21665688 0.13164622
when -0.36575404 -0.1698592 -0.12689194 -0.048457075 -0.15959802 -0.10988351 0.23186618 -0.28125274 -0.45203185 0.09248126 -0.36412582 -0.15116559 0.40046623 0.16629396 -0.11897617 -0.29126728 0.35864845 0.23981525 0.29375237 -0.05539384 0.6042472 -0.37963006 -0.10340309 -0.007949437 -0.39395022 0.15341377 0.47149274 0.17415252 -0.030696278 0.13121405 0.18405108 -0.13723616 0.030806718 0.24012323 0.20782444 -0.3254897 0.2114105 0.047587916 -0.25705332 -0.27153385 0.21306705 -0.020271964 -0.3938934 0.26330072 0.11958626 0.3131531 -0.17799868 0.053725556 -0.01806646 0.47270542 -0.031776074 -0.028053889 -0.59060705 0.10275628 -0.29865375 -0.11190986 -0.25859398 0.20555969 0.16120909 -0.002788883 0.31235054 -0.015806183 0.21474683 0.18193847 -0.13688521 0.34129184 0.18011467 -0.0058511104 0.26639456 -0.09444406 -0.072454125 -0.0021491465 -0.38941464 0.2129058 -0.18820275 0.15467161 0.09010708 0.37591037 0.19422609 -0.1962669 0.22008856 -0.0033650317 0.23322593 0.06796039 -0.08366058 0.028252276 -0.017344024 -0.11105437 0.045316298 -0.11092086 -0.07408363 -0.15354915 -0.108457975 0.0076195183 0.20596513 -0.21957888 -0.09175245 -0.11774761 -0.07075692 0.07998615
na -0.5273498 0.06402839 0.2824456 -0.75838155 0.35855305 0.26394644 -0.43503866 -0.4653491 -0.37774152 -0.022434885 -0.7724625 -0.06874331 -0.09181302 0.018530995 0.06822823 -0.3323483 0.45093998 -0.0069898213 -0.038289253 -0.57999223 0.62758183 -0.03146088 0.21771741 -0.59660447 -0.81916463 0.12978962 0.26035947 -0.36119717 -0.10204738 1.0379558 0.20613258 0.31695026 0.055581305 0.028048808 0.010455736 -0.2071698 -0.08380303 0.4833288 -0.17243116 -0.19274625 0.7521618 0.24403971 -0.2928141 0.18628936 0.013811797 0.5697151 -0.30222264 -0.04314058 0.18066706 0.20133154 -0.35886526 0.11457617 -0.94423646 0.32468727 -0.32787225 0.39884117 -0.16119538 0.52823496 -0.2706532 -0.5984962 -0.20696785 0.10723093 0.5925139 0.46132126 -0.18274148 0.8679232 0.35433677 -0.25092757 0.0080724815 -0.1361016 -0.07652659 0.6135408 0.048969585 -0.09086107 -0.45528263 0.03305865 0.4975697 -0.027159998 0.13354993 -0.42379993 0.12860285 0.19079398 0.8056429 0.1536186 0.45327646 0.12413498 0.4315 0.12167346 -0.34849727 -0.06049066 -0.39929113 0.61581856 0.089177564 -0.079394296 1.0562786 -0.39329442 0.5084861 -0.14940518 0.033613164 -0.18366325
like -0.6158186 -0.19705081 0.27443346 -0.57499456 0.13930875 0.25800225 0.13743168 -0.13239858 -0.12365291 -0.19250233 -0.2837316 -0.19581409 0.20373197 0.325937 -0.07238348 -0.28018376 0.3872687 0.44902924 0.29800475 -0.32989982 0.048100963 -0.10864672 0.10500142 -0.1771786 -0.27011403 0.019737812 0.1100444 0.278364 -0.18209243 0.0045765573 0.035640884 -0.18108955 0.42210108 -0.09201992 0.08039935 -0.07321689 -0.10839318 -0.06560299 -0.38498545 -0.34798822 -0.12034084 0.24924739 -0.049125466 0.37846804 0.047835685 0.5441276 0.05702497 -0.16914615 -0.15504062 0.3283267 -0.21416497 0.6653779 -0.2047841 0.54172355 -0.10347551 -0.010598155 -0.30738032 0.023702383 -0.034266718 0.27883884 -0.032870945 0.10138326 0.33740246 0.2686457 -0.020947538 0.4104016 -0.028338756 -0.1177387 -0.027393864 0.04129551 0.22976895 -0.08328469 -0.109314926 -0.4332512 0.1101762 0.5802786 0.06249541 0.11269664 0.098270625 -0.07734506 0.40387055 0.32240382 0.08573828 0.34177673 -0.3678661 -0.34191465 -0.07407732 -0.23268652 0.19435775 0.23762058 0.14120194 -0.09226577 0.037141427 -0.32161477 0.45510915 -0.42314416 -0.24080683 -0.507735 -0.28890374 0.029708063
youre -0.24517523 0.20385739 0.35118473 -0.16046087 -0.3767178 0.32171848 -0.270421 -0.4052795 0.1445544 0.023825528 -0.32698444 0.11973571 0.088281944 0.6653192 -0.25710493 -0.28846735 -0.018734781 -0.1347976 -0.026185798 -0.0017795723 0.4824812 -0.10121606 -0.20016289 -0.13823862 -0.4856294 -0.102299824 0.011523283 -0.041397355 -0.034593474 0.2986585 0.16537601 -0.05874633 -0.3169919 -0.049330443 0.42293733 -0.18175949 -0.39080232 0.20422024 -0.121950895 0.10322233 -0.075851224 0.28006625 -0.44980562 -0.12228685 -0.4108963 0.6168107 -0.3073582 0.43820608 0.1427953 0.33401403 -0.13302346 0.35218036 -0.4492338 0.1452557 0.08751104 -0.40121648 -0.37037414 -0.004088461 0.25817814 -0.41578934 -0.3527079 -0.018555155 0.770412 0.28085935 -0.17683333 0.013639625 -0.019514423 -0.1841687 0.2928957 0.31282192 0.38633877 -0.022304013 -0.3227682 -0.22460608 0.44971558 0.062275503 0.14922343 -0.08476299 0.19055702 -0.034792166 -0.004435928 -0.44100046 0.7411847 0.054128587 0.079163454 0.011755222 0.25922063 -0.3506663 -0.6758725 -0.59071726 0.14314795 -0.08005169 0.25873947 -0.4851394 0.6530581 -0.2856259 0.45207894 0.2635299 -0.3736646 -0.40693143
down -0.10045231 -0.40655378 0.04948223 -0.16630615 -0.047827844 0.21397592 0.2764834 0.0016324427 -0.30634803 -0.012981371 -0.28499988 0.017940179 0.4162343 -0.29175165 -0.14558782 -0.15754049 0.2709845 0.13151363 0.28807575 0.1704108 -0.060328327 -0.43059602 0.08737877 0.07534021 -0.4911998 0.024801051 0.55271864 -0.1149332 0.04077519 0.22503588 -0.08126257 -0.09702609 -0.123786874 -0.060335495 -0.035972755 -0.32683122 0.068380535 -0.07928934 0.13553572 -0.4164291 0.65305984 0.03962094 -0.030545805 0.5348589 -0.11319227 0.18623538 -0.017692579 0.03673304 -0.34279048 0.4397713 -0.16155489 -0.25224543 -0.6786903 -0.23244873 -0.5396961 -0.3446895 0.05255837 0.09178159 0.12094115 0.2143795 0.27328557 0.024669243 0.03189327 -0.02712035 -0.10095495 0.26307958 0.10795639 -0.044842303 0.09296811 -0.31983206 -0.29184002 0.071881905 0.001815672 -0.5400926 0.49583972 0.15551376 0.20348659 0.1593007 0.3009989 -0.3077884 -0.18336152 -0.2637887 0.18792382 0.16512601 -0.01344268 0.65547395 0.14985815 -0.43738043 -0.4929475 -0.20461139 0.20069484 0.583421 -0.13476983 -0.21647264 0.8016304 -0.28934842 0.13315076 -0.38896596 -0.2095183 -0.16386539
what -0.3720249 -0.3614609 -0.106177926 -0.27024537 -0.031725552 -0.35052463 0.044593036 -0.26387188 -0.44080946 -0.15634653 -0.20221584 -0.11768965 0.30234075 0.22596726 0.16397126 -0.2052537 0.38585505 0.37612733 0.22754951 -0.3661569 0.2268331 0.0078095095 -0.13493991 -0.0087242415 -0.190596 0.24144235 0.6277992 0.21336219 0.08973223 0.7516789 0.5188558 0.085324384 0.06334093 0.21066764 -0.2851607 -0.26993632 0.13785373 0.21577685 -0.37507865 -0.25413108 0.23095118 0.50640064 -0.08187499 0.1813048 -0.034063257 0.31265613 -0.6013358 -0.14707388 0.1939714 0.16496831 0.14411484 0.63579535 -0.64383423 0.60308737 -0.2868797 0.32661557 -0.25658575 0.13476709 -0.05118835 -0.07769727 0.010531161 0.43395478 -0.06654609 0.5005148 -0.09719842 0.7973436 -0.2598787 -0.28154352 0.19624111 0.20456159 0.46066412 -0.22495508 -0.116507754 0.17031428 -0.29083788 0.28889927 0.022125574 0.004459949 -0.10713128 0.04157916 0.47708595 0.45261782 0.37634143 0.05643909 0.3423567 -0.051894683 -0.14497137 0.061305523 0.021664979 -0.03165915 0.041759443 -0.23545004 0.06326677 -0.008407354 0.44287565 0.16424854 0.0122412015 0.102519974 -0.28266075 0.35098004
was -0.12818484 0.27068916 0.20087843 0.116515756 -0.17909849 -0.12742488 -0.018904421 0.030219842 -0.079896584 0.014173469 -0.25485379 -0.2852917 0.39582264 0.56506175 -0.17155077 -0.22899304 -0.016974235 -0.15332165 0.52480274 0.41333622 0.27340233 0.32998917 -0.22446045 0.015097629 -0.46694618 0.055454284 0.35884616 0.24111335 -0.20792459 0.019933725 -0.102694444 -0.08198167 -0.49578422 -0.086669706 0.5341942 -0.15619321 -0.12008131 -0.018978942 -0.28685123 0.37057385 0.31580174 -0.43958768 0.19584216 0.03444313 -0.27465054 0.7572414 -0.2758683 -0.1257221 0.20126404 0.28514528 -0.37531787 0.23837292 -0.06406594 0.38065147 0.0975002 -0.23611239 -0.4839652 -0.32474345 -0.26583552 0.248176 0.12908746 -0.019932743 0.4329508 0.4553081 0.016701914 0.20123282 0.20928767 -0.12857242 0.42680588 0.110039234 0.15007849 0.12867606 -0.119480096 -0.3415082 -0.0077131526 0.5931773 0.074319184 0.3831915 -0.1116399 0.004102216 0.087045655 -0.31924024 -0.027199289 -0.097004965 -0.25323007 -0.11666296 -0.22433285 -0.06929579 -0.34872964 -0.46969047 0.20849866 -0.072108574 -0.09613301 -0.23425992 0.14341065 -0.39289874 -0.06757041 -0.056661714 -0.45119613 -0.12850434
come -0.1062547 0.058205567 0.22287387 -0.17037126 0.15622793 0.12542209 0.81171805 -0.21459067 -0.21271166 -0.005997729 -0.34012508 0.13553677 0.32980865 0.3037818 -0.1614492 -0.6353923 0.8454705 0.2988756 0.02614471 -0.20654081 0.19154316 0.1949381 -0.41446313 0.05770215 -0.5354995 0.11888633 0.120365776 0.37179774 0.056917444 0.50795674 0.25639609 0.028051475 0.024109226 -0.493582 0.05230216 -0.1838964 0.11398811 -0.41741723 -0.34454715 -0.026147747 0.15508492 -0.40699074 -0.46428886 0.327787 -0.052049886 0.19351079 -0.13852063 0.026966387 -0.49601513 0.2738108 0.13823578 -0.4906651 -0.6707141 0.07962639 -0.5232981 -0.33068725 -0.10487148 -0.1647029 0.12548001 -0.16783208 -0.20197347 -0.07526602 0.22927256 -0.23147473 -0.30261436 0.27240232 -0.38410017 0.3040835 0.24569903 -0.17826942 -0.025524499 0.2807585 -0.14430138 -0.20093925 0.14349107 -0.06371221 0.2816953 0.19070652 -0.31385973 0.083446875 0.3035694 -0.3028421 0.6168791 -0.046452288 0.06581755 -0.1581838 -0.28376326 -0.34290642 -0.24401532 -0.090056516 0.21602963 0.09332899 -0.0714067 0.37112084 0.7305397 0.02696025 -0.40382048 -0.2912411 0.13452362 0.036002334
up -0.38707143 -0.058459193 0.09215904 -0.24143907 0.31424183 0.057258286 0.13863184 -0.020452417 -0.27305913 -0.20265575 -0.20482643 0.027858827 0.25173217 0.008258719 0.22536643 -0.38256037 0.27198693 0.30865797 0.44380033 0.25336805 0.05787865 -0.07553058 0.1901525 -0.3532688 -0.3330948 0.034853317 0.17556281 -0.025892213 0.030620724 0.12555234 -0.25975955 -0.064814694 0.016149504 -0.056599908 0.13378853 -0.1560792 0.021011047 -0.18966833 -0.015828177 -0.09238828 0.3924682 -0.33162645 -0.05972958 0.33758858 -0.072210215 0.47952986 -0.20031768 -0.27211738 -0.40562984 0.42040995 -0.22889894 0.026253505 -0.58812016 0.18767416 -0.3962342 -0.07793309 0.051499467 0.01885203 0.038219493 0.23553465 0.18803878 -0.3830035 -0.008516569 -0.29669085 0.009881514 0.11524314 -0.08624542 -0.07156053 -0.1420595 -0.30850345 -0.26124546 0.0912909 -0.0895798 -0.548548 0.2630947 0.18890506 0.28387728 0.20763482 -0.18783112 -0.40537637 0.0016534355 0.007354351 -0.10887882 -0.24798834 0.28017348 -0.030952478 0.14655289 0.50801337 0.029158313 -0.037368596 0.024671502 0.145103 -0.23172252 -0.25532585 0.64170057 -0.16277407 -0.110567525 -0.7915467 0.021720778 -0.09916885
now -0.2789651 0.092766605 0.30579355 -0.31355947 0.25787526 0.045514196 0.31110802 -0.0015110649 -0.1333634 -0.009358721 -0.23880073 -0.12488823 0.26414287 -0.09055742 -0.09668565 -0.17902726 0.32669976 0.36011007 0.24329717 -0.051266164 0.1927814 -0.16440773 -0.3588276 -0.019483693 -0.49600956 0.14797644 0.3550293 0.02100669 0.16710217 0.58732677 0.1556273 0.05565183 -0.09343639 -0.052107535 0.050785474 -0.27657485 0.21054533 0.14154796 -0.09807055 -0.16146982 0.4649316 0.08935917 -0.18262665 0.21828717 -0.13472234 0.3251018 -0.23578174 0.036477283 -0.086884804 0.2782211 -0.14339061 0.061299756 -0.5856308 0.16673337 -0.3193692 -0.34191263 0.2921471 0.043989263 0.11675477 -0.13836983 0.007010469 -0.08326122 0.23498242 -0.095023 -0.18554652 0.45519873 -0.13125983 -0.14273351 0.32676485 -0.06002702 -0.022456488 0.14482306 -0.16447116 -0.17371964 0.29669046 -0.27951273 0.20546585 0.07160458 -0.08863354 0.07012661 0.1753379 -0.1965784 0.48899853 0.084187694 0.07439527 0.33580193 -0.014641136 0.15055515 -0.17774726 -0.15055817 -0.20497386 0.17979205 0.0680307 -0.23270802 0.5767404 0.106766015 0.1338821 0.09105373 -0.23388498 -0.009308075
time -0.029172799 0.17887188 0.11272538 -0.53964144 0.31591746 0.4017549 0.27976406 0.17985699 0.4567419 -0.29567793 -0.104940124 -0.300918 0.5444685 0.6515327 -0.046009682 -0.44274813 0.57545555 0.4327235 0.43152073 -0.003886104 0.23109594 -0.5621978 -0.11699616 -0.12580423 -0.36364496 0.111993775 -0.0894208 -0.051681843 0.02039037 0.63943267 0.07791307 0.28622207 0.01634758 -0.040353104 -0.011734115 -0.4217034 0.13450554 0.0924189 -0.0666566 -0.46936774 0.26356274 -0.6979931 0.21359059 0.2954411 -0.08791691 0.6413724 -0.47019333 -0.16007006 -0.14109752 0.268295 0.11364169 0.25796467 -0.10570896 0.0396382 0.3388872 -0.22514446 0.043870993 -0.008133656 0.011035824 -0.07906188 0.2462821 0.08916455 0.08603441 0.13514072 -0.34077802 0.21737482 -0.15135533 0.070824556 0.008927126 0.1544191 0.04002705 0.42475456 -0.2576518 -0.07477986 -0.17250264 -0.112360805 0.1572638 0.17902839 0.14068918 -0.4930387 0.34345037 0.0013050125 0.55919933 0.33540323 0.317368 -0.054762572 0.0807718 -0.10739979 -0.25912213 -0.22621045 0.17709969 0.018164366 0.25139996 -0.08704845 0.44594607 -0.27754837 -0.03376901 -0.03319301 -0.631391 -0.025925845
yeah -0.3215162 0.13604566 0.05568092 -0.6609782 -0.11245838 0.73097354 0.51133525 -0.08340997 -0.2905049 -0.31092402 0.30457956 0.13475972 0.13000934 -0.10800879 -0.03504091 -0.30392584 0.43777928 0.01591368 0.66985583 -0.39062533 0.2007196 -0.45569736 -0.3500978 0.49172482 0.1680987 0.31414938 0.27639538 0.613589 0.14917995 0.44470522 -0.33023655 0.114714146 -0.095050484 -0.22350812 -0.18444203 -0.31990644 -0.016985483 0.16651855 0.01896018 -0.2527435 0.04285879 -0.08849172 -0.55359364 -0.107112445 -0.27850857 0.4003609 -0.4685859 0.016001586 -0.058028374 0.026065169 -0.16855806 0.30350575 -0.6810329 0.10754319 -0.47042522 -0.023836158 -0.38895017 -0.27245152 0.117627375 0.1343225 -0.287542 0.11648175 0.09013842 -0.023150893 0.048737016 0.7549916 -0.2515756 -0.19373564 0.05220981 0.3458967 0.355072 -0.30200005 0.18858391 -0.0014075101 0.2892314 0.027965058 0.3895556 0.18259789 0.034896713 -0.14155269 0.0961814 0.3341027 0.25515133 0.1803561 0.3443744 -0.095932074 -0.27359822 -0.02516611 -0.1553559 -0.06475302 0.23335011 0.22966465 0.09954351 -0.0016564024 0.45088363 0.11144392 -0.19391936 -0.29455826 -0.40566003 0.33074927
if -0.26299992 0.11216506 -0.060216397 -0.16907503 -0.20475706 0.10659887 0.21648918 -0.058162503 -0.26517138 0.024977235 -0.5634999 -0.31922784 0.38604742 0.11227417 -0.05308218 -0.2639721 0.20508271 0.28200805 0.3989117 -0.28403354 0.5792322 -0.22035612 0.17945655 -0.062480632 -0.40373257 -0.06669266 0.44094235 0.19597441 0.041100156 0.710046 -0.014385651 -0.07307599 0.14182942 0.16717665 0.014429089 -0.34236076 0.04547027 -0.02631651 -0.3011211 -0.41740194 0.37496087 0.11459281 -0.20220412 0.16597521 0.20257944 0.38711977 -0.12996943 -0.008970307 0.12768266 0.037650328 -0.17024876 0.18504567 -0.6528715 0.24155377 -0.26175803 0.21245769 -0.4600764 0.34111828 -0.3135377 -0.22021198 0.08373728 0.05662574 0.29743153 0.10803647 0.21396929 0.5219079 -0.020421209 -0.21775918 0.099198945 0.0019663395 0.1540832 0.07446082 -0.3277796 -0.0046893335 -0.11160161 -0.05994572 -0.043137908 0.21376215 0.2164887 -0.013464173 0.2781681 0.36692846 0.4494551 0.13655901 0.43809074 0.3630149 0.07904707 0.16676173 0.27414092 0.011197316 -0.15751137 0.01412955 -0.066551596 -0.12640166 0.52241635 -0.19474085 0.27949712 -0.043158714 -0.10823362 0.13712421
cant -0.27903676 0.31044972 0.5589012 -0.5702473 -0.32069615 0.2458476 0.36642477 -0.3440089 -0.2533169 0.39486474 -0.23415558 -0.6488805 0.34216544 0.34352022 -0.27511516 -0.0898828 0.43829384 0.14998673 0.017370474 0.10266411 0.4606911 -0.38122278 0.06933244 -0.008958902 -0.38133287 -0.0584284 0.8582018 0.1557272 0.024383457 0.37160185 -0.19491167 -0.10315158 -0.03463963 0.2598784 0.1649515 -0.34002292 -0.11300925 -0.067308836 0.29280347 -0.70789725 0.58719456 0.042099684 -0.28686383 0.38299686 0.04804226 0.2489769 -0.023836968 -0.033879887 0.38230482 0.5622627 -0.33341777 -0.10198019 -0.63192713 0.15152079 -0.11761801 0.09494106 -0.04419003 0.15928648 -0.12319184 0.1603838 -0.34788224 -0.19861992 0.4777994 0.34484163 -0.09611994 0.186386 -0.050341133 -0.3283573 0.6443645 0.2018253 0.1689449 0.69540673 0.19372647 -0.3946019 -0.10122718 0.1546682 0.19154775 0.16366614 -0.059428878 -0.09892631 0.53759724 0.083017744 0.24054582 0.12999558 0.23541063 0.6796309 0.250793 0.0832624 0.00064431183 -0.18670763 0.024289235 0.4435544 -0.029003192 -0.12099615 0.52070135 0.17106813 0.10779157 -0.08020941 0.42135948 0.19105935
out -0.1795949 -0.075650245 0.22101986 -0.19234918 -0.20820417 0.19053212 0.3622029 0.048261523 -0.26046473 -0.17832467 -0.42563564 -0.447778 0.15764935 0.28503522 -0.3024093 -0.5674588 0.45967337 0.039526228 0.4280895 0.15875451 0.3697087 -0.151395 0.23766036 -0.09130277 -0.1942169 0.4501846 0.35502198 0.10222084 -0.07019033 0.17887947 -0.27771562 0.16774483 -0.46702448 -0.17924462 -0.06260412 -0.5352418 -0.023450067 -0.09631653 -0.09650666 -0.016057331 0.3516037 -0.2563113 -0.026256327 0.08407433 0.09477174 0.15158397 -0.061923906 -0.39113098 0.18504561 0.5089714 -0.10237881 0.053478166 -0.26615137 -0.06683605 -0.19430716 0.06501884 -0.0016601582 0.13950752 -0.16652004 0.11892626 0.006183788 0.062797114 0.40458485 0.30786037 -0.036739316 0.15467794 -0.11935126 0.1393685 0.34802246 -0.0060633086 -0.2872869 0.12876287 -0.050177664 -0.13087794 -0.1831887 0.16671543 0.016778333 0.20450643 -0.09787708 -0.22447987 0.21943273 -0.23746353 0.4043443 -0.00363799 0.2678147 0.12116806 0.17935061 0.11495802 -0.15509109 -0.12176201 0.17123489 0.15352929 -0.40826014 0.017587356 0.402396 -0.007947383 -0.00031395198 -0.14818108 0.10996932 -0.08425263
she -0.2575397 -0.32752064 -0.32764882 0.23821577 -0.07033943 -0.7854281 0.50111854 0.11193384 -0.6920276 0.050092127 -0.18640067 -0.17049135 0.10542207 0.2862477 -0.2025463 -0.41133574 0.24177329 0.29101282 -0.25840986 -0.31430668 -0.13401 0.40329564 0.18957707 -0.01694553 -0.39725858 0.095453784 0.5730312 0.025542669 0.20000225 0.027665032 0.18019111 -0.09471361 -0.19948691 -0.40502554 0.1470983 -0.19499928 -0.08697103 -0.06258054 -0.42184588 0.16499628 0.50846285 -0.014363378 -0.008659447 -0.041907813 -0.0957642 0.670573 -0.5992369 0.087357864 -0.26085222 0.30862856 -0.27816817 0.4755084 0.008243836 0.51814187 -0.39594808 -0.08176978 -0.7745133 -0.050258797 0.02519422 0.08182362 0.31168798 0.19662592 0.16050325 -0.06274263 0.08110638 0.31773168 -0.07787644 0.010663629 -0.1902178 -0.31040165 0.25443345 -0.47025007 -0.73003095 -0.05986711 0.9140884 0.43773538 0.49211237 -0.0023077724 0.46324027 -0.28758708 0.22072954 -0.36380112 0.073768124 -0.20897308 0.39074972 0.23964159 0.3473434 -0.08414482 -0.24152073 -0.22946306 0.26081973 -0.2221791 -0.287508 -0.17324464 0.2233756 -0.340868 0.07787544 0.18043503 -0.19667947 -0.11780496
gon -0.72738093 0.03484066 -0.07231813 -0.39995444 0.49872148 -0.10054867 -0.30541053 -0.26662204 -0.56025815 -0.102261454 -0.72303617 0.0012554139 -0.17616162 0.22058496 0.21669352 0.036943782 0.11433648 0.33325547 0.050489865 -0.27725452 0.3852833 -0.33575714 0.5518587 -0.3084569 -0.4037347 0.42853487 0.0025858337 -0.24393241 0.43190587 0.6250874 0.21162614 -0.064522445 0.296949 -0.14957829 0.2969769 -0.4227148 -0.24692447 0.19175537 0.056396097 -0.12813857 0.5901014 0.57529694 -0.31098098 0.2645028 -0.14314106 0.5084168 -0.15508024 0.12203995 -0.017326448 0.33459815 -0.03613549 -0.019700466 -0.60425943 0.8377421 -0.2627785 0.0017532246 -0.27150014 0.45696983 0.12501442 -0.21980508 0.29857475 0.1904214 0.5546328 0.02648954 -0.34188855 0.4961388 0.22283605 -0.02301427 0.36802942 -0.25627258 0.01504099 0.26334172 -0.45936295 0.23940897 -0.102269694 -0.33454558 0.22401114 -0.34437853 0.294217 -0.46261835 0.25246766 0.192382 0.6370804 0.42719963 0.5253145 0.015892642 0.5239435 0.6520652 -0.3379006 -0.109688714 -0.73559326 0.09007798 -0.26638636 -0.13312691 1.0415839 -0.26194793 0.4412212 0.0067782057 0.12417197 0.11604346
let -0.67741305 0.38797468 0.3554347 -0.34787104 -0.21762767 0.3875187 0.37676492 -0.13282967 -0.49596146 0.09094886 -0.46427682 -0.4949297 -0.20970099 -0.083716154 -0.10371609 -0.35929385 0.34480578 0.377485 0.1373852 -0.06331643 0.3812668 -0.2752603 0.063649714 -0.25091973 -0.5382322 0.014758011 0.057827696 0.4392745 0.19351535 0.38133192 -0.11282329 0.022671862 -0.065207824 -0.17711455 0.1446492 -0.27035895 -0.19747165 0.33889636 0.048515175 -0.17332771 0.47855836 0.06993866 -0.12303839 0.33103806 -0.20467256 0.5111714 0.00048074842 -0.118393905 -0.2818583 0.23521478 -0.19787098 -0.42012012 -0.2339329 0.36482182 -0.45523012 -0.25148067 -0.0794965 -0.13731274 -0.42985883 -0.49571425 -0.3665641 0.29579738 0.40962452 -0.13670151 0.28515613 -0.07095847 0.2094097 -0.3827396 0.39096925 -0.26267397 0.058508437 0.12090815 -0.23998126 -0.34603348 -0.056956936 0.13041024 0.4836288 0.09014336 0.44654933 -0.19376305 0.20898065 -0.07134629 0.56917775 0.41646272 0.506084 0.50614023 0.058351252 0.13091248 -0.25269607 -0.3425 0.27656293 0.6798033 0.012148701 -0.022162085 0.5034948 0.15584885 -0.09571434 -0.09401571 -0.3717029 -0.04308189
go -0.15466075 0.20536745 0.1482059 -0.19645464 0.01997065 0.16848122 0.44524089 -0.1424672 -0.22067434 0.057799928 -0.27727303 -0.0705462 0.10531458 0.21845745 -0.28384724 -0.22761224 0.72011954 0.19190428 0.25629893 0.11498513 0.5037822 -0.35979906 -0.07032339 0.29676458 -0.39003724 0.10411772 0.14017141 0.25416297 0.13195355 0.60601974 0.18626457 0.11148572 -0.27513993 -0.09692628 -0.023403322 -0.4479052 0.07789125 -0.058038857 -0.22357148 -0.40151393 0.2994165 -0.13334008 -0.1516094 0.30620787 0.07291448 0.253042 -0.11265763 -0.0185794 -0.15321459 -0.15135957 -0.23720111 -0.4633079 -0.09790487 0.19325586 -0.033370793 0.14985181 -0.40489486 -0.15738145 -0.2200316 -0.44066453 0.119244836 -0.09688018 0.43075925 -0.17524165 -0.2577094 0.29021767 -0.19767632 -0.22614767 0.33489463 0.1838694 -0.11480378 0.051252663 -0.2319839 -0.3161191 0.21402033 -0.018031592 -0.18466796 0.37617126 -0.12188244 0.016273465 0.35951096 0.20789056 0.74110967 0.35214496 0.45383102 0.34810284 -0.10088381 -0.1704214 -0.48352945 -0.2841797 0.017208802 0.14849031 -0.16205536 0.26239213 0.58655715 0.23102224 -0.051565025 0.23804072 -0.13124657 0.12740397
way -0.39015076 0.2992801 0.1085129 -0.5315459 0.1579454 0.29490173 0.21234488 -0.18275878 -0.13355294 -0.07166156 -0.39227542 -0.29241005 0.4687437 0.5166312 -0.3303201 -0.55727357 0.47340176 0.29739437 0.36845663 -0.030906294 0.47186884 -0.4880566 -0.013924373 -0.21093655 -0.52568626 0.044304106 0.50899094 -0.19111547 -0.052951697 0.5351401 0.16709231 0.08796902 0.010931817 -0.020153023 0.049641103 -0.4591728 0.23334394 0.14499414 -0.27030185 -0.546332 0.18928279 -0.13538139 0.026061388 0.37491688 0.032543946 0.51675457 -0.28714424 -0.111255504 0.293511 -0.06841182 0.14260608 0.19760276 0.14082809 -0.15294755 -0.093517356 0.13081548 0.22560741 0.1258807 -0.096889414 -0.03605084 0.06429657 0.23066428 -0.13661079 0.006444119 -0.082030304 0.4727504 0.09224562 -0.25337335 -0.059845194 0.37472403 -0.05573327 0.25380802 -0.42523527 -0.13802053 -0.042566665 0.25941563 0.22182213 0.40431225 0.15068625 -0.19731967 0.020232392 0.16402857 0.64957887 0.3640545 0.20077465 0.0986906 0.12839127 0.096391335 -0.054580003 0.03802872 -0.13684168 0.24115676 0.035988413 -0.09458717 0.68524456 -0.189359 -0.0324303 -0.099165514 -0.015393374 0.13268359
her -0.19485995 -0.15512156 0.051702574 0.2751575 0.15220505 -0.3221076 0.13712998 -0.047207154 -0.35398266 0.07276651 0.017928079 0.009316712 0.21523128 0.112701796 0.32598805 -0.3328121 0.3928897 0.63630897 -0.23718327 -0.120184936 0.13058698 0.22166224 -0.13628846 -0.4010011 -0.32930002 0.45140705 0.21830094 -0.07878442 -0.047045663 0.317634 0.15547946 0.00642611 -0.1901633 0.22639263 -0.090301245 -0.24054289 0.18097739 0.15584971 -0.1477976 -0.28434947 0.47866723 -0.079683915 -0.028498322 0.7135179 -0.1361898 0.5682219 -0.35468796 0.04756063 -0.272286 0.42841247 -0.68607426 0.1397144 -0.042824335 0.50796825 -0.3937883 0.086345546 -0.9260944 0.29993874 -0.33591557 -0.16508909 -0.04950546 0.16125838 0.68600535 -0.031097926 0.07993252 0.2616227 -0.03389409 -0.3020722 0.07696778 -0.38888118 -0.18566316 -0.38159922 -0.52326155 -0.07718857 0.09142878 0.6092413 0.27303368 0.27476722 0.06708721 -0.154007 0.16970988 -0.101010725 0.25470993 -0.15836294 0.17364208 0.17176145 0.2265727 -0.03405854 -0.22178501 -0.096552216 -0.10442873 -0.20055625 0.177461 0.15229368 0.4021117 0.20658839 0.12927005 -0.038998917 0.060398426 0.15052441
see -0.3206509 0.11611764 -0.02013855 0.12736976 -0.3955495 -0.25147846 0.2093399 0.06374452 -0.2815314 -0.15655454 -0.37516466 -0.4191047 0.4565652 0.3596754 -0.1296555 -0.17048159 0.4637029 0.22168088 0.63730794 -0.03003676 0.73847306 -0.04364023 -0.2062384 -0.04372641 -0.1772346 0.100992694 0.018763669 0.008912109 -0.17279379 0.53561145 0.24655856 -0.47268003 0.19564885 0.054253105 0.47411683 -0.18003552 0.102399245 0.016006831 -0.35369712 -0.4070542 0.20027237 -0.18284279 -0.061170198 0.07826597 -0.06616395 0.3597489 -0.030172247 0.027840849 0.053186763 -0.18439512 0.03439664 0.049636364 -0.604146 0.30970162 -0.06493078 0.20182063 -0.38768396 -0.27678987 -0.15358904 -0.32966575 0.14571485 -0.15465602 0.44245186 -0.10050465 -0.067535356 0.15870203 -0.037336644 -0.24284014 0.13504645 0.2829809 -0.025483785 0.18139587 -0.45444477 0.02591406 0.34123862 0.1703565 -0.120529614 0.29565483 0.07009906 0.005249574 0.17269897 0.021160448 0.38708773 0.15163894 0.28290007 0.096315645 0.23714684 0.10487463 -0.08936288 -0.19103204 0.17898683 -0.045963418 -0.23849751 -0.13069637 0.3165605 -0.18801646 0.08026294 0.21745223 -0.35481596 0.32370904
want -0.4628734 0.23348996 0.44285014 -0.4436152 -0.2838958 0.14834611 0.031182231 -0.4022582 -0.100039445 -0.27544212 0.06014959 -0.04652345 0.2641558 0.26199433 0.05563973 -0.27321637 0.47645667 0.3597841 0.34424788 -0.22232823 0.291974 -0.050482895 0.11681597 -0.2361693 -0.24272096 0.048919298 0.5082833 -0.007211226 0.34738407 0.7290989 0.08226402 -0.52573764 0.3171965 0.09214296 0.47073802 -0.18735135 0.08623021 0.020233938 0.0564664 -0.798031 0.42172593 -0.11005286 -0.14648356 0.19575447 0.03867751 0.40261775 -0.28952265 -0.12253688 -0.019021777 -0.02636116 -0.07640712 0.25588882 -0.9320149 0.68942916 -0.23388027 0.13051397 -0.24392465 0.010363915 -0.13559467 -0.14420484 -0.0017867573 0.21905981 0.27985853 0.009755017 0.07774561 -0.010538768 -0.21534435 -0.52700907 0.11953224 0.19212343 0.12609221 0.19133617 0.3594375 -0.2109406 -0.08519071 0.080559194 0.41932777 0.29403383 0.175033 -0.14940768 0.17259224 0.2476274 -0.017698886 -0.051358752 0.5042699 0.2919118 -0.11686867 0.13777363 -0.041499723 -0.06258152 0.3006831 0.7039352 -0.07653627 -0.20058757 0.40847117 0.20112297 -0.1948409 -0.49390286 -0.008156138 0.4583777
he 0.034001034 -0.06034273 -0.25546086 0.28577054 -0.286905 -0.7976075 0.46636376 0.12504473 -0.6581843 -0.05265541 -0.14008826 -0.37682763 0.2901409 0.5834653 -0.26900274 -0.4778275 0.22968724 0.107452326 0.0240433 -0.14078318 -0.07557503 0.2874144 -0.07719914 -0.08306467 -0.26592126 -0.15562434 0.4564029 -0.042865317 0.2699318 -0.0735626 -0.016894829 -0.014043517 -0.29765567 -0.19218603 0.2776609 -0.36336625 0.037903447 -0.11570241 -0.29841617 0.027792998 0.5581529 -0.08546284 -0.02858333 -0.15864 0.047842894 0.6936141 -0.5329495 -0.05578269 -0.056617826 0.0152400425 -0.30587345 0.54584813 0.0050590797 0.3383774 -0.32606167 -0.012995281 -0.591757 0.038137 -0.011348911 -0.01068871 0.41994575 0.13749707 -0.048622705 -0.07698019 0.16248469 0.0143494895 -0.20788223 0.09709429 0.019824248 -0.017965144 0.16074522 -0.34741187 -0.387248 -0.15335675 0.6230925 0.4841787 0.16742752 0.17739108 0.1690539 -0.14721504 0.2958154 -0.34244308 0.2639091 -0.284685 0.46014646 0.30996212 0.22564602 0.007962941 -0.20316717 -0.19811001 0.21094213 -0.07750715 -0.12262723 -0.13553168 -0.028397877 -0.25738412 -0.09084211 0.362457 -0.31419832 -0.0454776
one -0.27473712 0.519246 -0.00047329444 -0.33862737 -0.2792513 0.22541068 0.11538398 0.04734204 0.12119732 -0.27214286 -0.20741305 -0.13682161 0.51605564 0.62916845 -0.034884196 -0.11336421 0.09102429 -0.020236293 0.280786 0.16996638 0.23467425 -0.35117903 0.12740146 0.17872794 -0.20647806 -0.10947066 0.17955829 0.1003289 0.06867751 0.5073529 0.031558033 0.0063283374 0.072083935 0.1741279 0.0051837843 -0.44298068 0.2591275 0.3005437 0.084071234 -0.5088071 0.1353476 -0.7403854 -0.005305884 0.29937473 0.12304574 0.3310905 -0.39695165 -0.15697801 -0.007521336 0.4450407 0.16131276 0.16972265 -0.54372823 0.19707389 0.24723195 -0.23649473 -0.45882675 0.029661756 0.07833332 -0.3048897 0.112135515 -0.13238537 0.24754973 0.22744234 -0.27012727 0.08634887 0.0223257 -0.05415966 0.07625606 0.19168393 0.08826793 -0.024298454 -0.22207363 0.43199113 -0.09901404 -0.004773261 -0.023666702 0.19685586 0.4953626 -0.3059156 0.30128914 -0.15731408 0.396905 0.19807117 0.11441007 -0.10074121 0.28191134 -0.11029487 -0.08981595 -0.23146711 0.36032757 -0.19893104 0.2641113 -0.26333806 0.2926281 -0.27668017 0.19909246 -0.050791383 -0.7276229 -0.19809374
take 0.09543311 0.23731723 0.04187728 -0.08063753 0.061799377 0.0457167 0.41199327 -0.09913067 -0.28203514 0.103486486 -0.483785 -0.16174214 0.2599138 0.39470544 0.02823521 -0.3935541 0.57662636 0.3275267 0.09805233 -0.2903665 0.4588538 0.059306346 -0.06828318 -0.09903649 -0.70652395 0.40408108 0.039574392 0.1443845 0.30263364 0.80585766 0.2771641 -0.2884236 -0.1621698 -0.25919393 0.27862662 0.037122738 -0.22364525 -0.27545756 -0.091291904 -0.16621964 -0.1282536 -0.45110762 0.08488986 0.44792277 0.0037953286 0.11471637 0.3198078 -0.31577733 -0.22584805 -0.26544103 0.047783192 -0.5120788 -0.2970242 0.5883711 -0.26515213 0.110700585 -0.69741094 -0.18837011 -0.28567997 -0.3700113 -0.06648094 0.27853563 0.36441758 -0.1342894 -0.2579262 0.0071649007 -0.38015622 0.2695442 0.3892017 -0.20463559 -0.20289801 -0.019252645 0.0005948472 -0.098196805 0.15485428 -0.031619765 -0.05647785 0.22684191 0.278619 0.030473111 0.3618403 -0.04128796 0.14514251 0.6364945 0.44564474 0.004605311 -0.021002589 -0.18753326 -0.26777348 -0.543892 0.35306656 0.40066463 -0.19272017 0.1944 0.50444955 0.06685996 -0.25552437 -0.0061342963 -0.27892855 0.040558424
this -0.35820317 -0.17105925 0.263463 -0.36008868 0.08904092 -0.28088614 0.53195316 0.2832646 -0.11423322 -0.4052124 -0.32900536 -0.032921404 0.519855 0.49361646 -0.22786294 -0.2774808 0.31964248 0.46814758 0.27439713 0.07074232 0.28559217 -0.123261005 0.3308575 -0.2025636 -0.1608235 -0.004904233 -0.08813077 0.12264908 0.054853894 0.1735022 0.26573658 0.00051862845 0.084398575 0.08721833 -0.045443147 -0.23890233 0.07806769 -0.31175613 -0.36952966 0.09324295 0.1900737 -0.24548572 -0.39800107 0.53440887 -0.024417005 0.45604715 -0.14541617 -0.038944717 -0.24433108 0.24799155 -0.027188145 0.24296705 -0.5239117 0.3803091 -0.12952913 0.047747195 -0.21792495 0.34413877 0.25796184 -0.2857073 -0.06310049 0.090648234 0.3570076 -0.10765862 -0.22256762 -0.36618134 -0.10735286 -0.18109924 0.091377266 -0.08894439 -0.05004768 -0.07805431 -0.27999052 -0.23823155 0.3064101 0.15602839 0.25223854 -0.052903313 0.19385968 0.051448453 0.24608453 -0.18748578 0.6499472 -0.0966396 0.03698546 -0.08975649 0.26445636 0.3132454 0.026056347 0.11196798 -0.2604038 -0.47109446 0.02952712 -0.35364667 0.34769246 -0.14668705 0.017380575 0.09542208 0.28118977 -0.10099111
say -0.38445157 -0.1974441 0.10617777 0.07234173 -0.109353445 -0.33322695 0.09659299 -0.027081314 -0.24957387 -0.16217642 -0.3445769 -0.14478657 0.3799642 -0.0013185504 -0.0878924 -0.18287642 0.5185022 0.24196315 0.5506654 -0.0013699764 0.18556266 -0.18695813 -0.17307042 0.1911934 -0.3186884 0.13314459 0.3856796 0.09042785 0.37211102 0.663896 0.45979962 -0.15894713 0.10452168 -0.0389379 0.15585898 -0.29227263 0.31362298 0.24517012 -0.3178327 -0.3704086 0.5103126 0.064996034 0.0047258358 -0.07005784 0.082544476 0.31884125 -0.3189732 -0.079536416 -0.084269576 -0.24068728 0.12849806 0.047685284 -0.6071096 0.7204661 -0.20342611 0.07766347 0.057846304 -0.07998397 -0.025228841 -0.48077 0.38192493 0.103915974 -0.073805735 0.36946467 -0.14503771 0.5984267 -0.2620031 -0.22330493 0.31391352 0.11535897 0.58237755 0.0040140394 -0.21678694 0.067775734 0.23385812 -0.075407796 -0.13215402 0.122334085 0.18536592 0.02248964 0.4848368 0.19175085 0.4003659 0.16404094 0.4063683 0.16422802 -0.16511084 0.041922465 -0.1388954 -0.2193023 0.27065346 -0.16911326 0.047270954 -0.039769597 0.3884182 -0.14244352 0.034452107 0.21138959 -0.66981333 0.3239454
are -0.044489793 -0.16906184 0.49104002 -0.12632173 -0.49590605 -0.06995583 -0.13008755 -0.2840791 0.0396535 -0.2705148 -0.3797139 -0.524846 0.09223207 0.602963 -0.474453 -0.30733442 0.13486062 0.1788191 0.4320555 0.22162999 0.17469063 0.022118887 0.09184193 -0.24341084 -0.03163878 -0.27497435 -0.45726803 0.11445692 -0.06769469 -0.03973939 0.050128095 -0.066232495 -0.32228145 -0.1200624 0.49546808 -0.31135637 -0.22037674 0.09880873 0.07611771 -0.15180768 0.12800765 -0.005093638 -0.37316102 -0.112886906 -0.63170457 0.8521715 0.45203075 -0.3552354 -0.35905215 -0.1103893 -0.2546673 0.013904983 -0.83348244 0.21211264 -0.2513459 -0.13718282 0.260932 -0.13998465 0.21213625 -0.24553053 0.35851002 -0.075926974 0.39555162 0.40189385 -0.08591594 0.13291612 0.06875781 -0.18860309 0.33018816 0.5836214 0.6386649 -0.14284582 0.015948653 -0.16899142 -0.28094646 0.06157574 -0.43640643 0.09363743 -0.74701416 0.1450202 0.26988906 -0.23245181 0.7519967 0.34130332 0.021023177 -0.2016896 -0.27502078 -0.37433425 -0.12266988 -0.45881858 0.070525326 0.16236947 -0.023929853 -0.4529904 0.28094098 -0.107775964 0.095070824 -0.09549128 -0.13816057 -0.40441796
never -0.49502516 0.0064211097 -0.08212587 -0.20650363 0.1489562 -0.37770134 0.14908127 -0.07689942 -0.3344077 -0.07263356 -0.32633856 -0.0967476 0.5923086 0.1742832 0.078326985 -0.2774639 0.44862494 0.16963896 0.17196085 0.07109573 0.49228683 -0.09556264 -0.23544408 0.35176784 -0.7668886 -0.10456509 0.2722329 0.39496142 0.16075218 0.8267813 0.51102656 0.1971722 -0.08862423 -0.0075713415 0.04809177 -0.3875768 0.17627418 -0.054964162 -0.051347353 -0.031784557 0.62030405 -0.14469044 0.095360085 0.21617363 0.2977508 0.2971165 -0.19990559 0.020220961 0.25371137 -0.18885553 0.255582 0.28063563 -0.33792144 0.75867206 -0.0849206 -0.08480582 -0.1790884 0.22031371 -0.2066305 -0.26218325 0.14355677 0.019866887 0.010950255 0.38865462 0.07920779 0.31001252 0.1412784 -0.28829077 0.21323927 0.18749866 -0.08325389 -0.035925463 -0.16802563 0.02129607 0.041804522 0.31047323 -0.1818371 0.1925649 0.48549575 0.23624897 0.4881335 0.113061026 0.88161236 0.0042769187 0.34239417 0.043932665 0.06729809 0.09483622 0.18511422 0.043630045 -0.01178852 -0.16381598 -0.0066073276 0.1832696 0.4326114 -0.1319408 -0.14418155 0.6050794 -0.2624885 -0.054008737
back 0.017258681 -0.27268788 0.015456269 -0.44043648 -0.20831922 -0.04259682 0.3773078 -0.07366252 -0.33165506 -0.30225712 0.10165077 -0.10502163 0.36536896 0.030643137 -0.5003911 -0.4912754 0.8287809 0.34320226 0.39150003 -0.06007008 0.51375866 -0.6874914 -0.30201304 0.0025369078 -0.27584276 0.48829404 0.43519223 -0.13773845 -0.067582615 0.4179416 0.15079299 -0.3477934 -0.39583385 -0.31976557 0.31594223 -0.3232168 0.14332208 -0.21697216 0.066372626 -0.31739968 0.13805658 -0.30325076 -0.443949 0.26953077 -0.3083303 -0.06015244 -0.0013434899 -0.3460413 -0.22276784 -0.19301543 0.15542419 -0.21259902 -0.6248506 0.06985612 -0.48733535 0.108476825 0.2976617 0.27487496 0.32051846 0.1104219 0.36513445 -0.20814945 -0.06603988 -0.12911007 -0.3768068 0.04643508 -0.10012879 -0.029288827 0.33396173 0.4340338 -0.38955998 0.1320429 -0.28413156 -0.043757126 0.36292318 -0.011843727 0.08434662 0.92358196 -0.097808376 -0.5018461 -0.27729678 -0.22139014 0.6071568 0.10314769 0.14422373 0.20218211 -0.31591004 0.1281191 -0.4190789 -0.22676277 -0.17793502 0.38487694 -0.17559844 -0.027997239 0.47906986 0.25737265 -0.33885837 0.11442161 0.3854168 0.15403096
make -0.65866894 0.20774087 0.40725783 -0.33293948 -0.18688427 -0.08684841 0.24747193 -0.04674047 -0.4844812 -0.10050665 -0.62380993 -0.20091987 0.33418983 0.433034 -0.091361254 -0.3001594 0.26374656 0.3275129 0.51736116 -0.10946732 0.49622527 -0.030389598 0.18046996 -0.0673864 -0.3605723 -0.06289713 0.020860223 0.29666483 0.09348519 0.573989 0.1452144 -0.4173595 0.12959372 0.09518906 0.22404855 -0.16040382 -0.2137257 -0.19753005 -0.46579766 -0.3342289 -0.05619726 -0.01627517 -0.025599185 0.11637174 0.106104255 0.48087463 -0.01966399 -0.2061135 0.1386339 -0.23839372 -0.23405321 0.20982356 -0.5041387 0.48826212 -0.1570166 0.23366499 -0.28203633 -0.19371828 -0.32821226 -0.41047153 -0.103796884 -0.32125533 0.53110343 -0.020533036 0.1885118 -0.1208038 0.0039592735 -0.26624548 0.0332479 0.07076556 0.016020786 -0.10659699 -0.3663557 -0.20518771 0.18621577 0.15579575 0.005518249 -0.04074793 0.28179264 0.09822533 0.31984293 0.28652245 0.109781206 0.30436188 0.09515645 -0.14704038 0.20382777 0.052903358 0.118966304 -0.0072197784 0.24179257 0.016864942 0.14586179 -0.49896076 0.47468188 -0.23507062 0.021517593 -0.25315753 -0.43861818 0.08559583
have -0.34192106 -0.22235252 0.10689594 -0.041444052 -0.29694465 -0.12163986 0.19135137 -0.2173115 0.04519259 -0.24300462 -0.06488101 -0.2663998 0.57556707 0.5069153 0.08621461 -0.27756965 0.5458714 0.50796974 0.35603726 0.038417928 0.27106583 -0.1629363 -0.20776615 0.2343892 -0.23484086 -0.2428804 0.2459663 0.28696477 0.4645197 0.4638167 0.40412456 -0.2499042 -0.28562164 -0.08835186 0.16208735 -0.32651344 -0.03289994 -0.10275044 0.07847533 -0.31707588 0.4448819 0.060836714 0.008918156 0.105476834 0.12038894 0.3320235 -0.1783606 -0.12618871 0.010376047 -0.29886025 0.11775775 0.12016312 -0.27901718 0.637616 -0.013100278 0.09319226 -0.004464109 -0.09685687 0.16801375 -0.055971924 0.23349813 0.061928593 0.04961791 0.12494 0.095492125 -0.13616127 -0.2747792 -0.17513213 0.4640454 0.24662699 0.17330843 -0.25189877 -0.0037896195 -0.36961934 0.38414368 0.342522 -0.53635967 0.1455822 0.16377681 0.13712768 0.40971544 0.08236457 0.5419824 0.10522993 0.4269832 0.44702044 -0.12795453 -0.056825258 -0.0401836 -0.2872901 0.21448949 -0.06557059 0.026628241 -0.041451473 0.4440001 -0.036399815 -0.12145343 0.16079251 -0.24925733 0.16193646
night -0.120827235 -0.35318017 0.2840614 -0.5544189 0.2901719 0.17180724 0.015047521 0.14347984 -0.06668529 -0.40295276 0.19428124 -0.29084235 0.25480226 0.61390775 -0.25952858 -0.18928324 0.26559713 0.06476515 0.3951562 -0.47119865 -0.067930855 -0.10667104 -0.3064329 -0.17603238 0.24280867 0.23950556 -0.11460762 -0.37433675 -0.14432488 0.30209517 0.16460297 0.23898022 -0.081247285 -0.31147695 0.043144993 -0.0142240655 0.07549121 0.025034467 -0.01040375 -0.42891476 0.4370412 -0.08146437 0.13132389 -0.031152584 -0.39241448 0.71276987 0.047530144 -0.046291694 0.3166409 0.13208102 -0.5346087 0.61414456 -0.8190064 0.3382448 -0.324129 0.4258553 -0.5495417 -0.53438336 0.16777547 -0.17687109 0.2557413 0.4014303 0.5931115 -0.26626644 -0.7602387 0.27086204 -0.08337991 0.06316684 -0.27690664 0.24011211 -0.004214987 0.48566684 -0.02262803 0.08491412 -0.24586128 0.5665665 0.24996516 -0.17924994 -0.26841947 -0.04392217 -0.056157228 0.09630075 -0.4220645 0.53117436 0.23322147 -0.1254085 -0.08251532 -0.5719496 -0.35158566 -0.04111696 0.1568321 0.5266031 0.027385928 0.29825646 0.069030814 -0.2325217 0.14072719 -0.18127435 -0.5886186 0.44931552
good -0.17633815 -0.19150963 0.0674516 -0.3448203 -0.28693807 0.30408397 0.371126 -0.13641796 0.2635633 -0.14691503 -0.3512796 -0.21909806 0.4500541 0.14959988 -0.026583413 -0.33910882 0.2812164 0.6489778 0.3313296 -0.2935769 -0.10579359 -0.0040558116 -0.058042854 0.07986293 -0.50813544 0.29814804 -0.062763445 0.64795 0.13042457 0.39968058 -0.025309138 0.25211373 0.08965819 -0.1520814 0.06656203 -0.46562248 -0.096270286 0.13468291 0.10568171 -0.59417605 -0.06321836 -0.080713496 0.117659345 0.5599313 -0.2711282 0.64461976 -0.017220613 -0.14801519 -0.7853533 0.45657614 0.23574977 0.24298592 -0.12107891 0.5850172 -0.15972938 -0.7352449 0.17004395 0.13167273 0.039834633 -0.17734462 0.25886023 0.55871534 0.0871627 0.3364652 -0.2743245 0.39785388 -0.31072968 0.044282306 0.407055 0.07636194 0.4308924 -0.23801975 0.18684539 -0.19463757 -0.13958643 -0.47642887 -0.1543355 0.068614036 0.06249739 -0.13020761 0.5990586 0.015127533 0.88491523 0.64389825 0.2604519 -0.21378131 -0.26307404 -0.42374483 -0.34831008 -0.15907164 0.58360606 0.08173932 0.044534285 -0.40099648 0.66154575 0.11871916 -0.1219031 -0.23382954 -0.761438 -0.11788462
how -0.34938225 -0.06580002 0.21169664 -0.17020284 -0.20091656 -0.25441453 0.54790246 -0.019408088 -0.14049543 0.083159484 -0.33470434 -0.28157514 0.603581 0.43510607 0.16342767 -0.38954794 0.62209857 0.75426865 0.4321716 -0.23032303 -0.02056615 0.1282494 -0.167765 0.03764063 -0.39068347 0.12503198 0.3688138 0.3234041 -0.0386699 0.66815335 0.06715339 0.15282296 0.2664544 0.09385749 -0.14538541 -0.2299506 -0.24566641 -0.20171107 -0.47770226 -0.40808374 -0.031141482 -0.27383167 0.017331567 0.2768684 -0.29386073 0.6509842 -0.8103016 -0.3881543 -0.14765304 0.084047176 0.15157026 0.4336894 -0.4260057 0.43477952 -0.55638355 -0.28046316 -0.011583912 0.049372382 -0.356796 -0.008120033 -0.15837808 -0.39497808 0.09002783 0.49154896 0.3732717 0.69175804 -0.12932345 -0.29140314 0.06517825 0.28388336 0.3927065 0.04487701 -0.48442966 -0.2197091 -0.030496351 -0.039118342 0.30688915 0.31529358 -0.030048704 -0.0733868 0.602822 0.07761033 0.34769246 0.2084151 0.16802695 -0.067793496 -0.06208974 -0.2273728 0.34728912 0.26306137 0.19714436 -0.15523615 0.14634912 0.13675453 0.4939533 0.12397941 -0.007819812 -0.025428103 -0.21738455 0.31986225
they -0.14564301 0.179583 0.06991775 0.12301176 -0.18464108 -0.5188198 0.5090658 -0.0862245 -0.7375887 -0.15142493 -0.29788566 -0.5013317 0.2617221 0.389136 -0.26302674 -0.598676 0.5562532 0.0058204355 0.07506455 -0.14142181 -0.090188615 -0.17567481 0.007247145 -0.058011062 -0.18680318 -0.0023801806 0.25935024 -0.15040903 0.20715648 0.09985036 -0.13088037 -0.07347735 0.12362186 -0.08135401 0.17415507 -0.36501935 0.12763579 -0.18188785 -0.119400896 -0.02017068 0.50229347 0.26501954 -0.17853223 -0.17940086 0.10850794 0.5501092 -0.24660417 -0.07134742 -0.12498379 -0.008805316 -0.27125394 0.3384777 -0.4689252 0.5746707 -0.64463246 -0.06479195 -0.17427805 0.22657499 -0.09154842 -0.2725864 0.47327834 0.051507737 -0.16657832 -0.033102326 -0.14142652 0.08895562 -0.09599131 -0.01322604 -0.15215486 0.12429272 0.31362978 -0.07275233 -0.19952968 -0.101002224 0.16946745 0.24272844 0.14061958 0.16480568 0.120696634 0.07602777 0.24225894 -0.0940525 0.41946274 -0.24094646 0.64054537 0.06766325 0.061149918 -0.11960623 -0.02574897 -0.021303026 -0.1382765 0.046048954 0.03729576 0.10077966 -0.17460096 -0.101669274 -0.15525052 0.1696239 -0.17279114 0.039526366
right -0.36417288 -0.19663249 0.3008263 -0.32255036 0.44334632 -0.023414029 0.3418503 0.11840616 0.19211382 -0.34160668 -0.30709404 -0.33021724 0.455748 -0.16453356 -0.28331736 -0.1440282 0.49101362 0.37939456 0.4474499 -0.147225 0.23059656 -0.16332246 -0.33196157 -0.15794477 -0.4636301 0.18076311 0.3899449 0.01712233 0.08075788 0.5619541 0.20905441 0.2621066 -0.14958489 -0.28148013 0.12057594 -0.41768184 0.3416482 0.07770701 -0.27386084 -0.35422558 0.5496926 0.21185216 -0.05244512 0.10769241 -0.055828847 0.6511934 -0.41773358 -0.23465951 -0.18464525 0.41123396 -0.5266958 0.42638877 -0.67728794 0.07851412 -0.21344082 -0.111253746 0.33383268 0.007249544 0.1562419 -0.21129696 0.28248087 -0.1394308 0.24357238 -0.489608 -0.26566404 0.46276727 -0.14613017 -0.05757271 0.1398726 -0.1809703 -0.17596918 0.10306716 -0.34539795 -0.25741693 0.43733487 -0.2554091 0.11587384 0.27284724 -0.1390965 0.16323537 0.044716608 -0.19555853 0.36815667 0.24832956 0.29849344 0.2884077 -0.14558533 0.2013729 -0.45467642 0.09255477 -0.13844325 0.21937235 -0.093368895 -0.49388936 0.42434874 0.14075683 0.15263103 0.06782777 -0.49064407 -0.110078365
will -0.46221215 0.6224451 0.14354637 -0.5196049 -0.07130604 -0.1177248 0.13373186 -0.31153175 -0.43641937 -0.071951464 -0.28936476 -0.28401795 0.09371095 0.3240653 -0.034840345 -0.27525523 0.6839208 -0.2796748 0.21658878 0.16985407 0.5571312 -0.24847378 0.06771869 0.06689517 -0.53511894 0.21264794 0.01671937 0.40167713 0.12831546 0.49038458 -0.27787787 0.029936604 -0.006634123 -0.23452435 0.5619964 -0.09052782 -0.12153017 -0.27688333 0.24296746 0.19953133 0.20847619 -0.4020339 0.003125462 0.11984567 -0.19863021 0.58895737 -0.13258162 0.042930093 0.09041986 0.2906043 0.10741509 0.12256967 -0.48089796 0.68974257 0.01957732 -0.1518138 0.21762906 -0.045164827 -0.2745584 -0.037020046 -0.24488463 -0.30376488 0.13437754 0.27702022 -0.06228736 0.10237107 0.44644555 -0.29819235 0.34959495 0.029571692 0.03256223 0.54320616 -0.22479923 -0.18442813 -0.44044784 0.30622518 0.3370454 0.3323131 0.2969743 -0.06222312 0.26437247 -0.048897393 0.7694077 -0.06816268 0.14625344 -0.3409688 0.0759017 -0.0059348927 -0.048598323 -0.20278762 -0.055220656 0.29025725 -0.18888564 0.13290496 0.34670842 -0.15177181 -0.5463374 -0.12114158 -0.154178 -0.15026566
away -0.2666112 -0.34828788 -0.039838284 -0.47536522 0.38617602 -0.15042578 0.116955996 -0.34390062 -0.49609035 -0.049168658 -0.40834197 -0.10140463 0.010831543 0.47776037 -0.006385829 -0.53095347 0.38444203 -0.17871927 0.21441923 -0.29013434 0.28828058 -0.24860696 -0.18975842 0.048084006 -0.17175937 0.16493422 -0.28236052 0.053574108 0.1618819 0.33859336 0.12306113 0.40593657 -0.21207193 -0.20855452 -0.045676567 -0.1448365 -0.56132644 -0.26578072 -0.30618623 0.17889328 0.127055 -0.17309813 -0.37154797 0.0035661804 -0.28318542 0.40739125 -0.37496114 -0.057534363 -0.008860474 -0.08990838 -0.039402325 -0.0059987786 -0.7231998 -0.012024631 -0.65118116 0.1624622 -0.43823338 -0.2537044 -0.26523718 -0.033028234 0.035597272 0.17937522 0.31658873 -0.39721596 -0.5150576 0.5470314 -0.0015516836 0.23891516 -0.09697896 -0.31307155 0.011087801 0.22014578 -0.06026215 -0.14126119 -0.25618422 0.20430717 0.46543795 0.022849785 -0.24210604 -0.27691934 0.36873254 0.38618672 0.23742248 0.23173854 0.6981447 -0.39214206 0.10976031 -0.0856323 -0.16268831 -0.12434594 -0.329319 0.029961372 -0.08293893 0.5414222 0.9034809 -0.38087565 -0.034586556 -0.21056715 0.34968016 0.19079247
there -0.34372282 -0.19326064 -0.2970222 -0.2906522 0.08313758 -0.24276459 0.13008893 0.090468384 -0.12650809 -0.4497985 -0.3616791 -0.25787538 0.3301295 -0.026334418 -0.10568577 -0.19689324 0.19725356 0.56033236 0.38530064 -0.052424956 0.46196255 -0.27306512 0.07450551 0.0535579 -0.34346274 0.15417187 0.39520317 0.27212092 0.049590334 0.3798757 0.059452698 0.092821494 -0.21726736 -0.1647982 0.28749603 -0.6494463 0.2710487 -0.2348385 0.0030790144 0.10323951 0.71934867 -0.028061572 -0.11680218 0.27560794 -0.008704179 0.25094497 0.018396817 -0.04466988 0.13237426 0.4507295 0.006373991 0.16367511 -0.3035839 0.1704831 -0.17354491 -0.09723239 -0.23734857 0.21193454 -0.17449594 0.043368608 0.38246092 0.60868686 0.18298027 -0.028889284 -0.32012448 0.2804222 -0.031185525 0.07142103 0.5402831 -0.21830784 -0.09525026 -0.07674042 -0.31592122 0.2883727 0.07070576 -0.14480245 -0.027582044 0.21148074 0.2123584 -0.24318054 0.41168025 -0.13722226 0.6514447 0.2750791 0.44099715 0.19868636 -0.21086507 0.13143983 -0.4362329 -0.22917789 0.07191932 0.2102266 -0.5385838 -0.24088846 0.2874056 0.030257039 -0.20387016 0.4670179 -0.30291164 -0.24629857
were -0.18013625 0.27210853 0.33312005 -0.07178366 -0.28364134 0.03568533 -0.4259029 -0.29756364 -0.23278475 -0.27687097 -0.59410626 -0.25239286 0.0781516 0.30239987 -0.21912593 -0.33035251 -0.043760374 0.016176337 0.14810991 0.3555553 0.35404992 -0.036141448 -0.05116187 -0.24063316 -0.29138306 -0.50358045 -0.22861691 0.011725751 -0.20463507 0.2086156 -0.16022035 -0.25558108 -0.24591804 -0.009597377 0.49201983 -0.4007493 -0.26194373 -0.050464235 0.058397803 0.22753224 0.5336223 0.016390966 -0.35353065 0.032922726 -0.26442018 0.6820893 0.3266575 0.051239066 0.17483504 -0.12864196 -0.47681454 -0.0918205 -0.5462274 0.2150358 -0.24988033 0.091026075 -0.2973467 -0.24331394 -0.1654924 -0.20826398 0.23909001 -0.059578728 0.69048065 0.33973974 0.08788232 -0.12299696 0.36919284 -0.30995208 0.30072883 0.13210073 0.23215313 -0.013247975 -0.09823444 -0.41244763 -0.037123375 0.36894113 -0.3309292 -0.09866362 -0.42603678 0.12772451 0.081795536 -0.10430274 0.6017132 -0.115348 0.27322793 0.013472838 0.07140679 -0.1438632 -0.17356263 -0.31589484 0.10708718 0.14526233 -0.14328279 -0.11796065 0.49706247 -0.1626217 0.1811979 -0.06444699 -0.0993315 -0.42090136
feel -0.66898894 0.26928255 0.35090688 -0.106958464 -0.3301378 0.4700179 0.63838 -0.04488614 0.11197974 -0.17408065 -0.2558915 -0.17149809 0.56663597 0.50462157 -0.40023145 -0.24641706 0.51082736 0.28979594 0.7907231 -0.19104367 0.11452303 -0.161912 -0.18474637 0.019260855 -0.21857314 -0.002203323 -0.16963144 -0.06769998 -0.2542059 0.24318917 -0.03229934 -0.2748658 -0.0265024 0.005742358 0.12320104 -0.16435061 0.3972655 -0.14562838 -0.57583785 -0.49730372 0.12660052 -0.03708963 -0.19137682 0.1766433 -0.29081026 0.64293814 0.007156224 0.027230388 -0.26036677 0.0070646564 -0.27649346 0.21652101 -0.5514865 0.19728044 -0.19599871 -0.055105258 -0.20632862 -0.010443264 0.011882868 -0.11295646 0.13517143 -0.067701176 0.8213465 -0.060551792 -0.2030216 0.33346698 -0.11316926 -0.475332 -0.23708428 0.24706784 0.4045398 0.073793486 -0.26840246 -0.45707193 0.44853625 0.17096752 0.5437241 0.17898676 0.29836857 0.0063453047 0.22637045 0.13569668 0.15326867 0.28387657 -0.1506893 -0.024874456 0.37593585 -0.18139434 -0.11988845 0.25057578 0.18293308 -0.015905567 0.37318704 -0.6136421 0.56324124 -0.29703605 0.07824122 -0.3411445 -0.20686929 0.2592399
at -0.20099919 0.091694064 0.13676544 -0.23368792 0.16275783 -0.19966114 0.16230614 -0.023602096 -0.37007305 0.059666246 -0.4735283 -0.4990221 0.2415162 0.16748324 -0.40479866 -0.20869909 0.033904616 0.034400556 0.3514236 -0.12666893 0.2689842 -0.53528523 0.010238943 -0.041061312 -0.047003243 0.22210902 0.31164157 -0.26825774 0.14538373 0.02255726 0.15415227 -0.17598175 -0.1459374 -0.06457361 0.37583414 -0.065782875 0.18539974 0.19570313 -0.02135968 -0.10493598 0.26460403 -0.007185455 -0.11267137 0.16478893 0.0056319204 0.41241872 0.0095753055 -0.49632087 0.3178809 0.22211562 -0.29314983 0.036919925 -0.6406062 0.1732277 -0.27137437 0.15801789 -0.31191853 -0.02499222 0.1322241 0.030620934 0.67847747 0.13080806 -0.089091785 -0.37388122 -0.33217064 0.060374036 0.16913262 0.20839125 0.36532563 0.04310429 -0.1666091 0.031780533 -0.28992966 0.021234004 -0.049887463 0.25471735 -0.078172006 0.3060244 -0.046248738 -0.0050124135 -0.040849797 -0.13529453 -0.1088725 0.50644904 0.1807201 0.19276758 -0.020971557 0.16945156 -0.13765617 -0.23761468 -0.31446427 0.11323042 -0.06970108 -0.14702238 0.2454814 -0.31111634 -0.097915895 0.001263842 -0.04174649 0.12133717
ill -0.31788245 0.5373884 0.18523163 -0.45974937 -0.007492301 0.10849525 0.31712297 -0.39582026 -0.06147505 -0.12622407 -0.42530882 -0.28015015 0.12386344 0.49616653 0.0058142417 -0.34793612 0.4571643 0.030688068 0.09155168 0.09778997 0.24562965 -0.102407604 0.09079069 -0.20430785 -0.6438169 0.19294718 0.2530386 0.2618832 0.24272148 0.5925131 -0.18958838 0.09598508 -0.17167537 -0.13321066 0.41725698 -0.23843127 -0.004783885 -0.11853526 0.12083309 -0.12425425 0.20850995 -0.2904535 -0.11705635 0.34145066 -0.11496705 0.61716574 -0.44515324 -0.04437465 -0.06592212 0.50603527 0.10900685 0.1974143 -0.40736675 0.55230033 -0.078980125 -0.43910924 -0.08788515 0.20629448 -0.12295391 -0.19426346 -0.20410651 0.3778663 0.054300502 -3.3930715e-05 0.26271093 0.109460175 -0.1113679 -0.19661108 0.29707873 0.0075978944 0.0077495007 0.3839128 0.050601117 -0.046366155 -0.15286915 -0.19068864 0.3876674 0.31201038 0.30926445 0.0033252088 0.31715986 -0.10520572 0.8082156 0.0005949476 0.3754133 0.006619602 0.086202994 0.18012387 -0.25283667 -0.30628058 -0.09687117 0.3493746 0.0056180633 -0.15952238 0.49480155 -0.014682833 -0.20893054 0.0896986 -0.12593232 -0.2786171
little -0.37888545 0.3785205 0.0053937268 -0.4910817 -0.02384374 0.39595073 0.14533015 -0.13807812 -0.19029702 0.07293744 -0.17381665 -0.10511059 0.32871395 0.363117 0.66443187 -0.003868719 0.1469708 -0.013015472 0.16768825 0.06417606 0.24042845 0.121860504 0.06389164 0.16773055 -0.60467315 0.039078686 0.44893363 0.5302168 -0.23214298 0.83683884 -0.19563876 0.15599807 0.250605 0.14632405 0.15493137 -0.09091007 -0.3711455 -0.3104833 0.036716755 -0.23540679 0.11694632 0.055475615 0.1757404 0.3826759 0.10100824 0.08650323 -0.4888238 0.22306305 -0.61452264 0.64992934 -0.48040047 -0.14548302 -0.3805152 0.32355082 0.11198873 -0.30329412 -0.5138222 -0.15898705 -0.38086885 0.19418356 -0.5640358 -0.3119112 0.40581447 0.0698954 -0.41208714 0.07297806 -0.31114805 0.11257801 0.0032150536 -0.35144866 -0.10141176 0.18991911 -0.32067788 -0.37240604 0.26730043 0.43138194 -0.07572414 -0.035163566 0.39215726 -0.4962995 0.11592163 0.5189838 0.036179446 0.0280422 -0.058384925 -0.20935999 0.095282435 0.22625919 -0.24758817 -0.22395952 0.22268175 0.084363684 0.12694244 -0.51673853 0.8335172 -0.28911668 -0.13250902 -0.48973545 -0.53783584 -0.09845777
cause -0.4250017 -0.22312738 0.2951669 -0.14376085 0.24922995 0.07420614 -0.11146049 -0.030472947 -0.081460886 -0.057729248 -0.38719857 -0.22144015 0.42897657 0.1377712 0.025376868 -0.21832515 0.22335656 0.28109604 0.31983376 -0.0005514433 0.38645226 -0.16985784 0.046238586 -0.06365717 -0.4102733 0.071592785 0.13232325 0.03649198 0.08894014 0.49127558 0.35095412 0.17282502 0.03650038 0.05724211 0.09710177 -0.29667175 0.06821509 0.13803339 -0.22917597 -0.2025635 0.37345004 0.026728304 -0.094984725 0.16335352 -0.071586706 0.21151063 -0.23709486 -0.08699452 -0.11962851 0.11547402 -0.06995324 -0.0038937358 -0.5540105 0.17687821 -0.21179828 -0.20780702 -0.0023678148 0.087949745 0.010647167 -0.048450787 0.19890586 0.036828537 0.23772109 0.09979649 -0.087416135 0.39221436 0.0043172752 -0.02357515 0.28695375 0.053373646 0.00675767 0.04766973 -0.1915194 -0.025660716 -0.06949276 -0.032848768 -0.024008865 0.10481981 0.02098796 -0.1021598 0.19810495 -0.10631201 0.47122782 0.29674062 0.12380565 0.1449887 -0.14403269 0.21214505 -0.056276057 -0.17040195 -0.2935371 0.08554184 -0.049382675 -0.12016334 0.5957692 -0.26483488 0.16304515 0.0455094 0.018007273 0.011364396
well -0.39969137 0.14693525 0.11842577 -0.38300171 0.12693372 0.2155098 0.26410118 -0.0005838662 -0.40470293 -0.17271984 -0.1625663 -0.14001973 0.11186079 0.17895977 -0.14314403 -0.15781751 0.22890308 -0.014716003 0.35515574 -0.12389696 0.35885692 -0.39884767 -0.12699117 0.13668242 -0.11127936 0.054240923 0.20172293 0.18967625 0.13255697 0.38599956 -0.092306964 -0.030221803 -0.02322816 -0.1573234 0.03945689 -0.463293 0.037670925 -0.19892134 -0.13644823 -0.16404973 0.39984357 0.19930194 -0.335006 0.0064418693 -0.13255599 0.40515155 -0.15000495 -0.037605375 0.29938793 -0.009365831 -0.33649445 0.3370056 -0.46570438 0.11061343 -0.3826122 0.022614831 0.06255169 0.17617238 0.010355857 0.06684481 -0.012852737 -0.07273053 0.18823273 -0.020100594 0.047247916 0.34961864 -0.029666785 -0.18547404 0.3404121 0.1847456 0.12593037 0.07374881 0.015091795 -0.2716412 -0.008832057 0.061758794 0.06946991 0.11060693 -0.10219822 -0.040483326 0.1843114 0.13660702 0.37217066 0.16049334 0.2346387 0.015851779 -0.016858168 0.049339157 0.007391391 0.11188905 -0.2168664 0.28859636 0.007044973 0.015715336 0.3679045 0.07893037 -0.10953195 0.0019238535 0.009722605 0.17802787
day 0.010031881 0.25506136 -0.12186172 -0.34343806 -0.08445663 0.31958923 0.26812658 0.05830467 0.021196358 -0.35641167 0.07474844 -0.25067344 0.40814182 0.8242575 -0.077791244 -0.39052644 0.23679231 0.115743205 0.4733228 -0.06402144 0.48994377 -0.5352903 -0.13335168 -0.09771625 -0.17853323 -0.12190174 -0.029813292 0.050896484 0.18894827 0.44717762 0.074446715 -0.044497296 0.12994963 -0.04598714 0.37753502 -0.35792497 0.24781781 -0.06988053 -0.009002839 -0.36111277 0.46530432 -0.55569655 -0.040868063 0.07025505 0.18039069 0.58108425 0.13314874 0.060998116 0.3014442 -0.035125554 -0.030047692 0.29082558 -0.47592142 0.25390583 0.08922691 0.0070873834 -0.3680298 -0.14259677 0.17152233 -0.21496834 0.26105773 0.15808807 0.32096246 -0.12772205 -0.3006825 -0.04077027 0.07149703 -0.11841341 0.04786489 0.30344945 -0.07868935 0.31742555 0.06954312 0.15543935 -0.3195206 0.23489892 -0.14571556 0.10042916 0.17273897 -0.21192259 0.13417532 0.16983463 0.13738461 0.29257667 0.16399772 -0.14211786 -0.030528005 -0.11387041 0.106648654 -0.21127255 0.37871727 0.26353654 -0.0542733 0.0537321 -0.052410692 -0.33039847 -0.15139776 0.08163515 -0.6115935 0.20547341
need -0.4254753 0.32052013 0.27500814 -0.11971594 -0.4248416 0.34563595 0.04214913 -0.33303732 0.087588474 -0.14641173 -0.025870241 -0.38176522 0.5856959 0.31651622 0.10576002 -0.13997601 0.3566484 0.3769472 0.41187176 -0.07345688 0.47552207 -0.13883103 0.0042052977 -0.049472526 -0.163607 -0.06892959 0.42586312 0.17212144 0.32990855 0.66187394 0.15882704 -0.20556343 -0.005413834 0.07306016 0.30265898 -0.24029854 0.21657564 0.3295346 0.06694987 -0.71182483 0.15386441 -0.27843937 -0.10013884 0.287093 -0.046563182 0.3829792 -0.26240897 -0.071032986 -0.0818861 0.04397761 -0.1163767 -0.10344203 -0.7017514 0.45990586 -0.12531675 0.11222157 -0.25373217 -0.2188197 -0.13536441 -0.111798376 -0.109972194 0.24399497 0.2785169 -0.008520644 -0.072371155 0.19750255 -0.3166744 -0.11617662 0.37142792 0.22194952 0.091854274 0.09399387 0.12481518 0.08104104 0.13747306 0.11023663 0.030861827 0.31492677 0.35558283 -0.08516363 0.27482995 0.20651719 0.22783208 0.2350467 0.34937698 0.4450157 -0.2752932 0.3140229 -0.14943928 -0.33668634 0.17119774 0.367541 0.043941185 -0.32199377 0.4110527 0.07404448 0.1711614 -0.124275275 -0.28695688 0.29968378
give -0.6015467 0.37154672 0.36796618 -0.10661726 -0.059743356 0.14035515 0.19307107 -0.15953913 -0.134243 -0.18711868 -0.41124144 -0.2549934 0.55256057 0.28266913 0.16455923 -0.34507048 0.50698334 0.55138355 0.4661223 0.11237518 0.30798674 0.07646102 -0.0023048462 -0.10354346 -0.53998053 -0.13675103 0.22794634 0.33068174 0.26136792 0.75980407 0.044546347 -0.20702495 0.121738404 0.016145121 0.31233296 -0.057181794 -0.06656944 -0.05333447 -0.12357402 -0.4392819 0.13545606 -0.29947254 0.095969245 0.16675472 0.26209128 0.31567228 -0.2824919 -0.125132 -0.34392828 0.0453124 -0.17507537 -0.14157794 -0.51232463 0.46653417 -0.10483483 0.030517383 -0.25501782 -0.48997256 -0.28022665 -0.2998784 -0.09120567 -0.3545053 0.23224129 -0.3959796 -0.037560143 -0.04767918 -0.33198726 -0.002897132 0.05850917 -0.07152936 -0.120023064 0.012399289 -0.24874663 -0.24969187 0.5197414 0.16888088 -0.17587791 0.21502632 0.29089147 -0.015928978 0.33290154 0.23602971 0.10754926 0.13285603 0.3805279 0.12126456 -0.13175373 0.385814 -0.0344535 -0.23558412 0.26820466 0.26110512 -0.057960816 -0.42630938 0.63024205 -0.25340652 0.10282592 -0.43272513 -0.5635218 0.057401843
